{
"phenotype": {"n_size": 6, "mod_id": [false, false, false, false, false, false, false, true, false, true, false, true, false], "inputs": [0.0, 0.0, 0.0, 0.0, 0.0, 0.0, 0.0], "neurons": [0.0, 0.0, 0.0, 0.0, 0.0, 0.0], "origin_weights": [[2.957336029159521, -3.886862338074819, 0.0, 0.0, 0.0, 0.0, 4.550551130489825, 3.623261748732805, 0.0, 10.0, 1.698703430157675, -5.79357250994943, 1.548565526287658], [0.1422878038406239, -0.1568261489057506, 1.403449959455752, 8.037254031781403, -10.0, 0.0, 0.1183099450452851, -0.1145390141453694, 0.4071376046507852, -2.130023660291191, 0.1770573538250309, -10.0, -0.6490444069698709], [3.016239599220664, 0.0, 2.163780843094463, 0.0, 0.0, 1.312573305963021, 1.228364985762916, 0.6093301660765609, 0.1538073746657948, -5.580884467015679, -4.475265603486724, 0.3759016828445904, -9.87422903133049], [-10.0, 3.792407602406265, 7.504839076380065, 0.4509568298802377, 0.1385229120198767, 0.0, 10.0, 4.119429814290285, -10.0, 0.21439172869594, 0.0, 5.428532053049961, 0.0], [0.0, 3.37265282792777, -10.0, -10.0, -10.0, -6.673302651153103, -10.0, 10.0, 0.0, 10.0, 0.0, -0.3273527568692414, 0.0], [0.2407303648509168, 0.0, 0.0, -3.239024119071809, 0.4158679181798938, 0.7957645717095276, -1.108005511124262, 8.906112630996093, -0.5919560109443719, -1.310239744692648, -3.521003403835739, 1.723019520601463, 0.0]], "weights": [[2.957336029159521, -3.886862338074819, 0.0, 0.0, 0.0, 0.0, 4.550551130489825, 3.623261748732805, 0.0, 10.0, 1.698703430157675, -5.79357250994943, 1.548565526287658], [0.1422878038406239, -0.1568261489057506, 1.403449959455752, 8.037254031781403, -10.0, 0.0, 0.1183099450452851, -0.1145390141453694, 0.4071376046507852, -2.130023660291191, 0.1770573538250309, -10.0, -0.6490444069698709], [3.016239599220664, 0.0, 2.163780843094463, 0.0, 0.0, 1.312573305963021, 1.228364985762916, 0.6093301660765609, 0.1538073746657948, -5.580884467015679, -4.475265603486724, 0.3759016828445904, -9.87422903133049], [-10.0, 3.792407602406265, 7.504839076380065, 0.4509568298802377, 0.1385229120198767, 0.0, 10.0, 4.119429814290285, -10.0, 0.21439172869594, 0.0, 5.428532053049961, 0.0], [0.0, 3.37265282792777, -10.0, -10.0, -10.0, -6.673302651153103, -10.0, 10.0, 0.0, 10.0, 0.0, -0.3273527568692414, 0.0], [0.2407303648509168, 0.0, 0.0, -3.239024119071809, 0.4158679181798938, 0.7957645717095276, -1.108005511124262, 8.906112630996093, -0.5919560109443719, -1.310239744692648, -3.521003403835739, 1.723019520601463, 0.0]], "params": {"data": [{"Field0": 0, "Field1": "", "Field2": 0.0}, {"Field0": 0, "Field1": "", "Field2": 0.0}, {"Field0": 0, "Field1": "", "Field2": 0.0}, {"Field0": 0, "Field1": "", "Field2": 0.0}, {"Field0": 0, "Field1": "", "Field2": 0.0}, {"Field0": 0, "Field1": "", "Field2": 0.0}, {"Field0": 1673550086, "Field1": "D", "Field2": 0.0}, {"Field0": 0, "Field1": "", "Field2": 0.0}, {"Field0": 0, "Field1": "", "Field2": 0.0}, {"Field0": 0, "Field1": "", "Field2": 0.0}, {"Field0": 3433458314, "Field1": "B", "Field2": -0.9475854312007884}, {"Field0": 3927768715, "Field1": "C", "Field2": -0.1384623582876872}, {"Field0": 0, "Field1": "", "Field2": 0.0}, {"Field0": 0, "Field1": "", "Field2": 0.0}, {"Field0": 1423767502, "Field1": "A", "Field2": 0.21091849560044}, {"Field0": 0, "Field1": "", "Field2": 0.0}, {"Field0": 0, "Field1": "", "Field2": 0.0}, {"Field0": 0, "Field1": "", "Field2": 0.0}, {"Field0": 0, "Field1": "", "Field2": 0.0}, {"Field0": 0, "Field1": "", "Field2": 0.0}, {"Field0": 0, "Field1": "", "Field2": 0.0}, {"Field0": 0, "Field1": "", "Field2": 0.0}, {"Field0": 0, "Field1": "", "Field2": 0.0}, {"Field0": 0, "Field1": "", "Field2": 0.0}, {"Field0": 0, "Field1": "", "Field2": 0.0}, {"Field0": 0, "Field1": "", "Field2": 0.0}, {"Field0": 0, "Field1": "", "Field2": 0.0}, {"Field0": 0, "Field1": "", "Field2": 0.0}, {"Field0": 0, "Field1": "", "Field2": 0.0}, {"Field0": 1591226461, "Field1": "eps", "Field2": 0.0}, {"Field0": 0, "Field1": "", "Field2": 0.0}, {"Field0": 0, "Field1": "", "Field2": 0.0}, {"Field0": 0, "Field1": "", "Field2": 0.0}, {"Field0": 0, "Field1": "", "Field2": 0.0}, {"Field0": 0, "Field1": "", "Field2": 0.0}, {"Field0": 0, "Field1": "", "Field2": 0.0}, {"Field0": 0, "Field1": "", "Field2": 0.0}, {"Field0": 0, "Field1": "", "Field2": 0.0}, {"Field0": 0, "Field1": "", "Field2": 0.0}, {"Field0": 0, "Field1": "", "Field2": 0.0}, {"Field0": 0, "Field1": "", "Field2": 0.0}, {"Field0": 0, "Field1": "", "Field2": 0.0}, {"Field0": 0, "Field1": "", "Field2": 0.0}, {"Field0": 749951083, "Field1": "eta", "Field2": -28.42502024162423}, {"Field0": 0, "Field1": "", "Field2": 0.0}, {"Field0": 0, "Field1": "", "Field2": 0.0}, {"Field0": 0, "Field1": "", "Field2": 0.0}, {"Field0": 0, "Field1": "", "Field2": 0.0}, {"Field0": 0, "Field1": "", "Field2": 0.0}, {"Field0": 0, "Field1": "", "Field2": 0.0}, {"Field0": 0, "Field1": "", "Field2": 0.0}, {"Field0": 0, "Field1": "", "Field2": 0.0}, {"Field0": 0, "Field1": "", "Field2": 0.0}, {"Field0": 0, "Field1": "", "Field2": 0.0}, {"Field0": 0, "Field1": "", "Field2": 0.0}, {"Field0": 0, "Field1": "", "Field2": 0.0}, {"Field0": 0, "Field1": "", "Field2": 0.0}, {"Field0": 0, "Field1": "", "Field2": 0.0}, {"Field0": 0, "Field1": "", "Field2": 0.0}, {"Field0": 0, "Field1": "", "Field2": 0.0}, {"Field0": 0, "Field1": "", "Field2": 0.0}, {"Field0": 0, "Field1": "", "Field2": 0.0}, {"Field0": 0, "Field1": "", "Field2": 0.0}, {"Field0": 0, "Field1": "", "Field2": 0.0}], "counter": 6}},
"0": {
	"result": 1,
	"status": {"data": [{"Field0": 0, "Field1": "", "Field2": {"Field0": [], "Field1": [], "Field2": []}}, {"Field0": 0, "Field1": "", "Field2": {"Field0": [], "Field1": [], "Field2": []}}, {"Field0": 0, "Field1": "", "Field2": {"Field0": [], "Field1": [], "Field2": []}}, {"Field0": 0, "Field1": "", "Field2": {"Field0": [], "Field1": [], "Field2": []}}, {"Field0": 0, "Field1": "", "Field2": {"Field0": [], "Field1": [], "Field2": []}}, {"Field0": 0, "Field1": "", "Field2": {"Field0": [], "Field1": [], "Field2": []}}, {"Field0": 0, "Field1": "", "Field2": {"Field0": [], "Field1": [], "Field2": []}}, {"Field0": 0, "Field1": "", "Field2": {"Field0": [], "Field1": [], "Field2": []}}, {"Field0": 0, "Field1": "", "Field2": {"Field0": [], "Field1": [], "Field2": []}}, {"Field0": 0, "Field1": "", "Field2": {"Field0": [], "Field1": [], "Field2": []}}, {"Field0": 704762634, "Field1": "2_11", "Field2": {"Field0": [1.0, 0.03486687538269349, 0.07581939853613362, 0.04434631941687425, 0.0, 0.04563574710619378, 0.04356302063040406], "Field1": [1.000097382756544, -0.9947562519952705, -0.9999335060848166, -1.000090206845114, 0.2587219001040936, -0.9999881941647126], "Field2": [[10.0, -5.541961029957123, 0.0, 0.0, 0.0, 0.0, 4.334051948153562, 3.623261748732805, 0.0, 10.0, -10.0, -5.79357250994943, -6.244044635666778], [-10.0, 10.0, 1.230033497796789, 10.0, 0.8053150482949518, 0.0, 3.545468913941253, -0.1145390141453694, 10.0, -2.130023660291191, 10.0, -10.0, 10.0], [-10.0, 0.0, -8.561272975051812, 0.0, 0.0, 4.210736047568617, 5.189895229398135, 0.6093301660765609, 10.0, -5.580884467015679, 10.0, 0.3759016828445904, 10.0], [-1.5916816416494, 5.650581206302729, -10.0, 3.513646306060418, -10.0, 0.0, 7.977913900695489, 4.119429814290285, -10.0, 0.21439172869594, 0.0, 5.428532053049961, 0.0], [0.0, 5.227958875289806, 9.271645171332507, -4.889500353494249, 0.1912056845248604, -6.823725660116042, -5.397512661251206, 10.0, 0.0, 10.0, 0.0, -0.3273527568692414, 0.0], [-10.0, 0.0, 0.0, 6.605417358436451, 6.606820022528536, 8.498027100303098, 8.566281114881452, 8.906112630996093, 10.0, -1.310239744692648, 10.0, 1.723019520601463, 0.0]]}}, {"Field0": 0, "Field1": "", "Field2": {"Field0": [], "Field1": [], "Field2": []}}, {"Field0": 0, "Field1": "", "Field2": {"Field0": [], "Field1": [], "Field2": []}}, {"Field0": 917503373, "Field1": "2_26", "Field2": {"Field0": [1.0, 0.0, 0.0, 0.0, 0.0895738871456313, 0.0, 0.0], "Field1": [-0.9999252133359344, -0.9999117245343356, 0.9998825654125469, 1.000067355813542, 0.05772909085157276, 1.000159359006437], "Field2": [[10.0, -3.589710519780866, 0.0, 0.0, 0.0, 0.0, -0.01694467701867541, 3.623261748732805, 0.0, 10.0, 10.0, -5.79357250994943, 10.0], [-10.0, 10.0, 10.0, 10.0, 4.445440055700696, 0.0, 10.0, -0.1145390141453694, 10.0, -2.130023660291191, -10.0, -10.0, -10.0], [-10.0, 0.0, -9.827438122728097, 0.0, 0.0, 6.065091931944533, 2.80540301775574, 0.6093301660765609, 7.001458358537054, -5.580884467015679, -10.0, 0.3759016828445904, -10.0], [-10.0, 5.749178345915993, 2.419717972238745, 6.11836772110804, 4.268683300881404, 0.0, 6.11836772110804, 4.119429814290285, 6.766362325451993, 0.21439172869594, 0.0, 5.428532053049961, 0.0], [0.0, 4.505677314820763, 8.778226215569628, -4.499919324660829, 0.4230906863565443, -5.945416424899983, -5.911168323292006, 10.0, 0.0, 10.0, 0.0, -0.3273527568692414, 0.0], [-10.0, 0.0, 0.0, 4.450276277454343, 4.18745866034256, 6.063206603610377, 5.018270952988866, 8.906112630996093, 7.002147856604015, -1.310239744692648, -10.0, 1.723019520601463, 0.0]]}}, {"Field0": 0, "Field1": "", "Field2": {"Field0": [], "Field1": [], "Field2": []}}, {"Field0": 0, "Field1": "", "Field2": {"Field0": [], "Field1": [], "Field2": []}}, {"Field0": 0, "Field1": "", "Field2": {"Field0": [], "Field1": [], "Field2": []}}, {"Field0": 0, "Field1": "", "Field2": {"Field0": [], "Field1": [], "Field2": []}}, {"Field0": 0, "Field1": "", "Field2": {"Field0": [], "Field1": [], "Field2": []}}, {"Field0": 0, "Field1": "", "Field2": {"Field0": [], "Field1": [], "Field2": []}}, {"Field0": 357740564, "Field1": "2_9", "Field2": {"Field0": [1.0, 0.1870711620823485, 0.0, 0.08113039804126934, 0.06595171315681975, 0.0, 0.1035638492111115], "Field1": [-1.000162526223554, -1.000175125338206, 1.000009643544534, 1.000041581413612, -0.1934724425307333, 1.000052806080515], "Field2": [[-10.0, -8.769467086673835, 0.0, 0.0, 0.0, 0.0, 3.637397400638085, 3.623261748732805, 0.0, 10.0, -10.0, -5.79357250994943, -10.0], [10.0, 9.030134852559964, 0.3763778763065311, 8.735251841066644, -2.520178858704361, 0.0, 1.380105774665225, -0.1145390141453694, -10.0, -2.130023660291191, 10.0, -10.0, 10.0], [10.0, 0.0, -6.064101121492244, 0.0, 0.0, 5.714997723742953, 6.62590496349643, 0.6093301660765609, -10.0, -5.580884467015679, 10.0, 0.3759016828445904, 10.0], [-1.51550687904677, 2.64599147721618, -10.0, 3.443802748561481, -9.350153412732116, 0.0, 4.890277941744863, 4.119429814290285, -2.126910862223896, 0.21439172869594, 0.0, 5.428532053049961, 0.0], [0.0, 5.511174894143024, 9.802795353821404, -4.673693096703436, 0.03268701175777561, -6.47285442056295, -5.059663284226572, 10.0, 0.0, 10.0, 0.0, -0.3273527568692414, 0.0], [10.0, 0.0, 0.0, 10.0, 10.0, 10.0, 10.0, 8.906112630996093, -10.0, -1.310239744692648, 10.0, 1.723019520601463, 0.0]]}}, {"Field0": 3483697044, "Field1": "2_12", "Field2": {"Field0": [1.0, 0.133094077722581, 0.0, 0.0, 0.188494105627305, 0.1545811564294465, 0.0], "Field1": [0.9998807808657117, -1.000025197749059, -0.9999216682724285, 0.9998873429664829, -0.3122308539356848, -1.000099780933496], "Field2": [[-10.0, -10.0, 0.0, 0.0, 0.0, 0.0, 0.3980389859539266, 3.623261748732805, 0.0, 10.0, -10.0, -5.79357250994943, 10.0], [-10.0, 9.768966334855346, 3.26440761482293, 10.0, -0.3686881050145967, 0.0, 5.579843030967394, -0.1145390141453694, 10.0, -2.130023660291191, -4.984809657414921, -10.0, 10.0], [10.0, 0.0, -10.0, 0.0, 0.0, 5.365582942954868, 1.254503148772901, 0.6093301660765609, -10.0, -5.580884467015679, 10.0, 0.3759016828445904, -10.0], [10.0, 10.0, -6.065225464390316, 7.448420841670101, -2.118653589395602, 0.0, 10.0, 4.119429814290285, -10.0, 0.21439172869594, 0.0, 5.428532053049961, 0.0], [0.0, 5.012138512353236, 9.373448976720875, -4.78769654810588, -0.1568248269736459, -7.090824153686089, -5.295708855862837, 10.0, 0.0, 10.0, 0.0, -0.3273527568692414, 0.0], [10.0, 0.0, 0.0, 2.668169977802369, 8.878560634344309, 9.652676577320205, 4.629033734247369, 8.906112630996093, -10.0, -1.310239744692648, 10.0, 1.723019520601463, 0.0]]}}, {"Field0": 1415344918, "Field1": "2_7", "Field2": {"Field0": [1.0, 0.0, 0.119856158455316, 0.0, 0.0, 0.0, 0.0], "Field1": [1.000028075997318, 0.9999528301738377, -0.9999164832930921, -1.000100864440164, 0.8315613509232068, -1.000036122094887], "Field2": [[10.0, -2.621627705547454, 0.0, 0.0, 0.0, 0.0, 8.398928662279616, 3.623261748732805, 0.0, 10.0, -7.004307100646344, -5.79357250994943, -7.002951541404439], [-10.0, 3.088640241745006, 0.377008462682058, 6.436865417287587, -4.691462781403466, 0.0, 0.03927696416578996, -0.1145390141453694, -10.0, -2.130023660291191, 10.0, -10.0, 10.0], [-10.0, 0.0, -10.0, 0.0, 0.0, 1.437600890943255, 2.388533574379044, 0.6093301660765609, -10.0, -5.580884467015679, 10.0, 0.3759016828445904, 10.0], [-10.0, 9.999173575912227, -10.0, 9.988574197466708, -2.952515775043288, 0.0, 9.583042002348463, 4.119429814290285, -10.0, 0.21439172869594, 0.0, 5.428532053049961, 0.0], [0.0, 3.557733816236177, 10.0, -5.912139560746771, -1.095318581220644, -6.027882948972723, -5.932553975296934, 10.0, 0.0, 10.0, 0.0, -0.3273527568692414, 0.0], [-10.0, 0.0, 0.0, 10.0, 10.0, 10.0, 9.584462200783836, 8.906112630996093, -10.0, -1.310239744692648, 10.0, 1.723019520601463, 0.0]]}}, {"Field0": 1033728277, "Field1": "2_17", "Field2": {"Field0": [0.8915205259847945, 0.08098718367785938, 0.03689559696270461, 0.04728030827387392, 0.1070379610025819, 0.0, 0.0], "Field1": [-0.9999064395831235, 0.9998619526776452, 1.000016064202358, 0.9999430204888206, 0.5911541373986868, 1.000065674317852], "Field2": [[-10.0, -5.772116568310477, 0.0, 0.0, 0.0, 0.0, 2.545918869217811, 3.623261748732805, 0.0, 10.0, -10.0, -5.79357250994943, -10.0], [10.0, 7.936555286095999, 2.18250511750142, 7.257649767718698, 8.332257510049024, 0.0, 4.970571099888076, -0.1145390141453694, 10.0, -2.130023660291191, 10.0, -10.0, 10.0], [10.0, 0.0, -5.161190900574085, 0.0, 0.0, 6.352585587276096, 7.054212206811296, 0.6093301660765609, 10.0, -5.580884467015679, 10.0, 0.3759016828445904, 10.0], [2.114044658930163, 7.045055335300828, -5.272674975016781, 8.918596581902035, -1.015094055154827, 0.0, 7.83497297161154, 4.119429814290285, -7.476756222948677, 0.21439172869594, 0.0, 5.428532053049961, 0.0], [0.0, 5.910533367677664, 10.0, -4.197773076185209, 2.660529416391221, -5.635682372351767, -4.761903525073485, 10.0, 0.0, 10.0, 0.0, -0.3273527568692414, 0.0], [10.0, 0.0, 0.0, 10.0, 6.869359938756848, 6.350663613890076, 10.0, 8.906112630996093, 10.0, -1.310239744692648, 10.0, 1.723019520601463, 0.0]]}}, {"Field0": 1304899093, "Field1": "4_42", "Field2": {"Field0": [0.9638337102069154, 0.02394694681032746, 0.07313884279578667, 0.06856736752609255, 0.0, 0.0, 1.0], "Field1": [-1.000056380073759, 1.000053811372307, 1.000039718574223, -0.999892451338693, -0.9706538008154819, 1.000031630291937], "Field2": [[10.0, -8.000415499334558, 0.0, 0.0, 0.0, 0.0, 10.0, 3.623261748732805, 0.0, 10.0, -10.0, -5.79357250994943, 10.0], [10.0, 9.022409899195857, 10.0, 10.0, 5.232109377743928, 0.0, 10.0, -0.1145390141453694, 10.0, -2.130023660291191, -6.99887543858955, -10.0, 10.0], [-10.0, 0.0, -10.0, 0.0, 0.0, -9.768664989560811, -10.0, 0.6093301660765609, -10.0, -5.580884467015679, 10.0, 0.3759016828445904, -10.0], [-10.0, -6.853421465148749, 4.012543665112928, -5.694360754922863, -1.437084014884857, 0.0, -10.0, 4.119429814290285, -10.0, 0.21439172869594, 0.0, 5.428532053049961, 0.0], [0.0, -1.016978093574408, 3.229482545511276, -4.719179616530131, -5.162146419846267, 4.23597354892158, 7.069980503990307, 10.0, 0.0, 10.0, 0.0, -0.3273527568692414, 0.0], [-10.0, 0.0, 0.0, 4.627594549818485, -4.863062979901468, -9.769170124552122, -10.0, 8.906112630996093, -10.0, -1.310239744692648, 10.0, 1.723019520601463, 0.0]]}}, {"Field0": 2197416729, "Field1": "4_38", "Field2": {"Field0": [1.0, 0.0, 0.07264747347551682, 0.0, 0.1276140426904748, 1.0, 0.0], "Field1": [-0.9999776685195446, 1.000012114164376, 0.9998080189878431, -1.000188716673635, 0.4564888331845411, 1.000192230187275], "Field2": [[10.0, -8.397114409195193, 0.0, 0.0, 0.0, 0.0, 0.6957741559996959, 3.623261748732805, 0.0, 10.0, -10.0, -5.79357250994943, 10.0], [10.0, 10.0, 10.0, 10.0, 10.0, 0.0, 10.0, -0.1145390141453694, 10.0, -2.130023660291191, -10.0, -10.0, 10.0], [-10.0, 0.0, -8.685581767956482, 0.0, 0.0, -10.0, -0.1502880059323188, 0.6093301660765609, -10.0, -5.580884467015679, 10.0, 0.3759016828445904, -10.0], [-10.0, -6.063599200048352, 7.943956996617811, -1.477855480068815, 2.717442097901189, 0.0, 5.143864958538305, 4.119429814290285, -10.0, 0.21439172869594, 0.0, 5.428532053049961, 0.0], [0.0, 0.7483578676677868, 4.263174427588584, -4.663478520903437, -2.475109660286546, 8.998840448996376, -8.258005758364307, 10.0, 0.0, 10.0, 0.0, -0.3273527568692414, 0.0], [-10.0, 0.0, 0.0, 6.063098445429348, -0.1485304681439459, -10.0, 2.058860510626121, 8.906112630996093, -10.0, -1.310239744692648, 10.0, 1.723019520601463, 0.0]]}}, {"Field0": 1870832410, "Field1": "4_37", "Field2": {"Field0": [0.9103557025418647, 0.2023597322442952, 0.0, 0.03216610331353324, 0.0, 1.0, 0.02775117605202769], "Field1": [-1.000188056683418, 0.9998984091993217, 1.000211591923747, -0.9999097089722325, -1.000080300752724, 0.9998798023311649], "Field2": [[-10.0, -4.460941117226765, 0.0, 0.0, 0.0, 0.0, 4.631947447968125, 3.623261748732805, 0.0, 10.0, 9.335019255835089, -5.79357250994943, -5.723956035118807], [10.0, 10.0, 7.314774503507635, 10.0, 10.0, 0.0, 10.0, -0.1145390141453694, 10.0, -2.130023660291191, -7.000762776653502, -10.0, 10.0], [10.0, 0.0, -3.229912336284976, 0.0, 0.0, 10.0, 3.784264575099536, 0.6093301660765609, 10.0, -5.580884467015679, -6.999198373453861, 0.3759016828445904, 10.0], [-10.0, -10.0, 6.39987240527564, -5.414256280020463, 2.983433042206036, 0.0, 1.207464158586658, 4.119429814290285, -10.0, 0.21439172869594, 0.0, 5.428532053049961, 0.0], [0.0, 0.1801658044991863, 3.13902919407519, -5.231670584072038, -4.019900471079805, 0.777895389095443, -8.826197821532908, 10.0, 0.0, 10.0, 0.0, -0.3273527568692414, 0.0], [10.0, 0.0, 0.0, 10.0, 6.460670370114131, 10.0, 5.995762065196773, 8.906112630996093, 10.0, -1.310239744692648, -7.003305409829853, 1.723019520601463, 0.0]]}}, {"Field0": 0, "Field1": "", "Field2": {"Field0": [], "Field1": [], "Field2": []}}, {"Field0": 2242207644, "Field1": "2_22", "Field2": {"Field0": [0.9527514084286406, 0.005876231950956402, 0.0, 0.0, 0.1824588282296949, 0.0, 0.04985028719381478], "Field1": [-0.999895677224347, 0.9999964784789589, 1.000131188592368, -1.000025884839821, 0.03583757402579869, 0.9999481864679942], "Field2": [[10.0, -6.329708320011747, 0.0, 0.0, 0.0, 0.0, -0.01945802428237675, 3.623261748732805, 0.0, 10.0, -10.0, -5.79357250994943, 10.0], [10.0, 10.0, 7.156892658301594, 10.0, 10.0, 0.0, 10.0, -0.1145390141453694, 10.0, -2.130023660291191, -10.0, -10.0, 10.0], [-10.0, 0.0, -8.048693007618819, 0.0, 0.0, 6.063326482509169, 2.803717557621408, 0.6093301660765609, -10.0, -5.580884467015679, 7.004779402468458, 0.3759016828445904, -10.0], [-10.0, 10.0, 4.148056315569148, 10.0, 3.574273852901337, 0.0, 10.0, 4.119429814290285, -10.0, 0.21439172869594, 0.0, 5.428532053049961, 0.0], [0.0, 4.848224072870973, 9.113951626071202, -4.174513497670064, 2.508391867567021, -5.327428352950396, -5.596019475253072, 10.0, 0.0, 10.0, 0.0, -0.3273527568692414, 0.0], [-10.0, 0.0, 0.0, 6.063492897149771, 0.2136052328877671, 6.063492897149771, 5.019380859100843, 8.906112630996093, -10.0, -1.310239744692648, 7.008990375674653, 1.723019520601463, 0.0]]}}, {"Field0": 3433971868, "Field1": "4_40", "Field2": {"Field0": [1.0, 0.0, 0.0, 0.0, 0.03285940082465053, 0.0, 0.8884387193262911], "Field1": [0.9998277891160121, -0.9999888550619056, -1.000023448819401, -1.000062560965473, -0.9999001554146804, -1.00008060696508], "Field2": [[-10.0, -6.923404757514576, 0.0, 0.0, 0.0, 0.0, -10.0, 3.623261748732805, 0.0, 10.0, 7.007560641271024, -5.79357250994943, 10.0], [-10.0, 8.520818342356039, 9.999848731063311, 9.999848731063311, 5.231885425146888, 0.0, -10.0, -0.1145390141453694, 10.0, -2.130023660291191, 10.0, -10.0, 10.0], [10.0, 0.0, -8.685725742567941, 0.0, 0.0, -10.0, 10.0, 0.6093301660765609, -10.0, -5.580884467015679, -10.0, 0.3759016828445904, -10.0], [10.0, -8.56449500873191, 6.064821644257124, -1.9068784708541, -1.793085858506805, 0.0, 10.0, 4.119429814290285, -10.0, 0.21439172869594, 0.0, 5.428532053049961, 0.0], [0.0, 1.181069417854531, 4.917833405681854, -4.008819542810167, -2.715975140211811, 6.567401180106967, -10.0, 10.0, 0.0, 10.0, 0.0, -0.3273527568692414, 0.0], [10.0, 0.0, 0.0, 6.062234478494158, -4.861847853887905, -10.0, 10.0, 8.906112630996093, -10.0, -1.310239744692648, -10.0, 1.723019520601463, 0.0]]}}, {"Field0": 535959966, "Field1": "2_30", "Field2": {"Field0": [1.0, 0.0, 0.03497363336131786, 0.0, 0.1270380481455627, 0.0, 0.06978681839899066], "Field1": [-0.9999231718317739, -0.9999631063485648, 0.9999144176703851, 1.000116296941636, -0.4613985042387989, 0.9999762808365906], "Field2": [[10.0, -0.530060043659677, 0.0, 0.0, 0.0, 0.0, -0.03632060069460485, 3.623261748732805, 0.0, 10.0, 10.0, -5.79357250994943, 10.0], [-10.0, 10.0, 7.211865291628317, 10.0, 6.535993286722709, 0.0, 10.0, -0.1145390141453694, 10.0, -2.130023660291191, -10.0, -10.0, -10.0], [-10.0, 0.0, -5.132084832554914, 0.0, 0.0, 3.872262930491168, 1.623865306928929, 0.6093301660765609, 7.002913029696494, -5.580884467015679, -10.0, 0.3759016828445904, -10.0], [-10.0, 0.9410825098925417, 5.334957071503647, 4.63427561899317, 2.285257041524752, 0.0, 4.606551670822928, 4.119429814290285, 6.989209899901766, 0.21439172869594, 0.0, 5.428532053049961, 0.0], [0.0, 3.713459579017989, 5.713793456429265, -5.890238609105631, -1.381112595240358, -7.090901981445605, -7.483641274788988, 10.0, 0.0, 10.0, 0.0, -0.3273527568692414, 0.0], [-10.0, 0.0, 0.0, 2.964304834696465, 2.199071589848347, 3.871272056156401, 3.837817329119586, 8.906112630996093, 7.001874041459068, -1.310239744692648, -10.0, 1.723019520601463, 0.0]]}}, {"Field0": 0, "Field1": "", "Field2": {"Field0": [], "Field1": [], "Field2": []}}, {"Field0": 3089126176, "Field1": "3_35", "Field2": {"Field0": [0.7925761102319709, 1.0, 0.2706295038755158, 0.07564626865141491, 0.2647149922635823, 0.2519746670003086, 0.2945017189658423], "Field1": [1.000058917108454, -0.9999690176202609, -0.9998434548579641, -0.9999266217993457, -0.9999863368206845, -0.9999909738297825], "Field2": [[10.0, 10.0, 0.0, 0.0, 0.0, 0.0, 8.65083096434401, 3.623261748732805, 0.0, 10.0, 0.5748954055233586, -5.79357250994943, 0.5741484121600315], [-10.0, -10.0, 1.087312765836106, 7.508406928278005, 1.282086618785218, 0.0, 0.3011644552653214, -0.1145390141453694, 10.0, -2.130023660291191, 10.0, -10.0, 10.0], [-10.0, 0.0, -9.459826177690161, 0.0, 0.0, -5.182152978273407, -7.43383233320027, 0.6093301660765609, 10.0, -5.580884467015679, 10.0, 0.3759016828445904, 10.0], [10.0, 10.0, 10.0, -0.2880031331511903, 8.062905581597327, 0.0, 8.186321467682067, 4.119429814290285, -10.0, 0.21439172869594, 0.0, 5.428532053049961, 0.0], [0.0, -9.90716460059879, 3.656400758384447, -5.359402698738393, -4.316508727140435, -9.318668391084032, -10.0, 10.0, 0.0, 10.0, 0.0, -0.3273527568692414, 0.0], [-10.0, 0.0, 0.0, 6.141415396916655, -2.326422499035207, -5.183320681820947, -5.220039632633125, 8.906112630996093, 10.0, -1.310239744692648, 10.0, 1.723019520601463, 0.0]]}}, {"Field0": 0, "Field1": "", "Field2": {"Field0": [], "Field1": [], "Field2": []}}, {"Field0": 0, "Field1": "", "Field2": {"Field0": [], "Field1": [], "Field2": []}}, {"Field0": 3237294499, "Field1": "0_0", "Field2": {"Field0": [0.0, 0.0, 0.0, 0.0, 0.0, 0.0, 0.0], "Field1": [0.0, 0.0, 0.0, 0.0, 0.0, 0.0], "Field2": [[2.957336029159521, -3.886862338074819, 0.0, 0.0, 0.0, 0.0, 4.550551130489825, 3.623261748732805, 0.0, 10.0, 1.698703430157675, -5.79357250994943, 1.548565526287658], [0.1422878038406239, -0.1568261489057506, 1.403449959455752, 8.037254031781403, -10.0, 0.0, 0.1183099450452851, -0.1145390141453694, 0.4071376046507852, -2.130023660291191, 0.1770573538250309, -10.0, -0.6490444069698709], [3.016239599220664, 0.0, 2.163780843094463, 0.0, 0.0, 1.312573305963021, 1.228364985762916, 0.6093301660765609, 0.1538073746657948, -5.580884467015679, -4.475265603486724, 0.3759016828445904, -9.87422903133049], [-10.0, 3.792407602406265, 7.504839076380065, 0.4509568298802377, 0.1385229120198767, 0.0, 10.0, 4.119429814290285, -10.0, 0.21439172869594, 0.0, 5.428532053049961, 0.0], [0.0, 3.37265282792777, -10.0, -10.0, -10.0, -6.673302651153103, -10.0, 10.0, 0.0, 10.0, 0.0, -0.3273527568692414, 0.0], [0.2407303648509168, 0.0, 0.0, -3.239024119071809, 0.4158679181798938, 0.7957645717095276, -1.108005511124262, 8.906112630996093, -0.5919560109443719, -1.310239744692648, -3.521003403835739, 1.723019520601463, 0.0]]}}, {"Field0": 609824420, "Field1": "2_4", "Field2": {"Field0": [1.0, 0.0, 0.0, 0.0, 0.0, 0.003870181982147701, 0.007383173326028585], "Field1": [1.000026086804841, 0.99997896742671, -1.000001148317379, -1.000052479559973, -0.06816879196630765, 1.000068400432888], "Field2": [[-10.0, -0.8408877877881977, 0.0, 0.0, 0.0, 0.0, 5.909157135254905, 3.623261748732805, 0.0, 10.0, 7.006247273993203, -5.79357250994943, -10.0], [-10.0, 0.9835543113724752, 6.064592293973054, 6.064592293973054, -1.133057535192799, 0.0, 1.104099479313474, -0.1145390141453694, -10.0, -2.130023660291191, 7.003967823569248, -10.0, -10.0], [10.0, 0.0, -10.0, 0.0, 0.0, -2.496933586540379, -2.465448168904547, 0.6093301660765609, 10.0, -5.580884467015679, -10.0, 0.3759016828445904, 10.0], [10.0, 6.064081292513952, -10.0, 3.49791996836356, -6.881542429308309, 0.0, 6.307210048701956, 4.119429814290285, 10.0, 0.21439172869594, 0.0, 5.428532053049961, 0.0], [0.0, 3.455541617204701, 10.0, -5.980053602737442, -1.080917944396494, -6.013482312148573, -6.04382578626429, 10.0, 0.0, 10.0, 0.0, -0.3273527568692414, 0.0], [10.0, 0.0, 0.0, 8.552782520870831, 10.0, 10.0, 10.0, 8.906112630996093, 10.0, -1.310239744692648, -10.0, 1.723019520601463, 0.0]]}}, {"Field0": 2898646692, "Field1": "3_36", "Field2": {"Field0": [1.0, 1.0, 0.189149885322441, 0.2187036614532404, 0.2668542704904931, 0.2066334506888504, 0.3229600659302255], "Field1": [1.000040241146509, -1.000098260770872, -0.9999701693858126, 1.000085858519182, -1.000034294107082, -1.000020234465101], "Field2": [[-3.030424786753567, -3.030424786753567, 0.0, 0.0, 0.0, 0.0, 3.04663382969406, 3.623261748732805, 0.0, 10.0, -10.0, -5.79357250994943, 9.481285684221163], [10.0, 10.0, 3.379918897765852, 10.0, 6.133445241921571, 0.0, 7.00004871729661, -0.1145390141453694, -10.0, -2.130023660291191, 10.0, -10.0, -10.0], [10.0, 0.0, -7.166358228349633, 0.0, 0.0, -2.312850273020381, -0.7332225295484092, 0.6093301660765609, -10.0, -5.580884467015679, 10.0, 0.3759016828445904, -10.0], [-10.0, -10.0, 2.820184085513236, -8.030467207331414, -0.5962552775563683, 0.0, -1.540987922224181, 4.119429814290285, 5.46122588865974, 0.21439172869594, 0.0, 5.428532053049961, 0.0], [0.0, -0.6838543737687566, 4.385780697178373, -4.320436919529239, -2.773148967976622, -8.40614216825997, -7.868912982008077, 10.0, 0.0, 10.0, 0.0, -0.3273527568692414, 0.0], [10.0, 0.0, 0.0, 9.40756274895613, 2.525342267682442, -2.314649847099161, 1.47930978757839, 8.906112630996093, -10.0, -1.310239744692648, 10.0, 1.723019520601463, 0.0]]}}, {"Field0": 909288230, "Field1": "2_27", "Field2": {"Field0": [1.0, 0.1461527491273054, 0.1578578556377197, 0.0970522147609113, 0.1167575890402502, 0.09796252229404583, 0.06086119687244423], "Field1": [1.000004514649431, -1.000021276836738, -1.000062789704239, -0.9999227237936981, 0.6135761795251511, -0.9999323930482577], "Field2": [[10.0, 3.405948221846995, 0.0, 0.0, 0.0, 0.0, 5.192872534844374, 3.623261748732805, 0.0, 10.0, -7.000963686714943, -5.79357250994943, -7.001166142361463], [-10.0, 9.132828605616401, 8.751701668719242, 10.0, 4.535396844098961, 0.0, 10.0, -0.1145390141453694, 10.0, -2.130023660291191, 10.0, -10.0, 10.0], [-10.0, 0.0, -10.0, 0.0, 0.0, 6.775183836894865, 4.737344407557888, 0.6093301660765609, 10.0, -5.580884467015679, 10.0, 0.3759016828445904, 10.0], [-10.0, 4.873240155945825, 1.158939006524474, 6.856758090916553, 4.359199897201264, 0.0, 8.046647254827583, 4.119429814290285, 10.0, 0.21439172869594, 0.0, 5.428532053049961, 0.0], [0.0, 4.393512470605239, 8.660809570670782, -4.59005393619906, 0.3241147457784382, -6.035959469605422, -5.985064892715227, 10.0, 0.0, 10.0, 0.0, -0.3273527568692414, 0.0], [-10.0, 0.0, 0.0, 5.189836942071783, 4.278146029952087, 6.772791981277045, 6.94955650920617, 8.906112630996093, 10.0, -1.310239744692648, 10.0, 1.723019520601463, 0.0]]}}, {"Field0": 0, "Field1": "", "Field2": {"Field0": [], "Field1": [], "Field2": []}}, {"Field0": 0, "Field1": "", "Field2": {"Field0": [], "Field1": [], "Field2": []}}, {"Field0": 0, "Field1": "", "Field2": {"Field0": [], "Field1": [], "Field2": []}}, {"Field0": 0, "Field1": "", "Field2": {"Field0": [], "Field1": [], "Field2": []}}, {"Field0": 0, "Field1": "", "Field2": {"Field0": [], "Field1": [], "Field2": []}}, {"Field0": 0, "Field1": "", "Field2": {"Field0": [], "Field1": [], "Field2": []}}, {"Field0": 0, "Field1": "", "Field2": {"Field0": [], "Field1": [], "Field2": []}}, {"Field0": 0, "Field1": "", "Field2": {"Field0": [], "Field1": [], "Field2": []}}, {"Field0": 0, "Field1": "", "Field2": {"Field0": [], "Field1": [], "Field2": []}}, {"Field0": 0, "Field1": "", "Field2": {"Field0": [], "Field1": [], "Field2": []}}, {"Field0": 204754481, "Field1": "4_39", "Field2": {"Field0": [0.8975757429072794, 0.07062158731299681, 0.0, 0.0, 0.1759974944052688, 0.9819674814954956, 0.0], "Field1": [1.00008718682725, 0.9998766524376336, -1.00011280229302, -0.999919279587845, 0.999929767467322, -1.000162647083939], "Field2": [[10.0, -2.988156917760596, 0.0, 0.0, 0.0, 0.0, 4.627591857212785, 3.623261748732805, 0.0, 10.0, -10.0, -5.79357250994943, -6.987848634707237], [-10.0, 4.585185578640744, 6.064215967348018, 6.064215967348018, 2.378294247576282, 0.0, 6.064215967348018, -0.1145390141453694, -10.0, -2.130023660291191, 7.00556063311053, -10.0, 10.0], [-10.0, 0.0, -4.749471236658235, 0.0, 0.0, -10.0, 3.785822525365928, 0.6093301660765609, -10.0, -5.580884467015679, 10.0, 0.3759016828445904, 10.0], [-10.0, -4.629316652989035, 10.0, 2.028299884888776, 1.06024106504283, 0.0, 8.650020323495896, 4.119429814290285, -10.0, 0.21439172869594, 0.0, 5.428532053049961, 0.0], [0.0, -0.06424465295152981, 3.672519334875793, -5.254133613616228, -3.618884453185596, 5.322087109300906, -8.848660851077099, 10.0, 0.0, 10.0, 0.0, -0.3273527568692414, 0.0], [-10.0, 0.0, 0.0, 9.998711612633285, -2.00756323702776, -10.0, 5.994473677830058, 8.906112630996093, -10.0, -1.310239744692648, 10.0, 1.723019520601463, 0.0]]}}, {"Field0": 1263906482, "Field1": "4_41", "Field2": {"Field0": [0.9592496562773331, 0.0, 0.0, 0.09902266426350345, 0.0, 0.0110812279200607, 0.8841094994124841], "Field1": [-0.9999128057621243, -0.9999519170233812, 0.9999575174208425, 0.9999405694394808, -1.000094444115878, 0.9998656991380186], "Field2": [[-10.0, -4.853020403090225, 0.0, 0.0, 0.0, 0.0, -10.0, 3.623261748732805, 0.0, 10.0, -8.245008010013537, -5.79357250994943, -5.251271599486294], [10.0, 4.585571204993924, 6.064601593701196, 9.325141241553615, 1.296638287784774, 0.0, 10.0, -0.1145390141453694, -10.0, -2.130023660291191, 10.0, -10.0, 10.0], [10.0, 0.0, -4.750401834889924, 0.0, 0.0, -5.83265281460237, 10.0, 0.6093301660765609, -10.0, -5.580884467015679, 10.0, 0.3759016828445904, 10.0], [-10.0, -10.0, 2.485731673139176, -7.371700034879806, -5.372175829624753, 0.0, -10.0, 4.119429814290285, 5.463428581017721, 0.21439172869594, 0.0, 5.428532053049961, 0.0], [0.0, -0.05661102478721269, 3.68015296304011, -4.221142339285985, -3.953655582853555, 5.444464385914292, -2.082923377549958, 10.0, 0.0, 10.0, 0.0, -0.3273527568692414, 0.0], [10.0, 0.0, 0.0, 10.0, -0.926620327437909, -5.832727472088563, 10.0, 8.906112630996093, -10.0, -1.310239744692648, 10.0, 1.723019520601463, 0.0]]}}, {"Field0": 1096449587, "Field1": "4_45", "Field2": {"Field0": [0.98000518294659, 0.0, 0.1542966635587165, 1.0, 0.0, 0.0, 0.007742949706773294], "Field1": [-0.9990445926540452, 0.9999914439908222, 1.00007552314825, -1.000015910911949, 1.000123394038992, 0.9998645294454443], "Field2": [[-10.0, -4.160630415430772, 0.0, 0.0, 0.0, 0.0, 10.0, 3.623261748732805, 0.0, 10.0, 10.0, -5.79357250994943, -10.0], [-10.0, 6.064111431733457, 2.833062296233746, -10.0, 6.064111431733457, 0.0, 5.901970200813274, -0.1145390141453694, -10.0, -2.130023660291191, 7.004943656588633, -10.0, -10.0], [10.0, 0.0, -2.833070342370323, 0.0, 0.0, -2.774675837524458, -5.834503687437282, 0.6093301660765609, 10.0, -5.580884467015679, -10.0, 0.3759016828445904, 10.0], [10.0, -8.576088043118503, 9.140978352484471, 10.0, -1.061397618875858, 0.0, -6.227415023224712, 4.119429814290285, 10.0, 0.21439172869594, 0.0, 5.428532053049961, 0.0], [0.0, -1.052535877156717, 2.061400956642817, 2.168747245244923, -5.662786999806495, 4.076795261337377, 5.82192204875822, 10.0, 0.0, 10.0, 0.0, -0.3273527568692414, 0.0], [10.0, 0.0, 0.0, 10.0, 2.595550733673397, -2.775844450061439, -5.835681471235359, 8.906112630996093, 10.0, -1.310239744692648, -10.0, 1.723019520601463, 0.0]]}}, {"Field0": 2236125108, "Field1": "2_5", "Field2": {"Field0": [1.0, 0.1735807916591759, 0.0, 0.1225482424283796, 0.0, 0.0, 0.06377665189553612], "Field1": [-1.000071977682212, -0.9998433053939328, 0.9998871133111513, 1.000191307943684, -0.4763878250344366, 0.9998439350312088], "Field2": [[-10.0, -2.621027361786259, 0.0, 0.0, 0.0, 0.0, 7.745054115234097, 3.623261748732805, 0.0, 10.0, -10.0, -5.79357250994943, -10.0], [10.0, 2.747974786051575, 2.165521592068956, 6.163953002968775, -5.032128237096897, 0.0, -0.7141044294975472, -0.1145390141453694, -10.0, -2.130023660291191, 10.0, -10.0, 10.0], [10.0, 0.0, -6.064505311920684, 0.0, 0.0, 1.438561101538938, 2.805607017508813, 0.6093301660765609, -7.002437666775808, -5.580884467015679, 10.0, 0.3759016828445904, 10.0], [10.0, 10.0, -6.070146921647208, 9.989400621554481, -2.951689350955516, 0.0, 10.0, 4.119429814290285, -6.96988510525475, 0.21439172869594, 0.0, 5.428532053049961, 0.0], [0.0, 3.529860331179985, 9.957725878119659, -5.940013045802962, -1.123192066276835, -6.055756434028914, -6.04326163880157, 10.0, 0.0, 10.0, 0.0, -0.3273527568692414, 0.0], [10.0, 0.0, 0.0, 10.0, 10.0, 10.0, 10.0, 8.906112630996093, -7.004865059082775, -1.310239744692648, 10.0, 1.723019520601463, 0.0]]}}, {"Field0": 0, "Field1": "", "Field2": {"Field0": [], "Field1": [], "Field2": []}}, {"Field0": 0, "Field1": "", "Field2": {"Field0": [], "Field1": [], "Field2": []}}, {"Field0": 0, "Field1": "", "Field2": {"Field0": [], "Field1": [], "Field2": []}}, {"Field0": 3856667832, "Field1": "2_33", "Field2": {"Field0": [1.0, 0.0, 0.1414135437615444, 0.02904221870566533, 0.0, 0.0, 0.0], "Field1": [-1.000015518024173, 1.000097613728431, 0.9999859521597425, -0.9998352542950181, 0.47080813445612, 1.000003534138922], "Field2": [[-10.0, 4.949837519078197, 0.0, 0.0, 0.0, 0.0, 6.980507648218172, 3.623261748732805, 0.0, 10.0, 10.0, -5.79357250994943, -10.0], [10.0, 10.0, 10.0, 10.0, 10.0, 0.0, 10.0, -0.1145390141453694, 10.0, -2.130023660291191, -10.0, -10.0, 10.0], [10.0, 0.0, -0.5480434982716478, 0.0, 0.0, 3.27453783892253, 2.264031047078645, 0.6093301660765609, 10.0, -5.580884467015679, -10.0, 0.3759016828445904, 10.0], [5.256828555711259, 5.17744543053654, 10.0, 4.454851447225958, 7.187437838627018, 0.0, 6.425718265110085, 4.119429814290285, 5.258519957801795, 0.21439172869594, 0.0, 5.428532053049961, 0.0], [0.0, 2.938503435621499, 5.819076595639064, -5.214495690836465, -2.215038752829305, -7.324589535535637, -7.900655076623712, 10.0, 0.0, 10.0, 0.0, -0.3273527568692414, 0.0], [10.0, 0.0, 0.0, 8.633152230009177, 6.39119200840211, 3.273978158367528, 4.478427303616358, 8.906112630996093, 10.0, -1.310239744692648, -10.0, 1.723019520601463, 0.0]]}}, {"Field0": 2419379001, "Field1": "1_2", "Field2": {"Field0": [1.0, 0.0, 0.8982264213615091, 0.0, 0.1432992337988234, 0.0, 0.0], "Field1": [0.7742434371642997, 0.289626378995874, 1.000076364790045, -0.9998352112672944, -1.00000195032621, 0.9967340982199261], "Field2": [[10.0, -0.8401859159016678, 0.0, 0.0, 0.0, 0.0, 7.597227552662975, 3.623261748732805, 0.0, 10.0, -10.0, -5.79357250994943, 10.0], [10.0, 0.9833389329552785, 10.0, 9.177589718381903, -5.248910685734849, 0.0, 1.258475026906314, -0.1145390141453694, 8.846868984713838, -2.130023660291191, -10.0, -10.0, 10.0], [-10.0, 0.0, -10.0, 0.0, 0.0, -2.623909997496874, -2.708118317696978, 0.6093301660765609, -9.85031776855511, -5.580884467015679, 10.0, 0.3759016828445904, -10.0], [-10.0, 6.973951594590265, -10.0, 3.632300180993587, -0.4947930343039342, 0.0, 10.0, 4.119429814290285, -10.0, 0.21439172869594, 0.0, 5.428532053049961, 0.0], [0.0, -0.564404780057858, 10.0, -10.0, -9.216723587980347, -10.0, -10.0, 10.0, 0.0, 10.0, 0.0, -0.3273527568692414, 0.0], [10.0, 0.0, 0.0, 0.683516019894451, 7.34139108438522, 4.718200870935969, 2.814430788102179, 8.906112630996093, 9.400972926501314, -1.310239744692648, -10.0, 1.723019520601463, 0.0]]}}, {"Field0": 3186508089, "Field1": "2_23", "Field2": {"Field0": [0.9592655114198645, 0.1307462345210553, 0.05554200837695022, 0.04894757939425642, 0.0, 0.0, 0.0], "Field1": [1.000079633249971, 1.000006662027858, -0.999960311349902, -0.9999946511899528, 0.7332623390710222, -1.000026120661051], "Field2": [[10.0, 0.3435261227987771, 0.0, 0.0, 0.0, 0.0, 3.916291965560967, 3.623261748732805, 0.0, 10.0, -10.0, -5.79357250994943, -7.002183464980973], [-10.0, 3.440467971912856, 2.145197663262575, 5.124030108649445, 6.131458546505024, 0.0, 6.131458546505024, -0.1145390141453694, -10.0, -2.130023660291191, 6.713131057780227, -10.0, 10.0], [-10.0, 0.0, -5.941729165470733, 0.0, 0.0, 9.999596075860749, 6.739987150972988, 0.6093301660765609, -10.0, -5.580884467015679, 10.0, 0.3759016828445904, 10.0], [-10.0, 9.63067372725525, 6.252334743279061, 10.0, 7.505430636232566, 0.0, 10.0, 4.119429814290285, -10.0, 0.21439172869594, 0.0, 5.428532053049961, 0.0], [0.0, 4.793994583967432, 9.075481203789439, -4.21160205551416, 2.481560288674756, -5.354259931842662, -5.622851054145337, 10.0, 0.0, 10.0, 0.0, -0.3273527568692414, 0.0], [-10.0, 0.0, 0.0, 8.387848150363206, 4.150067199684655, 9.999954863946659, 8.955842825897729, 8.906112630996093, -10.0, -1.310239744692648, 10.0, 1.723019520601463, 0.0]]}}, {"Field0": 2328589626, "Field1": "3_34", "Field2": {"Field0": [0.9846938559491482, 0.9747529583532576, 0.0, 0.0, 0.0, 0.007602112291773239, 0.0], "Field1": [-0.9999482693788685, 1.000085345629246, 0.9999141373566601, 0.9999514484405487, 0.9927299456870676, 0.9999863945146821], "Field2": [[10.0, 10.0, 0.0, 0.0, 0.0, 0.0, 3.050312073566116, 3.623261748732805, 0.0, 10.0, 10.0, -5.79357250994943, 10.0], [-10.0, -10.0, 6.063735777823966, 6.063735777823966, 6.063735777823966, 0.0, 6.063735777823966, -0.1145390141453694, -10.0, -2.130023660291191, -10.0, -10.0, -10.0], [-10.0, 0.0, -4.483426935871934, 0.0, 0.0, -0.8200330226384533, -1.671352390521642, 0.6093301660765609, -10.0, -5.580884467015679, -10.0, 0.3759016828445904, -10.0], [-10.0, -10.0, 6.560621779817517, 1.015473227043475, 3.748059618444534, 0.0, 2.986340044927601, 4.119429814290285, -10.0, 0.21439172869594, 0.0, 5.428532053049961, 0.0], [0.0, -0.7955539053139078, 5.220177659456133, -5.813394627019396, -2.813937689012236, -7.947939617048447, -8.499554012806643, 10.0, 0.0, 10.0, 0.0, -0.3273527568692414, 0.0], [-10.0, 0.0, 0.0, 4.696776269542164, 2.454816047935098, -0.8216105745899078, 0.5420513431493452, 8.906112630996093, -10.0, -1.310239744692648, -10.0, 1.723019520601463, 0.0]]}}, {"Field0": 3041024315, "Field1": "4_43", "Field2": {"Field0": [1.0, 0.0, 0.09816119504770449, 1.0, 0.0, 0.02597675002583012, 0.0], "Field1": [1.000046556313756, 1.000122468695442, -1.000025637850735, -0.9999679176909286, -0.9995573830400687, -0.9999649724744504], "Field2": [[10.0, -4.064674329419188, 0.0, 0.0, 0.0, 0.0, 10.0, 3.623261748732805, 0.0, 10.0, -10.0, -5.79357250994943, -7.001755858982079], [10.0, 10.0, 10.0, 10.0, 9.168436576085458, 0.0, 10.0, -0.1145390141453694, 10.0, -2.130023660291191, -10.0, -10.0, -7.002242836256528], [-10.0, 0.0, -9.296582741912294, 0.0, 0.0, -6.688055087594736, -6.063918547971336, 0.6093301660765609, -10.0, -5.580884467015679, 10.0, 0.3759016828445904, 10.0], [-10.0, -2.917192490074969, 4.715834658011793, -10.0, 2.499144960188922, 0.0, -6.06377102492622, 4.119429814290285, -10.0, 0.21439172869594, 0.0, 5.428532053049961, 0.0], [0.0, -2.226050997172055, 3.013789572574303, 4.191631719035258, -6.371219323443913, 3.289782348495009, 5.860907600392661, 10.0, 0.0, 10.0, 0.0, -0.3273527568692414, 0.0], [-10.0, 0.0, 0.0, -10.0, -0.9278656284400388, -6.689294612666679, -6.064802648538571, 8.906112630996093, -10.0, -1.310239744692648, 10.0, 1.723019520601463, 0.0]]}}, {"Field0": 0, "Field1": "", "Field2": {"Field0": [], "Field1": [], "Field2": []}}, {"Field0": 0, "Field1": "", "Field2": {"Field0": [], "Field1": [], "Field2": []}}, {"Field0": 429642047, "Field1": "2_13", "Field2": {"Field0": [1.0, 0.0, 0.0, 0.1691021036619511, 0.1790888198283159, 0.05901048312387321, 0.03397793592072126], "Field1": [-1.0001241495837, -1.000101905185465, 0.9999424271003232, 0.9998891858084902, -0.8929183313334536, 1.000078575423462], "Field2": [[-10.0, -6.064035308618298, 0.0, 0.0, 0.0, 0.0, 3.215158807726093, 3.623261748732805, 0.0, 10.0, -10.0, -5.79357250994943, -10.0], [10.0, 5.833202495892484, -0.6713562241399318, 10.0, 1.592493290330153, 0.0, 2.762887320236033, -0.1145390141453694, -10.0, -2.130023660291191, 10.0, -10.0, 10.0], [10.0, 0.0, -6.064094414938569, 0.0, 0.0, 10.0, 5.901971609172868, 0.6093301660765609, -10.0, -5.580884467015679, 10.0, 0.3759016828445904, 10.0], [10.0, 10.0, -2.223925012195874, 10.0, 5.383211777319223, 0.0, 10.0, 4.119429814290285, -10.0, 0.21439172869594, 0.0, 5.428532053049961, 0.0], [0.0, 4.656122654524163, 9.0174331188918, -4.590589004286405, 0.07294869969061402, -7.253820064089487, -5.540584810104216, 10.0, 0.0, 10.0, 0.0, -0.3273527568692414, 0.0], [10.0, 0.0, 0.0, 10.0, 10.0, 10.0, 9.27668028913418, 8.906112630996093, -10.0, -1.310239744692648, 10.0, 1.723019520601463, 0.0]]}}, {"Field0": 2807683008, "Field1": "4_46", "Field2": {"Field0": [1.0, 0.0, 0.8654997733246972, 0.143247858796776, 0.0, 0.0, 0.06283275394528121], "Field1": [-1.000249524308141, -0.9999596091131298, 1.000011918097238, 1.00016446441988, 0.9855171320102609, 1.000014971136791], "Field2": [[5.294813822639139, -6.237258411682956, 0.0, 0.0, 0.0, 0.0, 9.014867533228983, 3.623261748732805, 0.0, 10.0, 10.0, -5.79357250994943, 5.295073892870873], [-10.0, 10.0, -10.0, -10.0, 10.0, 0.0, 7.768675817726775, -0.1145390141453694, 10.0, -2.130023660291191, -10.0, -10.0, -10.0], [-10.0, 0.0, -10.0, 0.0, 0.0, -6.710609956837891, -10.0, 0.6093301660765609, 10.0, -5.580884467015679, -10.0, 0.3759016828445904, -10.0], [10.0, -4.993470724993865, 10.0, 10.0, 2.52121969924878, 0.0, -1.447411918910256, 4.119429814290285, -5.473326398089148, 0.21439172869594, 0.0, 5.428532053049961, 0.0], [0.0, -2.242619210356653, -4.712313932084104, 0.05452356066526809, -6.852870333006432, 2.886711928137441, 4.226483383919257, 10.0, 0.0, 10.0, 0.0, -0.3273527568692414, 0.0], [-10.0, 0.0, 0.0, 3.064729582840326, -1.340219214288631, -6.711614398023467, -10.0, 8.906112630996093, 10.0, -1.310239744692648, -10.0, 1.723019520601463, 0.0]]}}, {"Field0": 0, "Field1": "", "Field2": {"Field0": [], "Field1": [], "Field2": []}}, {"Field0": 0, "Field1": "", "Field2": {"Field0": [], "Field1": [], "Field2": []}}, {"Field0": 0, "Field1": "", "Field2": {"Field0": [], "Field1": [], "Field2": []}}, {"Field0": 3810983492, "Field1": "2_20", "Field2": {"Field0": [1.0, 0.04087606679051261, 0.0, 0.1341787790802255, 0.03345766941074275, 0.1273985211769336, 0.04113370906027113], "Field1": [0.9999326658249228, -1.000013366440594, -0.9999182714504977, -0.999723922634035, -0.8767053119621434, -1.000094062427828], "Field2": [[-10.0, -3.324179671636903, 0.0, 0.0, 0.0, 0.0, -1.113801242321062, 3.623261748732805, 0.0, 10.0, 6.309985842491034, -5.79357250994943, 9.562570970644874], [10.0, 0.8211411926674321, -1.988758791749578, 1.542730027550886, 5.499188767494831, 0.0, 1.764893242341762, -0.1145390141453694, -10.0, -2.130023660291191, -10.0, -10.0, -10.0], [10.0, 0.0, -9.332869215153032, 0.0, 0.0, 4.631483965232753, 3.84836014294364, 0.6093301660765609, -10.0, -5.580884467015679, -10.0, 0.3759016828445904, -10.0], [-10.0, 6.638426525968208, -1.11657866359592, 9.530721144226142, 2.917779199335192, 0.0, 10.0, 4.119429814290285, 7.369572246530447, 0.21439172869594, 0.0, 5.428532053049961, 0.0], [0.0, 4.590877415650705, 9.154394674204331, -5.122868170862159, 2.222258079328443, -5.741944081975105, -5.269470159372162, 10.0, 0.0, 10.0, 0.0, -0.3273527568692414, 0.0], [10.0, 0.0, 0.0, 4.284117001494568, 4.034741817150073, 4.628032853213503, 6.792693763927193, 8.906112630996093, -10.0, -1.310239744692648, -10.0, 1.723019520601463, 0.0]]}}, {"Field0": 2886241349, "Field1": "2_8", "Field2": {"Field0": [1.0, 0.006634801718538202, 0.0, 0.0, 0.0, 0.1298911554883144, 0.06283379609410644], "Field1": [1.000002574821002, -1.000063034275511, -1.000047553345629, -0.9999635326312293, -0.8116319878779534, -1.000023559183412], "Field2": [[-10.0, -6.696509846418036, 0.0, 0.0, 0.0, 0.0, 3.147211198497438, 3.623261748732805, 0.0, 10.0, 9.999488215419426, -5.79357250994943, 10.0], [-10.0, 6.806053510185984, 4.312903312864892, 10.0, -0.7555679312206323, 0.0, 1.906078005692921, -0.1145390141453694, 10.0, -2.130023660291191, 10.0, -10.0, 10.0], [10.0, 0.0, -10.0, 0.0, 0.0, 1.779098845235197, 0.5213724878500787, 0.6093301660765609, -10.0, -5.580884467015679, -10.0, 0.3759016828445904, -10.0], [10.0, 6.281413943081613, -10.0, 6.052293797429752, -6.888796175080244, 0.0, 7.716226510449877, 4.119429814290285, -10.0, 0.21439172869594, 0.0, 5.428532053049961, 0.0], [0.0, 4.347240400219516, 10.0, -5.066797288064556, -0.2499763085384282, -6.275649774384354, -5.615994389319054, 10.0, 0.0, 10.0, 0.0, -0.3273527568692414, 0.0], [10.0, 0.0, 0.0, 6.064151265693132, 6.064151265693132, 10.0, 7.717749836307743, 8.906112630996093, -10.0, -1.310239744692648, -10.0, 1.723019520601463, 0.0]]}}, {"Field0": 0, "Field1": "", "Field2": {"Field0": [], "Field1": [], "Field2": []}}, {"Field0": 0, "Field1": "", "Field2": {"Field0": [], "Field1": [], "Field2": []}}, {"Field0": 3773329480, "Field1": "2_31", "Field2": {"Field0": [0.8182672521546855, 0.02665517947083111, 0.07019839095711164, 0.08098203179495912, 0.0, 0.1376504313006098, 0.1000566314063587], "Field1": [0.9999882995819082, -0.9999526225360472, -0.9999356284302194, -1.000073437710362, -0.9355007332707745, -1.000063988581355], "Field2": [[10.0, 3.963598408424078, 0.0, 0.0, 0.0, 0.0, 5.994268537564053, 3.623261748732805, 0.0, 10.0, -7.004699911532146, -5.79357250994943, -7.004502059092637], [10.0, 6.975579586336393, 5.605657198682445, 8.745017546514571, 2.643407603522521, 0.0, 9.36628160256997, -0.1145390141453694, -10.0, -2.130023660291191, -10.0, -10.0, -10.0], [-10.0, 0.0, -3.508284961166085, 0.0, 0.0, 3.274998090231053, 2.264491298387168, 0.6093301660765609, 10.0, -5.580884467015679, 10.0, 0.3759016828445904, 10.0], [-10.0, 3.999409186107316, 6.959354471566428, 5.903555016201023, 6.221370194659197, 0.0, 5.247682020680859, 4.119429814290285, 10.0, 0.21439172869594, 0.0, 5.428532053049961, 0.0], [0.0, 3.291726086087637, 5.504398529937741, -6.047047087369257, -1.932830129398107, -6.971366885069498, -7.547432426157574, 10.0, 0.0, 10.0, 0.0, -0.3273527568692414, 0.0], [-10.0, 0.0, 0.0, 4.233446913937968, 6.134822818112563, 3.274414119927205, 4.478863265176035, 8.906112630996093, 10.0, -1.310239744692648, 10.0, 1.723019520601463, 0.0]]}}, {"Field0": 3989795913, "Field1": "2_29", "Field2": {"Field0": [1.0, 0.0, 0.2109162682338396, 0.08161842175676334, 0.09325837253289286, 0.0493409627755897, 0.109073299625279], "Field1": [-1.000090005174499, -0.9998709811467411, 1.000079888302341, 0.9999227065324149, -0.01498056043079768, 0.9999495939169172], "Field2": [[-10.0, 3.405783571562199, 0.0, 0.0, 0.0, 0.0, 1.601235743075676, 3.623261748732805, 0.0, 10.0, -10.0, -5.79357250994943, -10.0], [-10.0, 10.0, 4.558182634927428, 10.0, 6.772147764854599, 0.0, 10.0, -0.1145390141453694, 10.0, -2.130023660291191, -10.0, -10.0, -10.0], [10.0, 0.0, -0.4645818282245546, 0.0, 0.0, 7.807457228326351, 7.02031740958525, 0.6093301660765609, -10.0, -5.580884467015679, 10.0, 0.3759016828445904, 10.0], [10.0, 4.874362935353227, 10.0, 8.567556044453855, 8.876587865448801, 0.0, 10.0, 4.119429814290285, -10.0, 0.21439172869594, 0.0, 5.428532053049961, 0.0], [0.0, 3.722403587718699, 5.717621341884914, -5.881294600404922, -1.390752366623631, -7.081957972744896, -7.484906041371111, 10.0, 0.0, 10.0, 0.0, -0.3273527568692414, 0.0], [10.0, 0.0, 0.0, 6.89964430061917, 8.794331927549232, 7.806611522079105, 9.23435222069755, 8.906112630996093, -10.0, -1.310239744692648, 10.0, 1.723019520601463, 0.0]]}}, {"Field0": 0, "Field1": "", "Field2": {"Field0": [], "Field1": [], "Field2": []}}, {"Field0": 3853706571, "Field1": "2_28", "Field2": {"Field0": [1.0, 0.0, 0.1554635445817434, 0.0, 0.07782734199686896, 0.0, 0.0], "Field1": [1.000077247371884, -1.000006451007685, -1.000183545232458, -1.00002234761376, 0.878961879562128, -1.000103429781073], "Field2": [[-10.0, -0.5299005551633567, 0.0, 0.0, 0.0, 0.0, 1.257023757834022, 3.623261748732805, 0.0, 10.0, 10.0, -5.79357250994943, 10.0], [-10.0, 10.0, 7.568490747907495, 10.0, 5.907780679225946, 0.0, 10.0, -0.1145390141453694, 10.0, -2.130023660291191, 10.0, -10.0, 10.0], [10.0, 0.0, -8.816773129528938, 0.0, 0.0, 2.838394434568274, 0.8005550052312977, 0.6093301660765609, -10.0, -5.580884467015679, -10.0, 0.3759016828445904, -10.0], [10.0, 0.9375681282965274, 2.342504886894202, 2.921086063267255, 2.986293825407575, 0.0, 4.110975227178285, 4.119429814290285, -10.0, 0.21439172869594, 0.0, 5.428532053049961, 0.0], [0.0, 3.705827139474453, 7.303573811914397, -5.277739267329846, -0.6987573987957271, -6.723644800736208, -6.672750223846013, 10.0, 0.0, 10.0, 0.0, -0.3273527568692414, 0.0], [10.0, 0.0, 0.0, 1.254154654328443, 2.90506643358697, 2.837109693533705, 3.01387422146283, 8.906112630996093, -10.0, -1.310239744692648, -10.0, 1.723019520601463, 0.0]]}}, {"Field0": 0, "Field1": "", "Field2": {"Field0": [], "Field1": [], "Field2": []}}, {"Field0": 0, "Field1": "", "Field2": {"Field0": [], "Field1": [], "Field2": []}}, {"Field0": 0, "Field1": "", "Field2": {"Field0": [], "Field1": [], "Field2": []}}, {"Field0": 2031500623, "Field1": "2_6", "Field2": {"Field0": [0.8809346424783141, 0.0, 0.006889514850873081, 0.0, 0.0, 0.0, 0.01987242718038153], "Field1": [-0.9999894722599383, 1.000047779510986, 1.00009377651383, 0.9998918941925433, -0.05149864496506902, 0.9998961522822293], "Field2": [[10.0, -6.55718560091244, 0.0, 0.0, 0.0, 0.0, 4.463370766914629, 3.623261748732805, 0.0, 10.0, 10.0, -5.79357250994943, 10.0], [10.0, 6.651774824457419, 6.212404936707406, 10.0, -1.128328198691053, 0.0, 3.602411546878204, -0.1145390141453694, 10.0, -2.130023660291191, 10.0, -10.0, 10.0], [-10.0, 0.0, -10.0, 0.0, 0.0, -2.49760615851511, -1.546673475079322, 0.6093301660765609, -10.0, -5.580884467015679, -10.0, 0.3759016828445904, -10.0], [-10.0, 6.064681323359446, -10.0, 6.054081944913927, -6.88700802759607, 0.0, 5.648549749795681, 4.119429814290285, -10.0, 0.21439172869594, 0.0, 5.428532053049961, 0.0], [0.0, 3.498849180875134, 9.955432271847066, -5.971024196107813, -1.154203216581686, -6.086767584333765, -5.991438610657976, 10.0, 0.0, 10.0, 0.0, -0.3273527568692414, 0.0], [-10.0, 0.0, 0.0, 6.064873731916407, 6.064873731916407, 6.064873731916407, 5.648764783478566, 8.906112630996093, -10.0, -1.310239744692648, -10.0, 1.723019520601463, 0.0]]}}, {"Field0": 3902936015, "Field1": "2_16", "Field2": {"Field0": [0.8318770437724896, 0.004548851013121778, 0.003919055770670004, 0.00536617482479098, 0.0, 0.05464117415308911, 0.1079181992299128], "Field1": [0.9998682666193546, -1.000043882303722, -0.999949706282331, -0.9999958210192482, -0.7004840800501865, -1.000001565854908], "Field2": [[-10.0, -7.016290270581462, 0.0, 0.0, 0.0, 0.0, -1.313963833759225, 3.623261748732805, 0.0, 10.0, 9.843749181666389, -5.79357250994943, 9.848672662183152], [10.0, 2.305550479312336, -2.525222853517616, 2.332466175026377, 2.155750011040595, 0.0, 1.035436100799087, -0.1145390141453694, -10.0, -2.130023660291191, -10.0, -10.0, -10.0], [10.0, 0.0, -9.86987990730065, 0.0, 0.0, 2.416519225408662, 3.118145844943863, 0.6093301660765609, -10.0, -5.580884467015679, -10.0, 0.3759016828445904, -10.0], [-0.1790505780807763, 6.473767453798004, -5.750299567966783, 8.418911857200378, -1.641721325765009, 0.0, 7.435725302743942, 4.119429814290285, -10.0, 0.21439172869594, 0.0, 5.428532053049961, 0.0], [0.0, 4.962814826438421, 9.317021613859428, -4.968469541486044, 1.575997164994603, -6.158071683063619, -5.284292835785337, 10.0, 0.0, 10.0, 0.0, -0.3273527568692414, 0.0], [10.0, 0.0, 0.0, 6.238948049849967, 0.6924427177769616, 2.414893344728267, 6.491841633872628, 8.906112630996093, -10.0, -1.310239744692648, -10.0, 1.723019520601463, 0.0]]}}, {"Field0": 0, "Field1": "", "Field2": {"Field0": [], "Field1": [], "Field2": []}}, {"Field0": 0, "Field1": "", "Field2": {"Field0": [], "Field1": [], "Field2": []}}, {"Field0": 0, "Field1": "", "Field2": {"Field0": [], "Field1": [], "Field2": []}}, {"Field0": 3921310036, "Field1": "4_48", "Field2": {"Field0": [1.0, 0.0, 0.9313267257694683, 0.0, 0.04046565805505192, 0.1021695530016405, 0.0], "Field1": [0.9997991684200248, -1.000088882868602, -1.000026807935285, 1.000024405213406, -1.000136142074472, -1.000035067907934], "Field2": [[-3.069275896216515, -5.313806023825403, 0.0, 0.0, 0.0, 0.0, 7.93263776475645, 3.623261748732805, 0.0, 10.0, -3.06954440026729, -5.79357250994943, 4.323556707308251], [10.0, 6.063993169182815, 10.0, -10.0, 7.396522155206392, 0.0, 6.063993169182815, -0.1145390141453694, -10.0, -2.130023660291191, 10.0, -10.0, -10.0], [10.0, 0.0, 10.0, 0.0, 0.0, -6.191835101512301, -10.0, 0.6093301660765609, -10.0, -5.580884467015679, 10.0, 0.3759016828445904, -10.0], [-10.0, -3.979887400728401, -10.0, 6.421290900191484, 1.966761886625365, 0.0, -1.505643525106303, 4.119429814290285, 5.462337544940366, 0.21439172869594, 0.0, 5.428532053049961, 0.0], [0.0, -2.841182243688508, -1.562612547898357, -0.0669307622738271, -6.590780686919637, 3.048390967548368, 4.219289829126375, 10.0, 0.0, 10.0, 0.0, -0.3273527568692414, 0.0], [10.0, 0.0, 0.0, 2.699863041177665, -0.4905766061435353, -6.193005557899952, -10.0, 8.906112630996093, -10.0, -1.310239744692648, 10.0, 1.723019520601463, 0.0]]}}, {"Field0": 0, "Field1": "", "Field2": {"Field0": [], "Field1": [], "Field2": []}}, {"Field0": 0, "Field1": "", "Field2": {"Field0": [], "Field1": [], "Field2": []}}, {"Field0": 0, "Field1": "", "Field2": {"Field0": [], "Field1": [], "Field2": []}}, {"Field0": 2433890008, "Field1": "2_18", "Field2": {"Field0": [1.0, 0.2162002004771527, 0.0, 0.07394085183254752, 0.0, 0.0, 0.0298687501935593], "Field1": [-0.9997402899743278, 0.9999667852554339, 1.000035091201724, -0.9943842261749457, 0.6777210416183237, 1.000011533681707], "Field2": [[10.0, -2.604885888150676, 0.0, 0.0, 0.0, 0.0, -0.3893310196854167, 3.623261748732805, 0.0, 10.0, -10.0, -5.79357250994943, 10.0], [-10.0, -0.5252015775192138, -1.752632208423073, 1.774400535329649, 4.39712018412453, 0.0, 0.4100667858933891, -0.1145390141453694, -10.0, -2.130023660291191, 10.0, -10.0, -10.0], [-10.0, 0.0, -9.09648021895765, 0.0, 0.0, 2.417296268892531, 2.493586692161487, 0.6093301660765609, -10.0, -5.580884467015679, 10.0, 0.3759016828445904, -10.0], [-10.0, 5.120928033067753, -2.91838752943979, 9.809658599159217, 1.339193390422164, 0.0, 9.598183715849935, 4.119429814290285, -10.0, 0.21439172869594, 0.0, 5.428532053049961, 0.0], [0.0, 4.463623408075792, 9.492998141722731, -5.02622517133956, 2.153527558113953, -6.142684230629036, -5.398756698110908, 10.0, 0.0, 10.0, 0.0, -0.3273527568692414, 0.0], [-10.0, 0.0, 0.0, 4.515739985259007, 2.933433246723212, 2.414736921856441, 5.438616877777489, 8.906112630996093, -10.0, -1.310239744692648, 10.0, 1.723019520601463, 0.0]]}}, {"Field0": 1118477529, "Field1": "1_3", "Field2": {"Field0": [0.9860172336873765, 0.0, 0.9522555048941207, 0.0, 0.1965741554260744, 0.0, 0.0], "Field1": [0.9999903912676131, 1.000075590272582, -0.9999519481578304, -1.000019658487461, 0.9999491866101541, 1.000032152389317], "Field2": [[10.0, 3.095341258473366, 0.0, 0.0, 0.0, 0.0, 10.0, 3.623261748732805, 0.0, 10.0, -10.0, -5.79357250994943, 10.0], [10.0, 4.918962017399421, 10.0, 10.0, 2.802350170834147, 0.0, 5.194098111350457, -0.1145390141453694, 10.0, -2.130023660291191, -10.0, -10.0, 10.0], [-10.0, 0.0, -10.0, 0.0, 0.0, 1.311720797893197, 1.227512477693093, 0.6093301660765609, -10.0, -5.580884467015679, 10.0, 0.3759016828445904, -10.0], [-10.0, 10.0, -10.0, 7.433838675849609, -2.94562372182226, 0.0, 10.0, 4.119429814290285, -10.0, 0.21439172869594, 0.0, 5.428532053049961, 0.0], [0.0, 3.370790202576523, 10.0, -6.06480501736562, -1.165669359024673, -6.06480501736562, -6.06480501736562, 10.0, 0.0, 10.0, 0.0, -0.3273527568692414, 0.0], [10.0, 0.0, 0.0, 4.615975955811431, 10.0, 8.650660806852949, 6.746890724019158, 8.906112630996093, 10.0, -1.310239744692648, -10.0, 1.723019520601463, 0.0]]}}, {"Field0": 0, "Field1": "", "Field2": {"Field0": [], "Field1": [], "Field2": []}}, {"Field0": 3561407707, "Field1": "2_19", "Field2": {"Field0": [0.9455086614756696, 0.0, 0.007181390532283681, 0.1412103106831668, 0.0, 0.06017678439464032, 0.0], "Field1": [1.000021756902604, -0.9999954558828356, -1.000095363779563, -0.9999216067094217, -0.766447347920209, -1.000052726005778], "Field2": [[10.0, 1.273127878332275, 0.0, 0.0, 0.0, 0.0, 3.488682746797534, 3.623261748732805, 0.0, 10.0, -10.0, -5.79357250994943, -6.754851563508375], [-10.0, 3.410726622784796, 1.946800366161386, 1.060028681216786, 8.33304838442854, 0.0, 4.345994986197399, -0.1145390141453694, 10.0, -2.130023660291191, 10.0, -10.0, 10.0], [-10.0, 0.0, -5.39696362888642, 0.0, 0.0, 4.371694859175228, 6.429583718890084, 0.6093301660765609, 10.0, -5.580884467015679, 10.0, 0.3759016828445904, 10.0], [-10.0, 5.991064205816726, -2.100537836349625, 9.651666583647494, 2.209329563171137, 0.0, 10.0, 4.119429814290285, -1.849067465060822, 0.21439172869594, 0.0, 5.428532053049961, 0.0], [0.0, 5.114012831192456, 10.0, -5.335794701121269, 2.803916981230617, -5.901381386649517, -4.748367274994244, 10.0, 0.0, 10.0, 0.0, -0.3273527568692414, 0.0], [-10.0, 0.0, 0.0, 3.801655479425842, 6.868978281451833, 4.368841982239823, 9.374161912506111, 8.906112630996093, 10.0, -1.310239744692648, 10.0, 1.723019520601463, 0.0]]}}, {"Field0": 4187238236, "Field1": "2_32", "Field2": {"Field0": [0.9314271205090866, 0.0, 0.0, 0.1151589168081143, 0.007798823261110177, 0.0, 0.0], "Field1": [0.9998831449356226, 0.9999198483841012, -1.000056483009834, -1.000096443751999, -0.6115288970912575, -1.00014683289794], "Field2": [[-7.406637876792008, 1.041185113106068, 0.0, 0.0, 0.0, 0.0, 3.071855242246042, 3.623261748732805, 0.0, 10.0, 5.624958635893789, -5.79357250994943, 5.625940068379656], [10.0, 10.0, 9.541255831088659, 10.0, 6.74232049681806, 0.0, 10.0, -0.1145390141453694, 10.0, -2.130023660291191, -10.0, -10.0, -10.0], [10.0, 0.0, -7.443850424736871, 0.0, 0.0, -0.6605673733397319, -1.671074165183617, 0.6093301660765609, 10.0, -5.580884467015679, -10.0, 0.3759016828445904, -10.0], [-10.0, 7.248119037954337, 10.0, 6.022295947199271, 9.258111446044813, 0.0, 8.49639187252788, 4.119429814290285, -10.0, 0.21439172869594, 0.0, 5.428532053049961, 0.0], [0.0, 2.575546019439378, 4.788218463289482, -5.714620440193648, -2.577996169011426, -7.687546951717757, -8.263612492805834, 10.0, 0.0, 10.0, 0.0, -0.3273527568692414, 0.0], [10.0, 0.0, 0.0, 4.089427168604685, 2.455574205192334, -0.6616396448422481, 0.5428095004065812, 8.906112630996093, 10.0, -1.310239744692648, -10.0, 1.723019520601463, 0.0]]}}, {"Field0": 0, "Field1": "", "Field2": {"Field0": [], "Field1": [], "Field2": []}}, {"Field0": 0, "Field1": "", "Field2": {"Field0": [], "Field1": [], "Field2": []}}, {"Field0": 2210265951, "Field1": "2_25", "Field2": {"Field0": [0.8627788528874862, 0.0, 0.0, 0.0, 0.2339894351951253, 0.0, 0.0], "Field1": [-1.000114345342761, -0.9997843718454783, 1.00013581076581, 1.000055283354452, 0.2617286736830464, 0.9999503100123979], "Field2": [[-10.0, 0.3450466807013193, 0.0, 0.0, 0.0, 0.0, 3.917812523463509, 3.623261748732805, 0.0, 10.0, -10.0, -5.79357250994943, -10.0], [-10.0, 7.757040690668874, 6.412894220708858, 9.440602827405463, 3.459866174826432, 0.0, 10.0, -0.1145390141453694, 10.0, -2.130023660291191, 7.19014016996249, -10.0, 7.190475139763366], [10.0, 0.0, -5.89253005467263, 0.0, 0.0, 10.0, 6.740311085811207, 0.6093301660765609, -10.0, -5.580884467015679, 10.0, 0.3759016828445904, 10.0], [10.0, 9.630810624807953, 6.301350251130705, 10.0, 10.0, 0.0, 10.0, 4.119429814290285, -10.0, 0.21439172869594, 0.0, 5.428532053049961, 0.0], [0.0, 4.525078954936227, 8.797627855685091, -4.480517684545365, 0.6458661745484815, -5.926014784784519, -5.891766683176543, 10.0, 0.0, 10.0, 0.0, -0.3273527568692414, 0.0], [10.0, 0.0, 0.0, 8.387069673843966, 10.0, 10.0, 8.955064349378489, 8.906112630996093, -10.0, -1.310239744692648, 10.0, 1.723019520601463, 0.0]]}}, {"Field0": 0, "Field1": "", "Field2": {"Field0": [], "Field1": [], "Field2": []}}, {"Field0": 0, "Field1": "", "Field2": {"Field0": [], "Field1": [], "Field2": []}}, {"Field0": 0, "Field1": "", "Field2": {"Field0": [], "Field1": [], "Field2": []}}, {"Field0": 3983078243, "Field1": "1_1", "Field2": {"Field0": [0.9560252874719473, 0.0, 0.9030370856681982, 0.1180668726628127, 0.0, 0.0, 0.0], "Field1": [0.9930419057220805, 0.9820454498734794, 1.000089373562844, -0.9914794853093588, -0.9998661984318368, -0.1511881903164368], "Field2": [[2.952505576831001, -3.887650054303247, 0.0, 0.0, 0.0, 0.0, 4.549763414261396, 3.623261748732805, 0.0, 10.0, 1.702108374897829, -5.79357250994943, 1.548417138289256], [0.1439346007087971, -0.1565607932616594, 1.405020189221234, 8.037689992164964, -9.999734644355909, 0.0, 0.1185753006893764, -0.1145390141453694, 0.4088220002367641, -2.130023660291191, 0.1758900374971707, -10.0, -0.6489975158386271], [3.012163575551916, 0.0, 2.159893613361284, 0.0, 0.0, 1.31190354577146, 1.227695225571356, 0.6093301660765609, 0.1496386426450602, -5.580884467015679, -4.472402778919862, 0.3759016828445904, -9.874360116638023], [-10.0, 3.792609292212008, 7.503506158521366, 0.4509578786153314, 0.1387246018256205, 0.0, 10.0, 4.119429814290285, -10.0, 0.21439172869594, 0.0, 5.428532053049961, 0.0], [0.0, 3.372215832672926, -9.997134854153135, -10.0, -10.0, -6.673739646407947, -10.0, 10.0, 0.0, 10.0, 0.0, -0.3273527568692414, 0.0], [0.2415523913240873, 0.0, 0.0, -3.23893907649438, 0.4158491210175039, 0.7957457745471378, -1.108024308286652, 8.906112630996093, -0.5911110997548293, -1.310239744692648, -3.52189420657826, 1.723019520601463, 0.0]]}}, {"Field0": 0, "Field1": "", "Field2": {"Field0": [], "Field1": [], "Field2": []}}, {"Field0": 0, "Field1": "", "Field2": {"Field0": [], "Field1": [], "Field2": []}}, {"Field0": 0, "Field1": "", "Field2": {"Field0": [], "Field1": [], "Field2": []}}, {"Field0": 0, "Field1": "", "Field2": {"Field0": [], "Field1": [], "Field2": []}}, {"Field0": 0, "Field1": "", "Field2": {"Field0": [], "Field1": [], "Field2": []}}, {"Field0": 2685263081, "Field1": "2_21", "Field2": {"Field0": [1.0, 0.09352727787051526, 0.06136706061725782, 0.1788660867687553, 0.0, 0.1154299008748958, 0.0], "Field1": [-0.9999251197204975, 1.000064194283383, 1.000091716721812, -1.000069641671077, -0.5282801688864316, 1.000296826606818], "Field2": [[-10.0, -2.587492145356983, 0.0, 0.0, 0.0, 0.0, 2.274568495089931, 3.623261748732805, 0.0, 10.0, 10.0, -5.79357250994943, -10.0], [10.0, 6.715692676910956, 3.232366060904694, 9.224254098690091, 9.435303242371649, 0.0, 5.701007717218581, -0.1145390141453694, 10.0, -2.130023660291191, -10.0, -10.0, 10.0], [10.0, 0.0, -4.112019490127987, 0.0, 0.0, 10.0, 7.784301495973931, 0.6093301660765609, 10.0, -5.580884467015679, -10.0, 0.3759016828445904, 10.0], [-10.0, 7.232103028881047, 0.211497759121132, 8.175629269191957, 5.647213207451314, 0.0, 10.0, 4.119429814290285, -10.0, 0.21439172869594, 0.0, 5.428532053049961, 0.0], [0.0, 4.796685446068915, 9.089562593134776, -4.19890253060649, 1.640999507842414, -5.351817385886823, -5.850728730858191, 10.0, 0.0, 10.0, 0.0, -0.3273527568692414, 0.0], [10.0, 0.0, 0.0, 10.0, 7.971704341060757, 10.0, 10.0, 8.906112630996093, 10.0, -1.310239744692648, -10.0, 1.723019520601463, 0.0]]}}, {"Field0": 0, "Field1": "", "Field2": {"Field0": [], "Field1": [], "Field2": []}}, {"Field0": 0, "Field1": "", "Field2": {"Field0": [], "Field1": [], "Field2": []}}, {"Field0": 0, "Field1": "", "Field2": {"Field0": [], "Field1": [], "Field2": []}}, {"Field0": 0, "Field1": "", "Field2": {"Field0": [], "Field1": [], "Field2": []}}, {"Field0": 0, "Field1": "", "Field2": {"Field0": [], "Field1": [], "Field2": []}}, {"Field0": 2261130223, "Field1": "2_14", "Field2": {"Field0": [0.8730555078059199, 0.09234140003226946, 0.09193358828827793, 0.0, 0.2564076906419797, 0.1616544167051845, 0.004185488017029134], "Field1": [-1.000053591120532, 1.000142289297497, 1.000055290483113, 0.9999887682628802, 0.08181669342867648, 1.000122428222897], "Field2": [[10.0, -6.959230852800869, 0.0, 0.0, 0.0, 0.0, -0.5833010538092598, 3.623261748732805, 0.0, 10.0, 10.0, -5.79357250994943, 10.0], [10.0, 10.0, 5.1899667665847, 10.0, 10.0, 0.0, 6.786866917337106, -0.1145390141453694, 10.0, -2.130023660291191, 10.0, -10.0, 10.0], [-10.0, 0.0, -10.0, 0.0, 0.0, 2.677945261958126, 1.877718546963412, 0.6093301660765609, -10.0, -5.580884467015679, -10.0, 0.3759016828445904, -10.0], [-10.0, 4.129838766423855, -8.08554557506554, 6.063715124500003, -3.922937219670647, 0.0, 5.976059789836299, 4.119429814290285, -10.0, 0.21439172869594, 0.0, 5.428532053049961, 0.0], [0.0, 5.436928344121632, 9.795192244479409, -4.499621187440691, 2.07941417855836, -5.955210399688285, -5.418349239584783, 10.0, 0.0, 10.0, 0.0, -0.3273527568692414, 0.0], [-10.0, 0.0, 0.0, 6.063100172168417, 0.6933203974581268, 2.677676688408178, 5.252126503479166, 8.906112630996093, -10.0, -1.310239744692648, -10.0, 1.723019520601463, 0.0]]}}, {"Field0": 985567727, "Field1": "2_15", "Field2": {"Field0": [1.0, 0.0, 0.0, 0.0, 0.0, 0.06260162941445563, 0.07025706856365234], "Field1": [1.000144761558322, 0.9998730184958013, -1.000018614572397, -1.000111352051142, -0.6372932479514116, -0.9998819184367672], "Field2": [[10.0, -3.022706267333946, 0.0, 0.0, 0.0, 0.0, 4.824389199215568, 3.623261748732805, 0.0, 10.0, -7.005560174866389, -5.79357250994943, -7.000755891634089], [-10.0, 6.091805931938895, 1.281772698523595, 6.091805931938895, 6.091805931938895, 0.0, 1.417584291360556, -0.1145390141453694, -10.0, -2.130023660291191, 10.0, -10.0, 10.0], [-10.0, 0.0, -6.0643972446486, 0.0, 0.0, 4.552177468518146, 3.499869506632204, 0.6093301660765609, -10.0, -5.580884467015679, 10.0, 0.3759016828445904, 10.0], [-10.0, 8.05878888771193, -4.156595453777465, 9.992665245788078, 0.006012901617427957, 0.0, 7.595643877277718, 4.119429814290285, -10.0, 0.21439172869594, 0.0, 5.428532053049961, 0.0], [0.0, 5.503941573088213, 9.862205473445989, -4.43260795847411, 2.146427407524941, -5.939637453830795, -5.409066832182003, 10.0, 0.0, 10.0, 0.0, -0.3273527568692414, 0.0], [-10.0, 0.0, 0.0, 9.99835139803562, 4.628571623325331, 4.551511002050766, 6.873873900530787, 8.906112630996093, -10.0, -1.310239744692648, 10.0, 1.723019520601463, 0.0]]}}, {"Field0": 447853169, "Field1": "2_10", "Field2": {"Field0": [1.0, 0.0, 0.1486476353869147, 0.09239821653637895, 0.1620597981576086, 0.0, 0.0], "Field1": [-1.000012451985414, 0.9998567283101636, 1.000089978180347, -0.9688872055026574, 0.7743513512494964, 0.9997047515665205], "Field2": [[10.0, -10.0, 0.0, 0.0, 0.0, 0.0, -0.2979517936367588, 3.623261748732805, 0.0, 10.0, -10.0, -5.79357250994943, 10.0], [7.998271510343198, 8.713471872297941, -0.190766107399074, 8.262891812989578, -3.10992321530125, 0.0, 1.0634427944032, -0.1145390141453694, -10.0, -2.130023660291191, 10.0, -10.0, 7.998769023295157], [-10.0, 0.0, -10.0, 0.0, 0.0, 1.778104205413536, 2.689011445167013, 0.6093301660765609, -10.0, -5.580884467015679, 10.0, 0.3759016828445904, -10.0], [-10.0, 6.459066964408825, -10.0, 4.231605507189618, -10.0, 0.0, 8.703353428937508, 4.119429814290285, -10.0, 0.21439172869594, 0.0, 5.428532053049961, 0.0], [0.0, 5.699030298294989, 10.0, -4.358874513395857, 0.4432266619774797, -6.284999016410985, -4.871807880074607, 10.0, 0.0, 10.0, 0.0, -0.3273527568692414, 0.0], [-10.0, 0.0, 0.0, 4.130075282935328, 2.67117222539452, 6.065145338467344, 6.065145338467344, 8.906112630996093, -10.0, -1.310239744692648, 10.0, 1.723019520601463, 0.0]]}}, {"Field0": 764190321, "Field1": "4_44", "Field2": {"Field0": [1.0, 0.1770865692172413, 0.009960955420361814, 0.8496591267100856, 0.1069846715306863, 0.1188291182990814, 0.002019949457696392], "Field1": [0.9999702956127366, 0.9999202687661386, -1.000001967873743, -1.000158083624772, 0.994312269449323, -0.9998565488944475], "Field2": [[-3.106174845232946, -8.091981434780612, 0.0, 0.0, 0.0, 0.0, 7.904131399599464, 3.623261748732805, 0.0, 10.0, -1.039247728985604, -5.79357250994943, 1.955669702522922], [10.0, 10.0, 10.0, 10.0, 10.0, 0.0, 10.0, -0.1145390141453694, 10.0, -2.130023660291191, -10.0, -10.0, -10.0], [10.0, 0.0, -10.0, 0.0, 0.0, -6.710751887125658, -9.932711155955337, 0.6093301660765609, 10.0, -5.580884467015679, -10.0, 0.3759016828445904, -10.0], [-10.0, -4.639916658203955, 7.995664490727865, -10.0, 2.87477376603869, 0.0, -2.546243868342439, 4.119429814290285, -10.0, 0.21439172869594, 0.0, 5.428532053049961, 0.0], [0.0, 0.1866851295109262, 4.317750468113485, 10.0, -4.423565993138852, 5.31601626800502, 7.112184825716757, 10.0, 0.0, 10.0, 0.0, -0.3273527568692414, 0.0], [10.0, 0.0, 0.0, 10.0, -1.340130404731028, -6.711525588465864, -9.933521767377261, 8.906112630996093, 10.0, -1.310239744692648, -10.0, 1.723019520601463, 0.0]]}}, {"Field0": 0, "Field1": "", "Field2": {"Field0": [], "Field1": [], "Field2": []}}, {"Field0": 2061285236, "Field1": "4_47", "Field2": {"Field0": [0.9995069811561478, 0.05721764263966349, 1.0, 0.01105524048294729, 0.0146385972136304, 0.08640425517552219, 0.0], "Field1": [0.9998678247425995, -1.000001836160367, -0.9999290466848866, 0.9999126188899173, -0.9998844396947935, -0.9999132706393897], "Field2": [[10.0, -3.246443788581852, 0.0, 0.0, 0.0, 0.0, 10.0, 3.623261748732805, 0.0, 10.0, 10.0, -5.79357250994943, -4.61138053251652], [-10.0, 10.0, -10.0, -6.428292388157884, 10.0, 0.0, 10.0, -0.1145390141453694, 10.0, -2.130023660291191, -10.0, -10.0, 10.0], [-10.0, 0.0, -10.0, 0.0, 0.0, -5.620430537527025, -6.064622179659445, 0.6093301660765609, 10.0, -5.580884467015679, -10.0, 0.3759016828445904, 10.0], [10.0, -0.4011783009198853, 10.0, 10.0, 6.315910990052975, 0.0, 2.073065574702213, 4.119429814290285, -10.0, 0.21439172869594, 0.0, 5.428532053049961, 0.0], [0.0, -1.598831852689569, -10.0, 1.175419628725113, -5.769009831311815, 3.228842820431639, 5.461640220125315, 10.0, 0.0, 10.0, 0.0, -0.3273527568692414, 0.0], [-10.0, 0.0, 0.0, 6.635583863097249, 2.112653410492744, -5.621618753961203, -6.065153052563166, 8.906112630996093, 10.0, -1.310239744692648, -10.0, 1.723019520601463, 0.0]]}}, {"Field0": 0, "Field1": "", "Field2": {"Field0": [], "Field1": [], "Field2": []}}, {"Field0": 0, "Field1": "", "Field2": {"Field0": [], "Field1": [], "Field2": []}}, {"Field0": 0, "Field1": "", "Field2": {"Field0": [], "Field1": [], "Field2": []}}, {"Field0": 0, "Field1": "", "Field2": {"Field0": [], "Field1": [], "Field2": []}}, {"Field0": 0, "Field1": "", "Field2": {"Field0": [], "Field1": [], "Field2": []}}, {"Field0": 0, "Field1": "", "Field2": {"Field0": [], "Field1": [], "Field2": []}}, {"Field0": 0, "Field1": "", "Field2": {"Field0": [], "Field1": [], "Field2": []}}, {"Field0": 0, "Field1": "", "Field2": {"Field0": [], "Field1": [], "Field2": []}}, {"Field0": 0, "Field1": "", "Field2": {"Field0": [], "Field1": [], "Field2": []}}, {"Field0": 2493773438, "Field1": "2_24", "Field2": {"Field0": [1.0, 0.0, 0.001484253230326014, 0.0, 0.1895397236478228, 0.0502913654681179, 0.0], "Field1": [0.99983567063366, -0.999858819899081, -1.000086894564358, -0.9999687092167068, 0.2112818287928886, -1.000064311359255], "Field2": [[-10.0, -3.591753816558954, 0.0, 0.0, 0.0, 0.0, -0.0189879737967642, 3.623261748732805, 0.0, 10.0, 7.005521631997222, -5.79357250994943, 10.0], [-10.0, 7.375725384472666, 6.03157891451265, 9.059287521209255, 3.825210858497404, 0.0, 10.0, -0.1145390141453694, 10.0, -2.130023660291191, 10.0, -10.0, 10.0], [10.0, 0.0, -9.828766270766753, 0.0, 0.0, 7.719734990112213, 2.804074869717085, 0.6093301660765609, -10.0, -5.580884467015679, -10.0, 0.3759016828445904, -10.0], [10.0, 5.694865353230848, 2.3654049795536, 6.064191625975599, 9.811440099664262, 0.0, 6.064191625975599, 4.119429814290285, -10.0, 0.21439172869594, 0.0, 5.428532053049961, 0.0], [0.0, 4.598913954430098, 8.871462855178962, -4.406682685051494, 1.145129403970165, -5.852179785290648, -5.817931683682671, 10.0, 0.0, 10.0, 0.0, -0.3273527568692414, 0.0], [10.0, 0.0, 0.0, 4.452143576684741, 6.455527797833364, 7.720244677948386, 5.020138252219264, 8.906112630996093, -10.0, -1.310239744692648, -10.0, 1.723019520601463, 0.0]]}}, {"Field0": 0, "Field1": "", "Field2": {"Field0": [], "Field1": [], "Field2": []}}], "counter": 49}
	},
"1": {
	"result": 1,
	"status": {"data": [{"Field0": 0, "Field1": "", "Field2": {"Field0": [], "Field1": [], "Field2": []}}, {"Field0": 0, "Field1": "", "Field2": {"Field0": [], "Field1": [], "Field2": []}}, {"Field0": 0, "Field1": "", "Field2": {"Field0": [], "Field1": [], "Field2": []}}, {"Field0": 0, "Field1": "", "Field2": {"Field0": [], "Field1": [], "Field2": []}}, {"Field0": 3810983492, "Field1": "2_20", "Field2": {"Field0": [1.0, 0.0, 0.0, 0.03018651214263001, 0.0, 0.0, 0.06706864483586791], "Field1": [0.9999474785904964, -0.7894649601240492, -0.9999236614522751, -1.00013060928515, -0.2586866072724352, -0.9999093875893136], "Field2": [[-10.0, 4.078154835068563, 0.0, 0.0, 0.0, 0.0, -4.537103447928319, 3.623261748732805, 0.0, 10.0, 7.005054394187628, -5.79357250994943, 9.999006428935505], [10.0, -6.163060296528617, 5.583001228894613, 6.511942291668042, -2.46351373002088, 0.0, 2.513755218560491, -0.1145390141453694, -10.0, -2.130023660291191, -10.0, -10.0, -10.0], [10.0, 0.0, -3.99595459297711, 0.0, 0.0, -5.735318689997809, 2.737379208720585, 0.6093301660765609, -10.0, -5.580884467015679, -10.0, 0.3759016828445904, -10.0], [10.0, -2.416782941665307, -4.831246136086144, -8.498509875938247, -2.875081429279298, 0.0, 5.629275224281869, 4.119429814290285, -10.0, 0.21439172869594, 0.0, 5.428532053049961, 0.0], [0.0, 1.873596484236729, -2.418721670480391, 9.001815312999565, -6.579957440377546, -4.627846868710222, -7.996139264505137, 10.0, 0.0, 10.0, 0.0, -0.3273527568692414, 0.0], [10.0, 0.0, 0.0, -8.710763607476862, -10.0, -7.181271918229417, -3.843082656038187, 8.906112630996093, -10.0, -1.310239744692648, -10.0, 1.723019520601463, 0.0]]}}, {"Field0": 2886241349, "Field1": "2_8", "Field2": {"Field0": [0.9094635040842404, 0.0, 0.0, 0.0, 0.0, 0.008334918400154092, 0.0], "Field1": [1.000055820800884, -1.000072479480316, -0.9999515311785203, -0.9999183786663474, -0.03546568467795625, -0.9998957547586157], "Field2": [[-10.0, -5.457122040606402, 0.0, 0.0, 0.0, 0.0, -0.6951572115870297, 3.623261748732805, 0.0, 10.0, 10.0, -5.79357250994943, 10.0], [-10.0, 7.465263002593122, 9.999657643283633, 7.658815696949045, -0.4100955116716043, 0.0, 6.901694050846736, -0.1145390141453694, 10.0, -2.130023660291191, 10.0, -10.0, 10.0], [10.0, 0.0, -5.335948754322994, 0.0, 0.0, -5.944923177069009, 0.6230318640554313, 0.6093301660765609, -10.0, -5.580884467015679, -10.0, 0.3759016828445904, -10.0], [10.0, 5.21490647948875, 4.247524439340827, -10.0, 1.304359442068031, 0.0, 5.955240823787744, 4.119429814290285, -10.0, 0.21439172869594, 0.0, 5.428532053049961, 0.0], [0.0, 4.510670736067861, -2.743633319853942, 9.44432448387715, -5.735950573751959, -4.272616034604221, -6.752491104346753, 10.0, 0.0, 10.0, 0.0, -0.3273527568692414, 0.0], [10.0, 0.0, 0.0, -10.0, -9.658920305128216, -9.55523746943464, -5.954362318464418, 8.906112630996093, -10.0, -1.310239744692648, -10.0, 1.723019520601463, 0.0]]}}, {"Field0": 0, "Field1": "", "Field2": {"Field0": [], "Field1": [], "Field2": []}}, {"Field0": 0, "Field1": "", "Field2": {"Field0": [], "Field1": [], "Field2": []}}, {"Field0": 3773329480, "Field1": "2_31", "Field2": {"Field0": [1.0, 0.009694135142359511, 0.05370833203425004, 0.04683450264941401, 0.1361777174440796, 0.0473809234813056, 0.02551181185726854], "Field1": [1.000061112240957, 1.000169531926583, -1.000050023829991, -0.9999178656969107, -0.803063521601274, -0.9998205880408744], "Field2": [[10.0, 10.0, 0.0, 0.0, 0.0, 0.0, -1.968676376468458, 3.623261748732805, 0.0, 10.0, -10.0, -5.79357250994943, -6.998292971636193], [7.677171277149486, 4.957872962302653, 9.527403221458588, 8.256120453223978, 8.616136877064372, 0.0, 9.582534323333297, -0.1145390141453694, 7.676839800717048, -2.130023660291191, -8.412499543833761, -10.0, 10.0], [-10.0, 0.0, -0.2059976707431965, 0.0, 0.0, -6.035438164280317, 9.127211038152828, 0.6093301660765609, -10.0, -5.580884467015679, 10.0, 0.3759016828445904, 10.0], [-10.0, 9.482660342671014, 1.242076604341838, 6.55702203825766, 1.842511120644881, 0.0, 10.0, 4.119429814290285, -10.0, 0.21439172869594, 0.0, 5.428532053049961, 0.0], [0.0, 0.5617860181015941, -1.729567531593429, 7.619714884673152, -6.560560584560684, -6.276515090971722, -7.67035929464085, 10.0, 0.0, 10.0, 0.0, -0.3273527568692414, 0.0], [-10.0, 0.0, 0.0, -6.041731342759086, -6.680387789606261, -6.034518373190509, 2.546514608165058, 8.906112630996093, -10.0, -1.310239744692648, 10.0, 1.723019520601463, 0.0]]}}, {"Field0": 3989795913, "Field1": "2_29", "Field2": {"Field0": [0.8930653689474097, 0.0, 0.09108955026932156, 0.01111697714273951, 0.1520776951864329, 0.07590701008590688, 0.0], "Field1": [-0.9999925898938067, 1.000189914089361, 1.00014217979678, -1.000168118299358, -0.9135535636052888, 1.000154826130771], "Field2": [[-10.0, 9.558251582296329, 0.0, 0.0, 0.0, 0.0, -2.502476583314773, 3.623261748732805, 0.0, 10.0, 10.0, -5.79357250994943, -10.0], [10.0, 0.49066522138635, 7.750788197761093, 4.780218144124406, 5.314922431777147, 0.0, 8.546583295064341, -0.1145390141453694, 10.0, -2.130023660291191, -10.0, -10.0, 10.0], [10.0, 0.0, 3.63783034261008, 0.0, 0.0, -4.475058679237915, 9.967395767477544, 0.6093301660765609, 10.0, -5.580884467015679, -10.0, 0.3759016828445904, 10.0], [-10.0, 3.376026216410945, -1.597162451801125, 0.2287941785267362, -1.543934728501364, 0.0, 9.831483211927436, 4.119429814290285, -10.0, 0.21439172869594, 0.0, 5.428532053049961, 0.0], [0.0, 0.6006620230916406, -2.230216615564904, 7.944641415224354, -6.412312216185979, -5.952669119571826, -7.303266676486104, 10.0, 0.0, 10.0, 0.0, -0.3273527568692414, 0.0], [10.0, 0.0, 0.0, -4.499738449718194, -2.196338413412061, -4.474531937442526, 3.386355011758585, 8.906112630996093, 10.0, -1.310239744692648, -10.0, 1.723019520601463, 0.0]]}}, {"Field0": 704762634, "Field1": "2_11", "Field2": {"Field0": [0.8832506190874797, 0.1159199347660242, 0.08034380366494125, 0.04050174543060726, 0.03418136328158362, 0.0, 0.0], "Field1": [0.9999508124102817, -1.000139648398637, -1.000230108125004, 0.7835352136360318, 0.3767348987261693, -0.9999456526988936], "Field2": [[10.0, 3.161910199870845, 0.0, 0.0, 0.0, 0.0, 1.773528666141417, 3.623261748732805, 0.0, 10.0, 10.0, -5.79357250994943, -7.002647745648751], [-10.0, -1.628400511892965, 5.157205137026347, 8.279640755658392, -4.495720457694212, 0.0, 4.521213224126718, -0.1145390141453694, 10.0, -2.130023660291191, -10.0, -10.0, 10.0], [-10.0, 0.0, -3.655719045198143, 0.0, 0.0, -2.008290213412757, 5.552956800884189, 0.6093301660765609, 10.0, -5.580884467015679, -10.0, 0.3759016828445904, 10.0], [-10.0, 3.543510372388682, 5.135612222872126, -6.227024539766619, 2.043105796271401, 0.0, 6.920025811161079, 4.119429814290285, 9.376410264025026, 0.21439172869594, 0.0, 5.428532053049961, 0.0], [0.0, 4.012663476032316, -3.363548068108324, 9.442378822909479, -5.778731740020513, -4.309244502101189, -6.775520721349912, 10.0, 0.0, 10.0, 0.0, -0.3273527568692414, 0.0], [-10.0, 0.0, 0.0, -3.61031476795838, -6.239796088346726, -5.619929492430039, -1.025701710993041, 8.906112630996093, 10.0, -1.310239744692648, -10.0, 1.723019520601463, 0.0]]}}, {"Field0": 3853706571, "Field1": "2_28", "Field2": {"Field0": [0.885386930965159, 0.0, 0.1099789954981606, 0.0, 0.02078525676395975, 0.05685223079353829, 0.1301285227592971], "Field1": [1.000087479587768, -1.000070534867429, -1.0001137127707, -1.000072623364303, -0.90214076970813, -1.000200526210978], "Field2": [[-10.0, 6.339098045024373, 0.0, 0.0, 0.0, 0.0, -5.721630120586727, 3.623261748732805, 0.0, 10.0, 8.811542694310059, -5.79357250994943, 8.812485142626336], [10.0, -3.445736787193018, 1.907163653974388, 0.6110501457324986, -1.805664881311765, 0.0, 4.610181286484973, -0.1145390141453694, -10.0, -2.130023660291191, -10.0, -10.0, -10.0], [10.0, 0.0, -2.204969543832087, 0.0, 0.0, -10.0, 6.031628133034874, 0.6093301660765609, -10.0, -5.580884467015679, -10.0, 0.3759016828445904, -10.0], [-10.0, 0.3913430013649406, -2.307414107027974, -2.478307210849077, -0.731362292883841, 0.0, 6.846799996881431, 4.119429814290285, 10.0, 0.21439172869594, 0.0, 5.428532053049961, 0.0], [0.0, 1.631841524096008, -2.045767377127845, 8.872482158410781, -6.794783198635671, -5.627089354110185, -6.272087175481737, 10.0, 0.0, 10.0, 0.0, -0.3273527568692414, 0.0], [10.0, 0.0, 0.0, -8.668661990415112, -9.316633965718186, -10.0, -0.5498062697207649, 8.906112630996093, -10.0, -1.310239744692648, -10.0, 1.723019520601463, 0.0]]}}, {"Field0": 0, "Field1": "", "Field2": {"Field0": [], "Field1": [], "Field2": []}}, {"Field0": 917503373, "Field1": "2_26", "Field2": {"Field0": [0.8267079160917052, 0.0, 0.0, 0.02782515603970855, 0.03704200704361526, 0.0, 0.0001093443560446828], "Field1": [-0.9998641646069176, 0.9999676932948579, 1.000013558765384, 1.000027764104746, 0.05443240901075658, 1.000148935088014], "Field2": [[10.0, 6.066712815605717, 0.0, 0.0, 0.0, 0.0, -3.462259458777241, 3.623261748732805, 0.0, 10.0, 10.0, -5.79357250994943, 10.0], [-10.0, -3.073274988709036, -1.667189245486613, 0.6582527388782182, -2.442910809065823, 0.0, 0.3723141332752373, -0.1145390141453694, -10.0, -2.130023660291191, -10.0, -10.0, -10.0], [-10.0, 0.0, -5.826290818698677, 0.0, 0.0, -5.64291633886725, 1.746743004519467, 0.6093301660765609, -10.0, -5.580884467015679, -10.0, 0.3759016828445904, -10.0], [-9.401214171700524, -5.08044021005556, -6.386790658870712, -8.278769215445713, -6.206551249784711, 0.0, 3.082747822133864, 4.119429814290285, -10.0, 0.21439172869594, 0.0, 5.428532053049961, 0.0], [0.0, 2.508733219075464, -2.099794976596483, 9.744181327734109, -6.098039878794836, -5.115564312217861, -6.495719495193973, 10.0, 0.0, 10.0, 0.0, -0.3273527568692414, 0.0], [-10.0, 0.0, 0.0, -8.667464231707335, -10.0, -7.089659202179929, -4.83439993172316, 8.906112630996093, -10.0, -1.310239744692648, -10.0, 1.723019520601463, 0.0]]}}, {"Field0": 0, "Field1": "", "Field2": {"Field0": [], "Field1": [], "Field2": []}}, {"Field0": 2031500623, "Field1": "2_6", "Field2": {"Field0": [1.0, 0.01981657969583636, 0.08155212757942074, 0.1069776681536267, 0.09068142462759789, 0.0, 0.0], "Field1": [-0.9998650089803814, 1.000155579970935, 1.000008458752206, 1.000012548860598, 0.3259729469955314, 0.9998556842200803], "Field2": [[10.0, -5.668817457952779, 0.0, 0.0, 0.0, 0.0, -0.6941244254829457, 3.623261748732805, 0.0, 10.0, 10.0, -5.79357250994943, 10.0], [10.0, 7.678421678876817, 10.0, 10.0, -0.4097531549552373, 0.0, 6.902036407563102, -0.1145390141453694, 10.0, -2.130023660291191, 10.0, -10.0, 10.0], [-10.0, 0.0, -5.336429525597561, 0.0, 0.0, -5.775270763282302, 0.622551092780864, 0.6093301660765609, -10.0, -5.580884467015679, -10.0, 0.3759016828445904, -10.0], [-10.0, 5.649101411368111, 4.356347810048112, -10.0, 1.413182812775315, 0.0, 6.064064194495027, 4.119429814290285, -10.0, 0.21439172869594, 0.0, 5.428532053049961, 0.0], [0.0, 4.830754579957338, -2.447110166199941, 10.0, -5.439427420097958, -3.886437844024712, -6.455967950692752, 10.0, 0.0, 10.0, 0.0, -0.3273527568692414, 0.0], [-10.0, 0.0, 0.0, -10.0, -9.659877125286613, -9.386017315582187, -5.955319138622815, 8.906112630996093, -10.0, -1.310239744692648, -10.0, 1.723019520601463, 0.0]]}}, {"Field0": 3902936015, "Field1": "2_16", "Field2": {"Field0": [1.0, 0.0, 0.07223922191464142, 0.0, 0.0, 0.1541939626021743, 0.0], "Field1": [1.000110366050165, -0.9999379507605481, -1.000004372985007, 1.000025012837698, -0.7038487961951483, -1.000075404790065], "Field2": [[-8.267780028202349, 4.155776579775396, 0.0, 0.0, 0.0, 0.0, -0.1565395644218652, 3.623261748732805, 0.0, 10.0, -10.0, -5.79357250994943, 7.773624769347409], [10.0, -9.618839641984142, 5.063375570865031, 2.128907277880939, -10.0, 0.0, -4.886442252824795, -0.1145390141453694, -10.0, -2.130023660291191, 10.0, -10.0, -10.0], [10.0, 0.0, -4.135720701561772, 0.0, 0.0, -7.412851700175019, -1.352219123317755, 0.6093301660765609, -10.0, -5.580884467015679, 10.0, 0.3759016828445904, -10.0], [-10.0, -5.979319440118783, -7.320999784432329, -10.0, -2.43630134565308, 0.0, -0.389387375668647, 4.119429814290285, 4.129507155029909, 0.21439172869594, 0.0, 5.428532053049961, 0.0], [0.0, 2.8940485041963, -2.012495567434224, 9.175411018721977, -7.106986905664487, -4.198673428113189, -7.644257274003527, 10.0, 0.0, 10.0, 0.0, -0.3273527568692414, 0.0], [10.0, 0.0, 0.0, -7.546523912835626, -10.0, -8.858431753640581, -7.932159008924471, 8.906112630996093, -10.0, -1.310239744692648, 10.0, 1.723019520601463, 0.0]]}}, {"Field0": 0, "Field1": "", "Field2": {"Field0": [], "Field1": [], "Field2": []}}, {"Field0": 0, "Field1": "", "Field2": {"Field0": [], "Field1": [], "Field2": []}}, {"Field0": 0, "Field1": "", "Field2": {"Field0": [], "Field1": [], "Field2": []}}, {"Field0": 357740564, "Field1": "2_9", "Field2": {"Field0": [0.8013035881633805, 0.0, 0.1135154772455355, 0.1808962832222107, 0.02909815193661321, 0.0, 0.04743771715133126], "Field1": [-0.9997862739400507, -0.9999715944952166, 0.999957800465555, 0.9999976439288046, 0.720997540960601, 0.9998930209794908], "Field2": [[-10.0, -1.521830085900505, 0.0, 0.0, 0.0, 0.0, 1.67791380005201, 3.623261748732805, 0.0, 10.0, -10.0, -5.79357250994943, -10.0], [10.0, 3.59788148185541, 9.805504862145096, 9.645027382547696, -3.335894698824979, 0.0, 4.569341851303195, -0.1145390141453694, -10.0, -2.130023660291191, 10.0, -10.0, 10.0], [10.0, 0.0, 0.9763477367062672, 0.0, 0.0, -2.009511982166872, 5.551735032130075, 0.6093301660765609, -10.0, -5.580884467015679, 10.0, 0.3759016828445904, 10.0], [10.0, 9.14571811673467, 10.0, -2.286046332105617, 5.843710069970672, 0.0, 10.0, 4.119429814290285, -10.0, 0.21439172869594, 0.0, 5.428532053049961, 0.0], [0.0, 4.546645359317866, -2.675117501611968, 9.532156187487427, -5.691634456821519, -4.236641411354216, -6.70291763060294, 10.0, 0.0, 10.0, 0.0, -0.3273527568692414, 0.0], [10.0, 0.0, 0.0, -2.27668220218435, -5.114277242680978, -5.619913900076575, -1.025686118639575, 8.906112630996093, -10.0, -1.310239744692648, 10.0, 1.723019520601463, 0.0]]}}, {"Field0": 3483697044, "Field1": "2_12", "Field2": {"Field0": [0.9620504752790183, 0.0, 0.0, 0.0, 0.1082604717000558, 0.0, 0.03554379094474872], "Field1": [1.000023553432719, -1.000062720307915, -1.000002849379774, -0.9998922963051806, -0.6997219664863173, -1.000019789202299], "Field2": [[-10.0, -0.7745078241923946, 0.0, 0.0, 0.0, 0.0, -2.907263456810309, 3.623261748732805, 0.0, 10.0, 10.0, -5.79357250994943, 10.0], [-10.0, 2.077630775403608, 8.86323642432292, 10.0, -4.146466267021553, 0.0, 7.125156357761021, -0.1145390141453694, 10.0, -2.130023660291191, 10.0, -10.0, 10.0], [10.0, 0.0, -7.591075403803258, 0.0, 0.0, -5.943646572017872, 2.787941887224553, 0.6093301660765609, -10.0, -5.580884467015679, -10.0, 0.3759016828445904, -10.0], [10.0, -0.3911545855504959, 1.200947264932948, -10.0, 1.672802141860439, 0.0, 4.155602503148997, 4.119429814290285, -10.0, 0.21439172869594, 0.0, 5.428532053049961, 0.0], [0.0, 4.357882510126585, -3.018329034014054, 9.787597857003748, -5.855975872256837, -3.964025468006919, -6.569003673586481, 10.0, 0.0, 10.0, 0.0, -0.3273527568692414, 0.0], [10.0, 0.0, 0.0, -7.546576060128537, -6.610621826099216, -9.556190784600195, -3.791368658033158, 8.906112630996093, -10.0, -1.310239744692648, -10.0, 1.723019520601463, 0.0]]}}, {"Field0": 1415344918, "Field1": "2_7", "Field2": {"Field0": [1.0, 0.01016229005604047, 0.0, 0.1117786215002772, 0.0, 0.01350075189785833, 0.0], "Field1": [1.000112037689321, 1.000039363392947, -1.000122718755496, -1.000163284806895, 0.8055493637765337, -0.9999973523704816], "Field2": [[10.0, -1.520981594128204, 0.0, 0.0, 0.0, 0.0, 3.240983234891168, 3.623261748732805, 0.0, 10.0, -7.001407392905183, -5.79357250994943, -6.997933913118867], [-10.0, 3.529235678654107, 6.063630319344618, 3.722788373010029, -4.34612283561062, 0.0, 2.96566672690772, -0.1145390141453694, -10.0, -2.130023660291191, 10.0, -10.0, 10.0], [-10.0, 0.0, -1.399669301662963, 0.0, 0.0, -2.283161378819588, 4.559311316715462, 0.6093301660765609, -10.0, -5.580884467015679, 10.0, 0.3759016828445904, 10.0], [-10.0, 9.150921549770006, 8.183539509622083, -9.751685146358005, 5.240374512349287, 0.0, 9.891255894068999, 4.119429814290285, -10.0, 0.21439172869594, 0.0, 5.428532053049961, 0.0], [0.0, 4.474672734738304, -2.779631321183499, 9.408326482547592, -5.771948575081516, -4.250259722728745, -6.78848910567631, 10.0, 0.0, 10.0, 0.0, -0.3273527568692414, 0.0], [-10.0, 0.0, 0.0, -9.745109462904393, -5.72363710922585, -5.894414970819735, -2.019079122562052, 8.906112630996093, -10.0, -1.310239744692648, 10.0, 1.723019520601463, 0.0]]}}, {"Field0": 1033728277, "Field1": "2_17", "Field2": {"Field0": [1.0, 0.0, 0.04294570916726027, 0.0, 0.06944958595691782, 0.08010432937448252, 0.08980934534738068], "Field1": [-0.9999502666130855, 1.000215044783541, 0.9999941490764795, -1.000211560826405, -0.9222014837442502, 1.000005898223983], "Field2": [[-10.0, 8.013207080798635, 0.0, 0.0, 0.0, 0.0, 0.8021921152999284, 3.623261748732805, 0.0, 10.0, 10.0, -5.79357250994943, -10.0], [10.0, -5.682161011669924, 9.899280648309977, 6.065585908195155, -4.609138736642924, 0.0, 0.9307254904140843, -0.1145390141453694, 10.0, -2.130023660291191, -7.006430836525858, -10.0, 10.0], [10.0, 0.0, 0.6995803729437249, 0.0, 0.0, -1.799415410693201, 4.464449004383718, 0.6093301660765609, 10.0, -5.580884467015679, -7.009358442288555, 0.3759016828445904, 10.0], [-7.553249039913283, -6.311511283665964, -7.533847958542198, -10.0, -2.575496762089931, 0.0, -0.4720041852636533, 4.119429814290285, 6.576855712270307, 0.21439172869594, 0.0, 5.428532053049961, 0.0], [0.0, 2.068787068867781, -2.520759430915855, 8.350149583393458, -7.41961621682964, -4.43265628407917, -7.806603951226665, 10.0, 0.0, 10.0, 0.0, -0.3273527568692414, 0.0], [10.0, 0.0, 0.0, -3.61071137761937, -4.609933609502797, -3.245258177138918, -2.115765259117449, 8.906112630996093, 10.0, -1.310239744692648, -7.008322672885519, 1.723019520601463, 0.0]]}}, {"Field0": 2433890008, "Field1": "2_18", "Field2": {"Field0": [1.0, 0.0, 0.03627597563020131, 0.1030460405637005, 0.1260144095478813, 0.0, 0.0], "Field1": [-0.9999820493783543, 1.000115891287635, 0.9999868040053521, -0.9889906554287009, -0.1644389308150668, 0.9998777593033208], "Field2": [[10.0, 4.077130500006533, 0.0, 0.0, 0.0, 0.0, -3.133884465492173, 3.623261748732805, 0.0, 10.0, -10.0, -5.79357250994943, 10.0], [10.0, -1.746061525423228, 10.0, 10.0, 1.96548439319141, 0.0, 4.866824976660781, -0.1145390141453694, 10.0, -2.130023660291191, -10.0, -10.0, 10.0], [-10.0, 0.0, -3.995888689904294, 0.0, 0.0, -5.735252786924995, 0.5286116281519249, 0.6093301660765609, -10.0, -5.580884467015679, 9.764616297615468, 0.3759016828445904, -10.0], [-10.0, -2.419258734247816, -4.833721928668654, -9.494118610997546, -2.82441800212915, 0.0, 3.420248364154494, 4.119429814290285, -10.0, 0.21439172869594, 0.0, 5.428532053049961, 0.0], [0.0, 1.878864222611902, -2.413453932105219, 9.004537705218238, -6.577036042732074, -4.622579130335049, -7.996526797482545, 10.0, 0.0, 10.0, 0.0, -0.3273527568692414, 0.0], [-10.0, 0.0, 0.0, -9.704711188533325, -10.0, -7.181121002502078, -6.051628084480609, 8.906112630996093, -10.0, -1.310239744692648, 9.76866576870886, 1.723019520601463, 0.0]]}}, {"Field0": 1118477529, "Field1": "1_3", "Field2": {"Field0": [1.0, 0.1044229951937296, 0.1806606436422732, 0.9198374000385838, 0.0, 0.09574181327393874, 0.0], "Field1": [1.000054562676659, 1.000232301219214, -0.9999885111591739, -1.000124162783226, 1.000015538264828, 0.9999577002894692], "Field2": [[10.0, 0.7090763341961246, 0.0, 0.0, 0.0, 0.0, 6.959872629072713, 3.623261748732805, 0.0, 10.0, -10.0, -5.79357250994943, 10.0], [10.0, 9.900753096118979, 10.0, 10.0, -2.127712317883916, 0.0, 7.989771853979914, -0.1145390141453694, 10.0, -2.130023660291191, -10.0, -10.0, 10.0], [-10.0, 0.0, -3.784261941973183, 0.0, 0.0, -1.839452955119995, 1.228528810374408, 0.6093301660765609, -10.0, -5.580884467015679, 10.0, 0.3759016828445904, -10.0], [-10.0, 7.463288252816507, 7.986880575455075, -10.0, 7.248312226906416, 0.0, 10.0, 4.119429814290285, -10.0, 0.21439172869594, 0.0, 5.428532053049961, 0.0], [0.0, 5.560633235589412, -2.2807162323141, 10.0, -6.063913379365426, -4.05899328426879, -6.063913379365426, 10.0, 0.0, 10.0, 0.0, -0.3273527568692414, 0.0], [-10.0, 0.0, 0.0, -10.0, -3.826896741323285, -5.451902472047665, -5.350824729816101, 8.906112630996093, -10.0, -1.310239744692648, 7.008092963328384, 1.723019520601463, 0.0]]}}, {"Field0": 1870832410, "Field1": "4_37", "Field2": {"Field0": [0.9437894546193761, 0.03175212209267676, 0.0, 1.0, 0.0, 0.0, 0.1215191874069288], "Field1": [-0.9998671611405988, 1.000064178243443, 1.000084803253655, -1.000046598013411, 0.9998818960228407, 1.000042446788493], "Field2": [[-10.0, 0.2548397501018567, 0.0, 0.0, 0.0, 0.0, -6.427109939639788, 3.623261748732805, 0.0, 10.0, 10.0, -5.79357250994943, -10.0], [10.0, 10.0, 10.0, 10.0, 10.0, 0.0, 10.0, -0.1145390141453694, 10.0, -2.130023660291191, -10.0, -10.0, 10.0], [10.0, 0.0, 1.932055341025672, 0.0, 0.0, -6.063954235666932, 10.0, 0.6093301660765609, 10.0, -5.580884467015679, -10.0, 0.3759016828445904, 10.0], [-10.0, -7.371773551096942, -0.9991285089012911, -10.0, 2.419538849768183, 0.0, 1.922159280411508, 4.119429814290285, -10.0, 0.21439172869594, 0.0, 5.428532053049961, 0.0], [0.0, 5.098983402849184, 0.3543902541595987, 10.0, -4.077527303101684, -6.515191378567653, -3.757395936582876, 10.0, 0.0, 10.0, 0.0, -0.3273527568692414, 0.0], [10.0, 0.0, 0.0, 10.0, 2.399088856913253, -6.064177158775666, 10.0, 8.906112630996093, 10.0, -1.310239744692648, -10.0, 1.723019520601463, 0.0]]}}, {"Field0": 3561407707, "Field1": "2_19", "Field2": {"Field0": [0.7121670317666493, 0.0, 0.0, 0.0, 0.001613834022569823, 0.0, 0.0], "Field1": [1.000046178408486, 1.000057909358696, -1.000102192819669, -0.9998814010127549, -0.01063486111964413, -0.9998724586432217], "Field2": [[10.0, 8.013239132381253, 0.0, 0.0, 0.0, 0.0, 0.8022241668825476, 3.623261748732805, 0.0, 10.0, -10.0, -5.79357250994943, -7.00141615721688], [3.307190419919118, -3.143690279233531, 8.602371246189698, 8.602371246189698, 0.5558562872742057, 0.0, 3.469196222850478, -0.1145390141453694, 1.166633237284582, -2.130023660291191, -3.963203138722112, -10.0, 10.0], [-10.0, 0.0, -0.05999581571956636, 0.0, 0.0, -1.799359912740266, 4.464504502336653, 0.6093301660765609, -10.0, -5.580884467015679, 10.0, 0.3759016828445904, 10.0], [-10.0, 1.515774347657614, -0.898688846763223, -5.559085529092116, 1.057475860043624, 0.0, 7.355281446059925, 4.119429814290285, -10.0, 0.21439172869594, 0.0, 5.428532053049961, 0.0], [0.0, 1.876610240039433, -2.415707914677687, 9.002283722645771, -6.576943684574842, -4.624833112907518, -7.998780780055013, 10.0, 0.0, 10.0, 0.0, -0.3273527568692414, 0.0], [-10.0, 0.0, 0.0, -5.769193652525036, -6.117628614640851, -3.245603466493789, -2.11611054847232, 8.906112630996093, -10.0, -1.310239744692648, 10.0, 1.723019520601463, 0.0]]}}, {"Field0": 2242207644, "Field1": "2_22", "Field2": {"Field0": [0.8433483316754415, 0.1408335522378363, 0.02762010740565048, 0.05830938069372434, 0.1389018438853959, 0.0, 0.1979244562224579], "Field1": [-0.9998263645744502, 0.9999637562421478, 1.000134303624163, 0.9998512111675613, -0.9522707408303266, 0.9999936774750733], "Field2": [[10.0, 8.716218200862723, 0.0, 0.0, 0.0, 0.0, -1.681645619705215, 3.623261748732805, 0.0, 10.0, 10.0, -5.79357250994943, 10.0], [10.0, 4.658562888043526, 10.0, 10.0, 8.31765336256289, 0.0, 10.0, -0.1145390141453694, 10.0, -2.130023660291191, 10.0, -10.0, 10.0], [-10.0, 0.0, -3.656696294203542, 0.0, 0.0, -5.735775075692862, 0.9211682177314895, 0.6093301660765609, -10.0, -5.580884467015679, -10.0, 0.3759016828445904, -10.0], [-10.0, -5.418473255964495, -4.556181247346151, -9.771916841944453, -5.836316452518743, 0.0, 1.919314776415462, 4.119429814290285, -10.0, 0.21439172869594, 0.0, 5.428532053049961, 0.0], [0.0, 1.827553892994257, -3.250414739423379, 8.297750243337312, -6.641402882613531, -5.796853088114254, -7.289960117624267, 10.0, 0.0, 10.0, 0.0, -0.3273527568692414, 0.0], [-10.0, 0.0, 0.0, -9.932242378687981, -10.0, -7.181750257999774, -5.65924587879081, 8.906112630996093, -10.0, -1.310239744692648, -10.0, 1.723019520601463, 0.0]]}}, {"Field0": 4187238236, "Field1": "2_32", "Field2": {"Field0": [1.0, 0.0, 0.02749795656598612, 0.0, 0.0, 0.08938900064471883, 0.1428350698680396], "Field1": [1.000107616796433, 1.000038674520453, -0.9998215515976481, -0.9999605284973243, -0.9357925081408339, -1.000104483219431], "Field2": [[-10.0, 6.305939505723818, 0.0, 0.0, 0.0, 0.0, -8.46958032452789, 3.623261748732805, 0.0, 10.0, 5.956104315020283, -5.79357250994943, 8.960640189057353], [10.0, 8.894316264996696, 10.0, 10.0, 10.0, 0.0, 10.0, -0.1145390141453694, 10.0, -2.130023660291191, -10.0, -10.0, -7.007922922797494], [10.0, 0.0, -3.235511568240133, 0.0, 0.0, -7.026974013372672, 9.895573046205651, 0.6093301660765609, 10.0, -5.580884467015679, -10.0, 0.3759016828445904, -10.0], [-10.0, 10.0, 2.530323771623276, 8.230245715162157, 3.515734797549378, 0.0, 9.673506115433705, 4.119429814290285, -10.0, 0.21439172869594, 0.0, 5.428532053049961, 0.0], [0.0, -0.3852615243127591, -2.446496458435552, 6.672667342258799, -7.507608126975037, -6.475504390353128, -7.422081342438135, 10.0, 0.0, 10.0, 0.0, -0.3273527568692414, 0.0], [10.0, 0.0, 0.0, -9.978221104093763, -10.0, -7.027116081406128, 3.314082662204001, 8.906112630996093, 10.0, -1.310239744692648, -10.0, 1.723019520601463, 0.0]]}}, {"Field0": 535959966, "Field1": "2_30", "Field2": {"Field0": [1.0, 0.04386786623291012, 0.09908287465589422, 0.0, 0.0, 0.0, 0.0], "Field1": [-1.000020432598544, 0.9997667515085583, 0.9999613278792732, -0.9999034869633782, -0.1921732192244672, 0.9997230539741051], "Field2": [[10.0, 7.066835878488181, 0.0, 0.0, 0.0, 0.0, -6.438567175415017, 3.623261748732805, 0.0, 10.0, -10.0, -5.79357250994943, 10.0], [10.0, 5.344411207466559, 10.0, 8.715277212014509, 9.24998149966725, 0.0, 10.0, -0.1145390141453694, 10.0, -2.130023660291191, -10.0, -10.0, 10.0], [-10.0, 0.0, -2.373414355963687, 0.0, 0.0, -8.411229406979635, 6.031225039735824, 0.6093301660765609, -10.0, -5.580884467015679, 7.004619558649892, 0.3759016828445904, -10.0], [-10.0, 5.866773272229437, -0.9245658544694615, 4.164046693679794, 2.391317786651693, 0.0, 10.0, 4.119429814290285, -10.0, 