{
"phenotype": {"n_size": 6, "mod_id": [false, false, false, false, false, false, false, true, false, true, false, true, false], "inputs": [0.0, 0.0, 0.0, 0.0, 0.0, 0.0, 0.0], "neurons": [0.0, 0.0, 0.0, 0.0, 0.0, 0.0], "origin_weights": [[2.957336029159521, -3.886862338074819, 0.0, 0.0, 0.0, 0.0, 4.550551130489825, 3.623261748732805, 0.0, 10.0, 1.698703430157675, -5.79357250994943, 1.548565526287658], [0.1422878038406239, -0.1568261489057506, 1.403449959455752, 8.037254031781403, -10.0, 0.0, 0.1183099450452851, -0.1145390141453694, 0.4071376046507852, -2.130023660291191, 0.1770573538250309, -10.0, -0.6490444069698709], [3.016239599220664, 0.0, 2.163780843094463, 0.0, 0.0, 1.312573305963021, 1.228364985762916, 0.6093301660765609, 0.1538073746657948, -5.580884467015679, -4.475265603486724, 0.3759016828445904, -9.87422903133049], [-10.0, 3.792407602406265, 7.504839076380065, 0.4509568298802377, 0.1385229120198767, 0.0, 10.0, 4.119429814290285, -10.0, 0.21439172869594, 0.0, 5.428532053049961, 0.0], [0.0, 3.37265282792777, -10.0, -10.0, -10.0, -6.673302651153103, -10.0, 10.0, 0.0, 10.0, 0.0, -0.3273527568692414, 0.0], [0.2407303648509168, 0.0, 0.0, -3.239024119071809, 0.4158679181798938, 0.7957645717095276, -1.108005511124262, 8.906112630996093, -0.5919560109443719, -1.310239744692648, -3.521003403835739, 1.723019520601463, 0.0]], "weights": [[2.957336029159521, -3.886862338074819, 0.0, 0.0, 0.0, 0.0, 4.550551130489825, 3.623261748732805, 0.0, 10.0, 1.698703430157675, -5.79357250994943, 1.548565526287658], [0.1422878038406239, -0.1568261489057506, 1.403449959455752, 8.037254031781403, -10.0, 0.0, 0.1183099450452851, -0.1145390141453694, 0.4071376046507852, -2.130023660291191, 0.1770573538250309, -10.0, -0.6490444069698709], [3.016239599220664, 0.0, 2.163780843094463, 0.0, 0.0, 1.312573305963021, 1.228364985762916, 0.6093301660765609, 0.1538073746657948, -5.580884467015679, -4.475265603486724, 0.3759016828445904, -9.87422903133049], [-10.0, 3.792407602406265, 7.504839076380065, 0.4509568298802377, 0.1385229120198767, 0.0, 10.0, 4.119429814290285, -10.0, 0.21439172869594, 0.0, 5.428532053049961, 0.0], [0.0, 3.37265282792777, -10.0, -10.0, -10.0, -6.673302651153103, -10.0, 10.0, 0.0, 10.0, 0.0, -0.3273527568692414, 0.0], [0.2407303648509168, 0.0, 0.0, -3.239024119071809, 0.4158679181798938, 0.7957645717095276, -1.108005511124262, 8.906112630996093, -0.5919560109443719, -1.310239744692648, -3.521003403835739, 1.723019520601463, 0.0]], "params": {"data": [{"Field0": 0, "Field1": "", "Field2": 0.0}, {"Field0": 0, "Field1": "", "Field2": 0.0}, {"Field0": 0, "Field1": "", "Field2": 0.0}, {"Field0": 0, "Field1": "", "Field2": 0.0}, {"Field0": 0, "Field1": "", "Field2": 0.0}, {"Field0": 0, "Field1": "", "Field2": 0.0}, {"Field0": 1673550086, "Field1": "D", "Field2": 0.0}, {"Field0": 0, "Field1": "", "Field2": 0.0}, {"Field0": 0, "Field1": "", "Field2": 0.0}, {"Field0": 0, "Field1": "", "Field2": 0.0}, {"Field0": 3433458314, "Field1": "B", "Field2": -0.9475854312007884}, {"Field0": 3927768715, "Field1": "C", "Field2": -0.1384623582876872}, {"Field0": 0, "Field1": "", "Field2": 0.0}, {"Field0": 0, "Field1": "", "Field2": 0.0}, {"Field0": 1423767502, "Field1": "A", "Field2": 0.21091849560044}, {"Field0": 0, "Field1": "", "Field2": 0.0}, {"Field0": 0, "Field1": "", "Field2": 0.0}, {"Field0": 0, "Field1": "", "Field2": 0.0}, {"Field0": 0, "Field1": "", "Field2": 0.0}, {"Field0": 0, "Field1": "", "Field2": 0.0}, {"Field0": 0, "Field1": "", "Field2": 0.0}, {"Field0": 0, "Field1": "", "Field2": 0.0}, {"Field0": 0, "Field1": "", "Field2": 0.0}, {"Field0": 0, "Field1": "", "Field2": 0.0}, {"Field0": 0, "Field1": "", "Field2": 0.0}, {"Field0": 0, "Field1": "", "Field2": 0.0}, {"Field0": 0, "Field1": "", "Field2": 0.0}, {"Field0": 0, "Field1": "", "Field2": 0.0}, {"Field0": 0, "Field1": "", "Field2": 0.0}, {"Field0": 1591226461, "Field1": "eps", "Field2": 0.0}, {"Field0": 0, "Field1": "", "Field2": 0.0}, {"Field0": 0, "Field1": "", "Field2": 0.0}, {"Field0": 0, "Field1": "", "Field2": 0.0}, {"Field0": 0, "Field1": "", "Field2": 0.0}, {"Field0": 0, "Field1": "", "Field2": 0.0}, {"Field0": 0, "Field1": "", "Field2": 0.0}, {"Field0": 0, "Field1": "", "Field2": 0.0}, {"Field0": 0, "Field1": "", "Field2": 0.0}, {"Field0": 0, "Field1": "", "Field2": 0.0}, {"Field0": 0, "Field1": "", "Field2": 0.0}, {"Field0": 0, "Field1": "", "Field2": 0.0}, {"Field0": 0, "Field1": "", "Field2": 0.0}, {"Field0": 0, "Field1": "", "Field2": 0.0}, {"Field0": 749951083, "Field1": "eta", "Field2": -28.42502024162423}, {"Field0": 0, "Field1": "", "Field2": 0.0}, {"Field0": 0, "Field1": "", "Field2": 0.0}, {"Field0": 0, "Field1": "", "Field2": 0.0}, {"Field0": 0, "Field1": "", "Field2": 0.0}, {"Field0": 0, "Field1": "", "Field2": 0.0}, {"Field0": 0, "Field1": "", "Field2": 0.0}, {"Field0": 0, "Field1": "", "Field2": 0.0}, {"Field0": 0, "Field1": "", "Field2": 0.0}, {"Field0": 0, "Field1": "", "Field2": 0.0}, {"Field0": 0, "Field1": "", "Field2": 0.0}, {"Field0": 0, "Field1": "", "Field2": 0.0}, {"Field0": 0, "Field1": "", "Field2": 0.0}, {"Field0": 0, "Field1": "", "Field2": 0.0}, {"Field0": 0, "Field1": "", "Field2": 0.0}, {"Field0": 0, "Field1": "", "Field2": 0.0}, {"Field0": 0, "Field1": "", "Field2": 0.0}, {"Field0": 0, "Field1": "", "Field2": 0.0}, {"Field0": 0, "Field1": "", "Field2": 0.0}, {"Field0": 0, "Field1": "", "Field2": 0.0}, {"Field0": 0, "Field1": "", "Field2": 0.0}], "counter": 6}},
"0": {
	"result": 1,
	"status": {"data": [{"Field0": 0, "Field1": "", "Field2": {"Field0": [], "Field1": [], "Field2": []}}, {"Field0": 0, "Field1": "", "Field2": {"Field0": [], "Field1": [], "Field2": []}}, {"Field0": 0, "Field1": "", "Field2": {"Field0": [], "Field1": [], "Field2": []}}, {"Field0": 0, "Field1": "", "Field2": {"Field0": [], "Field1": [], "Field2": []}}, {"Field0": 0, "Field1": "", "Field2": {"Field0": [], "Field1": [], "Field2": []}}, {"Field0": 0, "Field1": "", "Field2": {"Field0": [], "Field1": [], "Field2": []}}, {"Field0": 0, "Field1": "", "Field2": {"Field0": [], "Field1": [], "Field2": []}}, {"Field0": 0, "Field1": "", "Field2": {"Field0": [], "Field1": [], "Field2": []}}, {"Field0": 0, "Field1": "", "Field2": {"Field0": [], "Field1": [], "Field2": []}}, {"Field0": 0, "Field1": "", "Field2": {"Field0": [], "Field1": [], "Field2": []}}, {"Field0": 704762634, "Field1": "2_11", "Field2": {"Field0": [0.8541616651711138, 0.0, 0.1971701405895302, 0.0, 0.05660599126887177, 0.0, 0.0], "Field1": [1.0000547068708, -1.000095986180484, -0.9997975736671219, 0.9952459585370856, 0.9050294142682085, -0.9998120001156661], "Field2": [[10.0, 3.829453626442171, 0.0, 0.0, 0.0, 0.0, 10.0, 3.623261748732805, 0.0, 10.0, 10.0, -5.79357250994943, -7.003022688821723], [-10.0, 1.348269286664961, 3.162088851308757, 8.167024399370233, -9.097043637771451, 0.0, 0.1685927635710032, -0.1145390141453694, 10.0, -2.130023660291191, -10.0, -10.0, -6.555489781465725], [-10.0, 0.0, -5.480432831681476, 0.0, 0.0, -6.064116176036396, -6.065120350287954, 0.6093301660765609, 10.0, -5.580884467015679, -10.0, 0.3759016828445904, 10.0], [-10.0, 3.378480204597446, -10.0, -2.29582434803244, -6.465192892859189, 0.0, -1.226365883757115, 4.119429814290285, 10.0, 0.21439172869594, 0.0, 5.428532053049961, 0.0], [0.0, 4.269367949332038, 9.209965980637605, -1.220088669478484, -3.546824298420037, -1.49742795259845, -2.449108482200592, 10.0, 0.0, 10.0, 0.0, -0.3273527568692414, 0.0], [-10.0, 0.0, 0.0, 8.599702228701444, 1.82491491796105, 3.998794836840396, 4.248078719294095, 8.906112630996093, 10.0, -1.310239744692648, -10.0, 1.723019520601463, 0.0]]}}, {"Field0": 0, "Field1": "", "Field2": {"Field0": [], "Field1": [], "Field2": []}}, {"Field0": 0, "Field1": "", "Field2": {"Field0": [], "Field1": [], "Field2": []}}, {"Field0": 917503373, "Field1": "2_26", "Field2": {"Field0": [1.0, 0.0, 0.0, 0.0, 0.07699290230035556, 0.0, 0.06338591492202601], "Field1": [-1.000043364215144, 0.9999392344065593, 1.000032889564727, -1.000114109551366, -0.4397521186153283, 1.000093402766759], "Field2": [[10.0, -2.757027124836183, 0.0, 0.0, 0.0, 0.0, 8.001472400071794, 3.623261748732805, 0.0, 10.0, -10.0, -5.79357250994943, 10.0], [-10.0, 0.2494842600534226, -0.02763632047263354, 0.1445852795774321, 4.452102078291357, 0.0, 3.440247479828672, -0.1145390141453694, -10.0, -2.130023660291191, 7.007276204538901, -10.0, -10.0], [-10.0, 0.0, -7.186046357924697, 0.0, 0.0, -9.713989629217433, -10.0, 0.6093301660765609, -10.0, -5.580884467015679, 7.005373730867447, 0.3759016828445904, -10.0], [-10.0, 7.045510833800457, 1.197141846721835, 1.727852496389594, -8.721473238233326, 0.0, -5.674410122708194, 4.119429814290285, -10.0, 0.21439172869594, 0.0, 5.428532053049961, 0.0], [0.0, 3.064870822139759, 8.389303657792292, -2.918653875752912, -2.715714611166941, -2.635871660730977, -4.261420860773456, 10.0, 0.0, 10.0, 0.0, -0.3273527568692414, 0.0], [-10.0, 0.0, 0.0, 5.941499726239963, 1.037112789731804, -4.428682160123545, -3.026292293968169, 8.906112630996093, -10.0, -1.310239744692648, 7.004373234922596, 1.723019520601463, 0.0]]}}, {"Field0": 0, "Field1": "", "Field2": {"Field0": [], "Field1": [], "Field2": []}}, {"Field0": 0, "Field1": "", "Field2": {"Field0": [], "Field1": [], "Field2": []}}, {"Field0": 0, "Field1": "", "Field2": {"Field0": [], "Field1": [], "Field2": []}}, {"Field0": 0, "Field1": "", "Field2": {"Field0": [], "Field1": [], "Field2": []}}, {"Field0": 0, "Field1": "", "Field2": {"Field0": [], "Field1": [], "Field2": []}}, {"Field0": 0, "Field1": "", "Field2": {"Field0": [], "Field1": [], "Field2": []}}, {"Field0": 357740564, "Field1": "2_9", "Field2": {"Field0": [1.0, 0.0, 0.1055328859048647, 0.0, 0.0, 0.0, 0.0], "Field1": [-0.9999813609542791, 1.000056926197466, 1.000117156566086, -0.9999070790793185, 0.7837433022321983, 1.000013186071746], "Field2": [[-10.0, 0.9587988128446305, 0.0, 0.0, 0.0, 0.0, 9.473643077708051, 3.623261748732805, 0.0, 10.0, 10.0, -5.79357250994943, -10.0], [-10.0, -0.1424274667604508, -0.5353848499217948, 6.064487650143414, -10.0, 0.0, -1.795671950025292, -0.1145390141453694, -10.0, -2.130023660291191, 6.999276039826494, -10.0, -10.0], [10.0, 0.0, 1.012573086988527, 0.0, 0.0, -6.06358549076245, -6.06358549076245, 0.6093301660765609, 10.0, -5.580884467015679, -10.0, 0.3759016828445904, 10.0], [10.0, 5.371929444799148, -7.170388263282769, -0.1716555332021534, -3.373210185028449, 0.0, 0.8682611198076695, 4.119429814290285, 10.0, 0.21439172869594, 0.0, 5.428532053049961, 0.0], [0.0, 4.45155691565202, 8.52049135260118, -1.16830246110749, -3.354587229396605, -1.914891055334103, -2.367852061164237, 10.0, 0.0, 10.0, 0.0, -0.3273527568692414, 0.0], [10.0, 0.0, 0.0, 10.0, 5.741018492234073, 3.999258529072183, 5.736290115674013, 8.906112630996093, 10.0, -1.310239744692648, -10.0, 1.723019520601463, 0.0]]}}, {"Field0": 3483697044, "Field1": "2_12", "Field2": {"Field0": [1.0, 0.0, 0.0, 0.03283831577704505, 0.09455527017863892, 0.03621743054082713, 0.1999822724214972], "Field1": [1.000150679169604, -0.9998325008944958, -1.000148771790129, -0.9999664645998985, -0.7256049496622056, -0.9999271032822321], "Field2": [[-10.0, -0.1067002204275718, 0.0, 0.0, 0.0, 0.0, 1.876693000795065, 3.623261748732805, 0.0, 10.0, 10.0, -5.79357250994943, 9.996918808745313], [-10.0, 5.283348594706865, 7.097168159350661, 10.0, -8.275576538154056, 0.0, -2.48154780776212, -0.1145390141453694, 10.0, -2.130023660291191, 10.0, -10.0, 10.0], [10.0, 0.0, -9.417604299628357, 0.0, 0.0, -8.808357787966898, -3.415275017673132, 0.6093301660765609, -10.0, -5.580884467015679, -10.0, 0.3759016828445904, -10.0], [10.0, -0.557267703827212, -10.0, -5.150173547010031, -7.287140817239719, 0.0, 1.423503228410723, 4.119429814290285, -10.0, 0.21439172869594, 0.0, 5.428532053049961, 0.0], [0.0, 5.084964652590651, 10.0, -0.6978954740786625, -3.576059228589515, -1.005426443394792, -3.420311706088536, 10.0, 0.0, 10.0, 0.0, -0.3273527568692414, 0.0], [10.0, 0.0, 0.0, 5.746087109601985, 1.003268590289994, 1.256433680436201, 6.897510645701755, 8.906112630996093, -10.0, -1.310239744692648, -10.0, 1.723019520601463, 0.0]]}}, {"Field0": 1415344918, "Field1": "2_7", "Field2": {"Field0": [0.846304854970887, 0.0, 0.0, 0.0, 0.1294082621995827, 0.1823020119783647, 0.1761082999814605], "Field1": [0.9997195752936986, 0.9999842522882296, -0.9999246845305031, -1.000084361776317, -0.876874517126946, -1.00011406356861], "Field2": [[10.0, 3.112105235730162, 0.0, 0.0, 0.0, 0.0, 10.0, 3.623261748732805, 0.0, 10.0, -7.007317271885306, -5.79357250994943, -7.00793922629045], [4.399788637752756, 2.794431209009298, 4.678598423413526, 8.731371298060999, -4.679492909056977, 0.0, 4.113384759184279, -0.1145390141453694, 3.567659389603021, -2.130023660291191, 10.0, -10.0, 10.0], [-10.0, 0.0, -6.064172119490217, 0.0, 0.0, -10.0, -10.0, 0.6093301660765609, -10.0, -5.580884467015679, 10.0, 0.3759016828445904, 10.0], [-10.0, 9.999983099133614, -6.064273311840005, 5.585595524659889, -2.170078213992832, 0.0, 3.433247803019434, 4.119429814290285, -10.0, 0.21439172869594, 0.0, 5.428532053049961, 0.0], [0.0, 3.453367714219133, 9.521174373650972, -2.465663145751374, -3.445371847119783, -2.005675673057281, -2.819448785687193, 10.0, 0.0, 10.0, 0.0, -0.3273527568692414, 0.0], [-10.0, 0.0, 0.0, 8.957435237150069, 5.739756416459612, 3.997996453297723, 3.773572402037413, 8.906112630996093, -10.0, -1.310239744692648, 10.0, 1.723019520601463, 0.0]]}}, {"Field0": 1033728277, "Field1": "2_17", "Field2": {"Field0": [0.8540556303845669, 0.06480346822599126, 0.0, 0.05601924136274677, 0.03069876860774211, 0.0, 0.0], "Field1": [-1.000058157107895, -1.000083242413147, 1.000057456026052, 0.999899605482319, 0.05219226248480831, 1.000177495682579], "Field2": [[-10.0, 7.854729050116344, 0.0, 0.0, 0.0, 0.0, 7.219174331163805, 3.623261748732805, 0.0, 10.0, -10.0, -5.79357250994943, -10.0], [10.0, -4.304712602857734, -3.803960374546888, -0.005223366375137761, -5.052518020027169, 0.0, -10.0, -0.1145390141453694, -10.0, -2.130023660291191, 10.0, -10.0, 10.0], [10.0, 0.0, -6.063978385797592, 0.0, 0.0, -4.667975340924244, -1.92677385227399, 0.6093301660765609, -10.0, -5.580884467015679, 10.0, 0.3759016828445904, 10.0], [10.0, -7.049853620387606, -7.806290772916557, -1.662906993387119, -7.447950552130782, 0.0, -2.688843395792953, 4.119429814290285, -10.0, 0.21439172869594, 0.0, 5.428532053049961, 0.0], [0.0, 5.005891088369619, 9.269723380100659, -2.207822180432866, -3.256414972922112, -1.581234565101252, -4.508816443045115, 10.0, 0.0, 10.0, 0.0, -0.3273527568692414, 0.0], [10.0, 0.0, 0.0, 10.0, 5.25481758908129, 5.397977190150928, 7.554335160320313, 8.906112630996093, -10.0, -1.310239744692648, 10.0, 1.723019520601463, 0.0]]}}, {"Field0": 1304899093, "Field1": "4_42", "Field2": {"Field0": [0.9236739666318087, 0.0, 0.02837312372795962, 0.0, 0.07989891659050856, 0.009710001569130751, 0.8991476095901511], "Field1": [-1.000004060506392, 1.000186360893588, 0.999960249874367, -0.9999379935724769, -0.3822963463469815, 1.000001953814593], "Field2": [[10.0, -5.337446106376331, 0.0, 0.0, 0.0, 0.0, 10.0, 3.623261748732805, 0.0, 10.0, -10.0, -5.79357250994943, 10.0], [10.0, 6.686641055085287, 10.0, 6.307598344370883, -4.391650546344855, 0.0, 10.0, -0.1145390141453694, 10.0, -2.130023660291191, -6.997326927158156, -10.0, 10.0], [-10.0, 0.0, 5.469327286251603, 0.0, 0.0, 5.857365946007411, -10.0, 0.6093301660765609, -10.0, -5.580884467015679, 10.0, 0.3759016828445904, -10.0], [-10.0, -1.407618388046452, 6.337977347377652, 6.826108338659335, 7.726455512435033, 0.0, -10.0, 4.119429814290285, -10.0, 0.21439172869594, 0.0, 5.428532053049961, 0.0], [0.0, -2.944936613033797, 8.73845883751777, -4.206720950732244, 1.736058545507017, 0.7301073633255921, 6.957293648440824, 10.0, 0.0, 10.0, 0.0, -0.3273527568692414, 0.0], [-10.0, 0.0, 0.0, 4.93241480395329, -10.0, 5.858672572539509, -10.0, 8.906112630996093, -10.0, -1.310239744692648, 10.0, 1.723019520601463, 0.0]]}}, {"Field0": 2197416729, "Field1": "4_38", "Field2": {"Field0": [1.0, 0.09846905681902644, 0.0, 0.0507079550154982, 0.8322119502129144, 0.0, 0.0], "Field1": [-1.000003888793405, 0.9999635689592342, 1.000144091407109, -0.9998936331238703, 1.000024273866236, 1.000056434375505], "Field2": [[10.0, -1.697363021865389, 0.0, 0.0, 0.0, 0.0, 1.780300809930972, 3.623261748732805, 0.0, 10.0, -10.0, -5.79357250994943, 10.0], [10.0, 10.0, 10.0, 6.228301416578237, 10.0, 0.0, 9.509993487239983, -0.1145390141453694, 10.0, -2.130023660291191, -10.0, -10.0, 10.0], [-10.0, 0.0, 6.063456925366618, 0.0, 0.0, 6.063456925366618, -3.967399493854134, 0.6093301660765609, -10.0, -5.580884467015679, 9.999648857936464, 0.3759016828445904, -10.0], [-10.0, -5.7291049327076, 7.849241397275376, 6.049270912814844, -10.0, 0.0, 8.174087830004432, 4.119429814290285, -10.0, 0.21439172869594, 0.0, 5.428532053049961, 0.0], [0.0, -0.1857983575263691, 9.998400675275263, -2.515080763278117, 10.0, 2.357077657125048, -4.569257607848208, 10.0, 0.0, 10.0, 0.0, -0.3273527568692414, 0.0], [-10.0, 0.0, 0.0, 5.001875592534276, -10.0, 6.063737567667362, 2.025103595933127, 8.906112630996093, -10.0, -1.310239744692648, 10.0, 1.723019520601463, 0.0]]}}, {"Field0": 1870832410, "Field1": "4_37", "Field2": {"Field0": [0.7402996025760384, 0.0, 0.0, 0.0, 1.0, 0.1725921527224309, 0.0], "Field1": [-1.000177859286223, 0.9999993119084092, 1.000083400264395, -0.9999377338948093, -0.9947709823284882, 1.000126651604444], "Field2": [[-10.0, -1.004277626029265, 0.0, 0.0, 0.0, 0.0, 5.715612276394683, 3.623261748732805, 0.0, 10.0, 10.0, -5.79357250994943, -9.415871208154549], [10.0, 10.0, 10.0, 1.231853287862116, 10.0, 0.0, 5.575151069524851, -0.1145390141453694, 10.0, -2.130023660291191, -7.003545503923014, -10.0, 10.0], [10.0, 0.0, 10.0, 0.0, 0.0, 10.0, -0.03085641922075144, 0.6093301660765609, 10.0, -5.580884467015679, -7.001450233986777, 0.3759016828445904, 10.0], [-10.0, -6.421930351292954, 3.913745629472098, 3.783631519287926, -10.0, 0.0, 4.238592062201153, 4.119429814290285, -10.0, 0.21439172869594, 0.0, 5.428532053049961, 0.0], [0.0, -2.068231837561389, 8.763104824724897, -4.083628773083485, 6.075061450661769, 1.121781806574681, -5.804553458398575, 10.0, 0.0, 10.0, 0.0, -0.3273527568692414, 0.0], [10.0, 0.0, 0.0, 10.0, 10.0, 10.0, 5.961366028265765, 8.906112630996093, 10.0, -1.310239744692648, -6.999196086018102, 1.723019520601463, 0.0]]}}, {"Field0": 0, "Field1": "", "Field2": {"Field0": [], "Field1": [], "Field2": []}}, {"Field0": 2242207644, "Field1": "2_22", "Field2": {"Field0": [1.0, 0.0, 0.0, 0.05118635390115495, 0.0609544550908955, 0.0, 0.09817796923460979], "Field1": [-1.000082516430706, -0.9997204477829266, 0.9999030262302158, 1.000125801486652, -0.6785952931655075, 0.9999541270057973], "Field2": [[10.0, -1.685198244908472, 0.0, 0.0, 0.0, 0.0, 6.515067186377761, 3.623261748732805, 0.0, 10.0, 10.0, -5.79357250994943, 10.0], [10.0, -10.0, -9.96384770723653, -9.551936152549874, -10.0, 0.0, -6.759645810950107, -0.1145390141453694, -10.0, -2.130023660291191, 10.0, -10.0, 10.0], [-10.0, 0.0, -9.248851759924557, 0.0, 0.0, -8.511629324852169, -7.917977620297274, 0.6093301660765609, 9.992372090753467, -5.580884467015679, -10.0, 0.3759016828445904, -10.0], [-10.0, -2.126932461686554, -9.250069029441274, -7.875322802504203, -6.141351770640085, 0.0, -8.676230152847577, 4.119429814290285, 9.992825088568129, 0.21439172869594, 0.0, 5.428532053049961, 0.0], [0.0, 3.323923845159432, 8.78676598822752, -2.557481035371158, -4.6062408645514, -1.957909025337296, -4.329657134696109, 10.0, 0.0, 10.0, 0.0, -0.3273527568692414, 0.0], [-10.0, 0.0, 0.0, 3.783370054553941, 3.208635363329379, -3.226452043028187, 1.564403823545876, 8.906112630996093, 9.992107443744523, -1.310239744692648, -10.0, 1.723019520601463, 0.0]]}}, {"Field0": 3433971868, "Field1": "4_40", "Field2": {"Field0": [0.9583450783848767, 0.04326471625448498, 0.1435262555364947, 0.0, 0.1120003967181015, 0.0, 1.0], "Field1": [0.9999421759332643, -0.9999610109898553, -1.0000790167559, 1.000122032269197, -0.9996923983326709, -1.00010592778748], "Field2": [[-10.0, -3.476150176396733, 0.0, 0.0, 0.0, 0.0, -10.0, 3.623261748732805, 0.0, 10.0, -10.0, -5.79357250994943, 10.0], [-10.0, 6.687059267086786, 5.272922914203046, 6.10216595626577, -9.752516551501165, 0.0, -10.0, -0.1145390141453694, 10.0, -2.130023660291191, -10.0, -10.0, 10.0], [10.0, 0.0, 10.0, 0.0, 0.0, 6.06231551848864, 10.0, 0.6093301660765609, -10.0, -5.580884467015679, 10.0, 0.3759016828445904, -10.0], [10.0, -1.765503974869358, 10.0, 6.587215192276084, 10.0, 0.0, 10.0, 4.119429814290285, -7.001111012417393, 0.21439172869594, 0.0, 5.428532053049961, 0.0], [0.0, -1.230471243128616, 8.51068923145286, -2.55705091060429, 2.712439958083212, 2.354874440817806, -10.0, 10.0, 0.0, 10.0, 0.0, -0.3273527568692414, 0.0], [10.0, 0.0, 0.0, 4.802699901014424, -10.0, 6.06314486587631, 10.0, 8.906112630996093, -10.0, -1.310239744692648, 10.0, 1.723019520601463, 0.0]]}}, {"Field0": 535959966, "Field1": "2_30", "Field2": {"Field0": [0.985541779193956, 0.009697305106643414, 0.0, 0.0, 0.1096825891853965, 0.01708280261966169, 0.0], "Field1": [-1.000181335507998, -1.000029687994895, 0.999931865955435, 0.9999744477767958, -0.3995118987612335, 1.000089926350283], "Field2": [[10.0, 0.2306146882168671, 0.0, 0.0, 0.0, 0.0, 4.894130172317046, 3.623261748732805, 0.0, 10.0, 10.0, -5.79357250994943, 10.0], [-10.0, -0.3335830784183427, -4.1432309803374, -5.613696115030827, -6.167604075699151, 0.0, -1.673346767298102, -0.1145390141453694, 10.0, -2.130023660291191, -10.0, -10.0, -10.0], [-10.0, 0.0, -6.202009706546697, 0.0, 0.0, -5.818411464561692, -9.257241345107484, 0.6093301660765609, 10.0, -5.580884467015679, -10.0, 0.3759016828445904, -10.0], [-10.0, 2.645382104932506, 2.183565633278414, 3.414978589955318, -3.904068628503957, 0.0, -4.969191441939891, 4.119429814290285, 10.0, 0.21439172869594, 0.0, 5.428532053049961, 0.0], [0.0, 3.628609948289227, 8.170232055194525, -3.078995379136813, -3.681822709242101, -2.737680970599483, -4.162353638371877, 10.0, 0.0, 10.0, 0.0, -0.3273527568692414, 0.0], [-10.0, 0.0, 0.0, 6.063179065056596, 3.76611782393168, -2.297001229352198, -2.321944241463156, 8.906112630996093, 10.0, -1.310239744692648, -10.0, 1.723019520601463, 0.0]]}}, {"Field0": 0, "Field1": "", "Field2": {"Field0": [], "Field1": [], "Field2": []}}, {"Field0": 3089126176, "Field1": "3_35", "Field2": {"Field0": [1.0, 1.0, 0.1247932014819792, 0.2727240911988233, 0.1432210152659402, 0.0, 0.3071589753104323], "Field1": [0.9999256535850553, -1.000005510565411, -0.9999058355277499, 0.9999758470339061, -0.9997470075581658, -1.000209746967701], "Field2": [[10.0, 10.0, 0.0, 0.0, 0.0, 0.0, 9.048154366849637, 3.623261748732805, 0.0, 10.0, 10.0, -5.79357250994943, -3.126997113339019], [-10.0, -10.0, 1.706753579933777, -9.524950813541359, -9.007658273212677, 0.0, -4.394544650960986, -0.1145390141453694, 10.0, -2.130023660291191, -10.0, -10.0, 10.0], [-10.0, 0.0, 0.2807549305175924, 0.0, 0.0, -3.823275923192698, -10.0, 0.6093301660765609, 10.0, -5.580884467015679, -10.0, 0.3759016828445904, 10.0], [10.0, 10.0, 10.0, 10.0, 10.0, 0.0, 10.0, 4.119429814290285, -5.461686662646015, 0.21439172869594, 0.0, 5.428532053049961, 0.0], [0.0, -10.0, 8.70461457420391, -5.003596379603224, -5.125905140892408, -2.390359564927043, -6.475602137035999, 10.0, 0.0, 10.0, 0.0, -0.3273527568692414, 0.0], [-10.0, 0.0, 0.0, 1.020361668124182, -0.4406805570092392, -0.2992318800432603, -4.00838825764548, 8.906112630996093, 10.0, -1.310239744692648, -10.0, 1.723019520601463, 0.0]]}}, {"Field0": 0, "Field1": "", "Field2": {"Field0": [], "Field1": [], "Field2": []}}, {"Field0": 0, "Field1": "", "Field2": {"Field0": [], "Field1": [], "Field2": []}}, {"Field0": 3237294499, "Field1": "0_0", "Field2": {"Field0": [0.0, 0.0, 0.0, 0.0, 0.0, 0.0, 0.0], "Field1": [0.0, 0.0, 0.0, 0.0, 0.0, 0.0], "Field2": [[2.957336029159521, -3.886862338074819, 0.0, 0.0, 0.0, 0.0, 4.550551130489825, 3.623261748732805, 0.0, 10.0, 1.698703430157675, -5.79357250994943, 1.548565526287658], [0.1422878038406239, -0.1568261489057506, 1.403449959455752, 8.037254031781403, -10.0, 0.0, 0.1183099450452851, -0.1145390141453694, 0.4071376046507852, -2.130023660291191, 0.1770573538250309, -10.0, -0.6490444069698709], [3.016239599220664, 0.0, 2.163780843094463, 0.0, 0.0, 1.312573305963021, 1.228364985762916, 0.6093301660765609, 0.1538073746657948, -5.580884467015679, -4.475265603486724, 0.3759016828445904, -9.87422903133049], [-10.0, 3.792407602406265, 7.504839076380065, 0.4509568298802377, 0.1385229120198767, 0.0, 10.0, 4.119429814290285, -10.0, 0.21439172869594, 0.0, 5.428532053049961, 0.0], [0.0, 3.37265282792777, -10.0, -10.0, -10.0, -6.673302651153103, -10.0, 10.0, 0.0, 10.0, 0.0, -0.3273527568692414, 0.0], [0.2407303648509168, 0.0, 0.0, -3.239024119071809, 0.4158679181798938, 0.7957645717095276, -1.108005511124262, 8.906112630996093, -0.5919560109443719, -1.310239744692648, -3.521003403835739, 1.723019520601463, 0.0]]}}, {"Field0": 609824420, "Field1": "2_4", "Field2": {"Field0": [1.0, 0.007202009203035905, 0.0, 0.1030715816913377, 0.08116540819811609, 0.0, 0.0], "Field1": [1.000055861281481, 1.000030958564359, -0.9998546268050504, -1.000041195852534, -0.4336993284588814, 1.000177283706023], "Field2": [[-10.0, -0.1253471306266416, 0.0, 0.0, 0.0, 0.0, 6.06374292752556, 3.623261748732805, 0.0, 10.0, 7.005330020597771, -5.79357250994943, -10.0], [-10.0, 3.486285791259884, 6.064525235668981, 3.906491491404126, -2.592857987528176, 0.0, 6.064525235668981, -0.1145390141453694, -10.0, -2.130023660291191, 7.002620983219938, -10.0, -10.0], [10.0, 0.0, -10.0, 0.0, 0.0, -8.368956216288467, -8.468212939970188, 0.6093301660765609, 10.0, -5.580884467015679, -10.0, 0.3759016828445904, 10.0], [10.0, 6.301082763888756, -10.0, -0.02693783646832326, -1.50551500137121, 0.0, 6.063907076937474, 4.119429814290285, 10.0, 0.21439172869594, 0.0, 5.428532053049961, 0.0], [0.0, 3.844767563647614, 10.0, -2.808771443134118, -3.210826276656095, -1.870976031534502, -2.738236806469716, 10.0, 0.0, 10.0, 0.0, -0.3273527568692414, 0.0], [10.0, 0.0, 0.0, 10.0, 10.0, 10.0, 10.0, 8.906112630996093, 10.0, -1.310239744692648, -10.0, 1.723019520601463, 0.0]]}}, {"Field0": 2898646692, "Field1": "3_36", "Field2": {"Field0": [0.7468539818467093, 1.0, 0.3198139819040813, 0.3266502600829127, 0.3158464365460283, 0.4033152851304503, 0.3027463435334734], "Field1": [1.00004476804319, -0.9998861892273291, -1.000060084208077, 0.999991192128078, -1.000066193119745, -1.000123256902763], "Field2": [[-0.2856577085915362, -3.070970177223925, 0.0, 0.0, 0.0, 0.0, 3.648919725200023, 3.623261748732805, 0.0, 10.0, -3.070873266059113, -5.79357250994943, 5.80896881253399], [10.0, 10.0, 8.302459724681894, -2.704139638924451, -2.542595497995047, 0.0, 1.639158142738284, -0.1145390141453694, -10.0, -2.130023660291191, 10.0, -10.0, -10.0], [10.0, 0.0, 6.875866763481111, 0.0, 0.0, 5.52135318030526, -3.966888574862491, 0.6093301660765609, -10.0, -5.580884467015679, 10.0, 0.3759016828445904, -10.0], [-7.792128089238687, -10.0, 0.3356759807650516, 0.2055618705808797, 0.4111898232937143, 0.0, 0.6605224134941068, 4.119429814290285, 9.991693569588595, 0.21439172869594, 0.0, 5.428532053049961, 0.0], [0.0, -0.8313366622862848, 10.0, -2.846733597808381, -3.081545938428128, 0.5648399999399234, -4.567658283123471, 10.0, 0.0, 10.0, 0.0, -0.3273527568692414, 0.0], [10.0, 0.0, 0.0, 7.84157940232944, 6.024727764852721, 9.046845448204838, 2.025586101922808, 8.906112630996093, -10.0, -1.310239744692648, 10.0, 1.723019520601463, 0.0]]}}, {"Field0": 909288230, "Field1": "2_27", "Field2": {"Field0": [0.8375498449425255, 0.1364399397743687, 0.1033893911509213, 0.0, 0.0, 0.06226162504631328, 0.001185915627864619], "Field1": [0.999880311333285, -0.9999605258155663, -1.000001251837528, -0.9998436304103914, 0.8062411796221473, -1.000130380475767], "Field2": [[10.0, 4.035438112268388, 0.0, 0.0, 0.0, 0.0, 10.0, 3.623261748732805, 0.0, 10.0, -10.0, -5.79357250994943, -7.007950576698587], [10.0, 0.7973406936386666, -0.5495799027890292, -3.723928235888209, 0.5835885628257165, 0.0, -0.3898796060499121, -0.1145390141453694, -10.0, -2.130023660291191, -10.0, -10.0, -10.0], [-10.0, 0.0, -6.655025121659258, 0.0, 0.0, -7.828901376924994, -6.104090070847629, 0.6093301660765609, 10.0, -5.580884467015679, 10.0, 0.3759016828445904, 10.0], [-10.0, 6.487748545629595, 1.727787869415051, 5.663279294915572, -4.786046439707347, 0.0, -1.778037454268144, 4.119429814290285, 10.0, 0.21439172869594, 0.0, 5.428532053049961, 0.0], [0.0, 3.949468576586048, 9.16949091807539, -2.465085623955525, -2.262146359369554, -1.985611756018728, -3.804106164759608, 10.0, 0.0, 10.0, 0.0, -0.3273527568692414, 0.0], [-10.0, 0.0, 0.0, 9.878296738151462, 4.973909801643303, -2.542494572720523, 0.871446152392525, 8.906112630996093, 10.0, -1.310239744692648, 10.0, 1.723019520601463, 0.0]]}}, {"Field0": 0, "Field1": "", "Field2": {"Field0": [], "Field1": [], "Field2": []}}, {"Field0": 0, "Field1": "", "Field2": {"Field0": [], "Field1": [], "Field2": []}}, {"Field0": 0, "Field1": "", "Field2": {"Field0": [], "Field1": [], "Field2": []}}, {"Field0": 0, "Field1": "", "Field2": {"Field0": [], "Field1": [], "Field2": []}}, {"Field0": 0, "Field1": "", "Field2": {"Field0": [], "Field1": [], "Field2": []}}, {"Field0": 0, "Field1": "", "Field2": {"Field0": [], "Field1": [], "Field2": []}}, {"Field0": 0, "Field1": "", "Field2": {"Field0": [], "Field1": [], "Field2": []}}, {"Field0": 0, "Field1": "", "Field2": {"Field0": [], "Field1": [], "Field2": []}}, {"Field0": 0, "Field1": "", "Field2": {"Field0": [], "Field1": [], "Field2": []}}, {"Field0": 0, "Field1": "", "Field2": {"Field0": [], "Field1": [], "Field2": []}}, {"Field0": 204754481, "Field1": "4_39", "Field2": {"Field0": [0.9729623288952879, 0.0901790741621821, 0.0, 0.006030414278293219, 0.9289926038791512, 0.0, 0.0], "Field1": [1.000074082740063, 1.000181645110548, -0.9998799501084508, -0.999936562037549, 0.9996530758594036, -0.9999302824280654], "Field2": [[10.0, 1.364955819414855, 0.0, 0.0, 0.0, 0.0, 3.84980195099452, 3.623261748732805, 0.0, 10.0, -10.0, -5.79357250994943, 1.060866459453711], [-10.0, 4.175687624495785, 6.063779656798342, 2.165821436580441, -10.0, 0.0, 5.573773144038325, -0.1145390141453694, -10.0, -2.130023660291191, 6.999592905398497, -10.0, 10.0], [-10.0, 0.0, 9.99871852522741, 0.0, 0.0, 9.99871852522741, -0.03213789399334033, 0.6093301660765609, -10.0, -5.580884467015679, 10.0, 0.3759016828445904, 10.0], [10.0, -6.607462636572548, 4.270527001810251, 2.651133549225472, 10.0, 0.0, 4.595373434539306, 4.119429814290285, 10.0, 0.21439172869594, 0.0, 5.428532053049961, 0.0], [0.0, -2.019390133545062, 8.759485293955874, -3.793763075616438, 2.634940859612724, 1.118162275805659, -5.808172989167597, 10.0, 0.0, 10.0, 0.0, -0.3273527568692414, 0.0], [-10.0, 0.0, 0.0, 8.738832721762657, -10.0, 9.999277686624543, 5.960643714890308, 8.906112630996093, -10.0, -1.310239744692648, 10.0, 1.723019520601463, 0.0]]}}, {"Field0": 1263906482, "Field1": "4_41", "Field2": {"Field0": [1.0, 0.0, 0.1620859768758242, 0.006250946120753227, 0.0, 0.0, 1.0], "Field1": [-0.9999756335568354, -1.000083151947958, 0.9999672568698942, 1.000051743523286, -1.000010450448339, 1.000084995944633], "Field2": [[-10.0, -1.401763076191795, 0.0, 0.0, 0.0, 0.0, -10.0, 3.623261748732805, 0.0, 10.0, -10.0, -5.79357250994943, -5.28367174988481], [10.0, 2.75092293549893, 6.674457866963801, 2.371880224784525, -10.0, 0.0, 10.0, -0.1145390141453694, -10.0, -2.130023660291191, 10.0, -10.0, 10.0], [10.0, 0.0, 10.0, 0.0, 0.0, 9.997155004990173, 10.0, 0.6093301660765609, -10.0, -5.580884467015679, 10.0, 0.3759016828445904, 10.0], [-10.0, -5.34369126072769, 3.336358836133281, 2.890035465978097, 6.421812714141668, 0.0, -10.0, 4.119429814290285, 8.458193402025227, 0.21439172869594, 0.0, 5.428532053049961, 0.0], [0.0, -2.469370165774546, 8.951922263402572, -3.731154503472992, 1.473541035437282, 1.115975518171877, -0.8732153084316767, 10.0, 0.0, 10.0, 0.0, -0.3273527568692414, 0.0], [10.0, 0.0, 0.0, 8.868459050893069, -6.065090474240836, 9.998054391635474, 10.0, 8.906112630996093, -10.0, -1.310239744692648, 10.0, 1.723019520601463, 0.0]]}}, {"Field0": 1096449587, "Field1": "4_45", "Field2": {"Field0": [1.0, 0.05347180860984183, 1.0, 0.1133507988918319, 0.06529442728375778, 0.08486893196964268, 0.0], "Field1": [-1.0000252436708, -1.000152843292123, 1.000042135929847, 1.000174068058655, 0.8999174870189536, 1.000038625411722], "Field2": [[-10.0, -3.162320242997075, 0.0, 0.0, 0.0, 0.0, 5.218610252770903, 3.623261748732805, 0.0, 10.0, -10.0, -5.79357250994943, -10.0], [-10.0, 8.23958712343885, -10.0, 6.267719795643688, -3.367527226921593, 0.0, 5.217471495076571, -0.1145390141453694, 10.0, -2.130023660291191, -10.0, -10.0, -10.0], [10.0, 0.0, 10.0, 0.0, 0.0, 10.0, 1.454607790301791, 0.6093301660765609, -7.005492297793175, -5.580884467015679, 10.0, 0.3759016828445904, 10.0], [10.0, 3.648047891753133, 10.0, 10.0, 10.0, 0.0, 1.456732534732271, 4.119429814290285, -7.006192879899626, 0.21439172869594, 0.0, 5.428532053049961, 0.0], [0.0, -5.180540690661827, -5.76601926243728, -6.851281327590297, -0.7549154994716316, -1.813014178433588, 3.584894519549112, 10.0, 0.0, 10.0, 0.0, -0.3273527568692414, 0.0], [10.0, 0.0, 0.0, 10.0, -3.823568728992827, 10.0, 1.455403870991866, 8.906112630996093, -7.005082227394439, -1.310239744692648, 10.0, 1.723019520601463, 0.0]]}}, {"Field0": 2236125108, "Field1": "2_5", "Field2": {"Field0": [0.9185431487269378, 0.02107806144847422, 0.0, 0.1598802845472939, 0.0, 0.0, 0.0], "Field1": [-0.9999675060785156, -1.000056878584669, 0.9998585863109927, 0.9999159759891598, -0.352339498297212, 1.000085842224047], "Field2": [[-10.0, 3.112724597717063, 0.0, 0.0, 0.0, 0.0, 9.995174558704916, 3.623261748732805, 0.0, 10.0, -10.0, -5.79357250994943, -10.0], [10.0, 0.2445997176497587, 2.128766932053987, 5.23537604409819, -6.52861629114317, 0.0, 2.128766932053987, -0.1145390141453694, -10.0, -2.130023660291191, 10.0, -10.0, 10.0], [10.0, 0.0, -6.064973703003416, 0.0, 0.0, -4.433929919291883, -4.533186642973604, 0.6093301660765609, -7.005654503407907, -5.580884467015679, 10.0, 0.3759016828445904, 10.0], [10.0, 10.0, -6.403436201359501, 6.629257119769225, 2.091048797269289, 0.0, 9.660470875577973, 4.119429814290285, -5.541538149018875, 0.21439172869594, 0.0, 5.428532053049961, 0.0], [0.0, 3.73418050503959, 9.801987164471429, -2.343646535896638, -3.408839112184667, -2.068988867063073, -2.936249641998288, 10.0, 0.0, 10.0, 0.0, -0.3273527568692414, 0.0], [10.0, 0.0, 0.0, 10.0, 10.0, 10.0, 10.0, 8.906112630996093, -7.007893396806335, -1.310239744692648, 10.0, 1.723019520601463, 0.0]]}}, {"Field0": 0, "Field1": "", "Field2": {"Field0": [], "Field1": [], "Field2": []}}, {"Field0": 0, "Field1": "", "Field2": {"Field0": [], "Field1": [], "Field2": []}}, {"Field0": 0, "Field1": "", "Field2": {"Field0": [], "Field1": [], "Field2": []}}, {"Field0": 3856667832, "Field1": "2_33", "Field2": {"Field0": [0.8362112820523042, 0.1660703448438526, 0.2916350038302664, 0.01791564710559156, 0.0, 0.0, 0.01048500503718302], "Field1": [-1.00003346911859, 1.000072249335854, 0.9999628543414383, 0.9999941015641584, 0.9949308793066319, 0.9999944022425016], "Field2": [[-10.0, 0.5825887589647265, 0.0, 0.0, 0.0, 0.0, 5.745130603864984, 3.623261748732805, 0.0, 10.0, -10.0, -5.79357250994943, -10.0], [10.0, 9.533857812909933, 5.816721832720567, -0.5432617218330336, -1.421965551334186, 0.0, 5.721168192199653, -0.1145390141453694, 10.0, -2.130023660291191, 10.0, -10.0, 10.0], [10.0, 0.0, 4.391293142733334, 0.0, 0.0, -2.129524238290307, -0.8301409340640173, 0.6093301660765609, 10.0, -5.580884467015679, 10.0, 0.3759016828445904, 10.0], [10.0, 3.789178119754641, 8.279619327370678, 7.405056550759342, -2.2883282482279, 0.0, 1.596179154622734, 4.119429814290285, 10.0, 0.21439172869594, 0.0, 5.428532053049961, 0.0], [0.0, 5.465903000893555, 10.0, -2.171018435220486, -2.734934511083167, -1.858457091624418, -3.285201385421564, 10.0, 0.0, 10.0, 0.0, -0.3273527568692414, 0.0], [10.0, 0.0, 0.0, 10.0, 7.143663900105912, 1.392358813446881, 6.105131035142619, 8.906112630996093, 10.0, -1.310239744692648, 10.0, 1.723019520601463, 0.0]]}}, {"Field0": 2419379001, "Field1": "1_2", "Field2": {"Field0": [1.0, 0.0, 1.0, 0.2312247332190815, 0.1440639139315008, 0.0, 0.155889528493673], "Field1": [0.9938591912705357, 0.9634326868869509, 0.9999926404250035, -1.000171909796517, -0.9998046418959163, 0.8711476112560437], "Field2": [[10.0, 0.02662587947022477, 0.0, 0.0, 0.0, 0.0, 10.0, 3.623261748732805, 0.0, 10.0, -10.0, -5.79357250994943, 10.0], [10.0, 3.635525931145176, 10.0, 10.0, -3.159252902493144, 0.0, 7.209246813384347, -0.1145390141453694, 10.0, -2.130023660291191, -10.0, -10.0, 10.0], [-10.0, 0.0, -10.0, 0.0, 0.0, -2.622520439936586, -5.970391159758929, 0.6093301660765609, -10.0, -5.580884467015679, 10.0, 0.3759016828445904, -10.0], [-10.0, 7.123562007415741, -10.0, -2.661534371136726, -0.5450242786612438, 0.0, 8.986797847578716, 4.119429814290285, -10.0, 0.21439172869594, 0.0, 5.428532053049961, 0.0], [0.0, -0.5628976483364858, 10.0, -6.320419993973134, -9.190981897621633, -10.0, -8.801516092608951, 10.0, 0.0, 10.0, 0.0, -0.3273527568692414, 0.0], [10.0, 0.0, 0.0, 5.208436786717292, 6.971333442302687, 4.223798340928039, 5.704078565925954, 8.906112630996093, 10.0, -1.310239744692648, -10.0, 1.723019520601463, 0.0]]}}, {"Field0": 3186508089, "Field1": "2_23", "Field2": {"Field0": [1.0, 0.0363501688871081, 0.0, 0.0, 0.207143689605163, 0.03651000768532904, 0.1351797085132614], "Field1": [1.000094288111888, 1.000065820599099, -0.9999875360602261, -0.9999017861195248, -0.9034808233996391, -1.000025880549251], "Field2": [[10.0, 3.012562384047112, 0.0, 0.0, 0.0, 0.0, 10.0, 3.623261748732805, 0.0, 10.0, -7.002614704926145, -5.79357250994943, -7.005213393101251], [10.0, -5.302547656030957, -6.027585478624212, -5.615673923937557, -1.726048736828817, 0.0, 0.007344886535745943, -0.1145390141453694, 10.0, -2.130023660291191, -7.002164723006405, -10.0, -7.004763320376661], [-10.0, 0.0, -5.313344657760468, 0.0, 0.0, -5.778339149385387, -8.433724955583084, 0.6093301660765609, -10.0, -5.580884467015679, 10.0, 0.3759016828445904, 10.0], [-10.0, 0.6109212653281877, -5.315446800622097, -3.940700573685026, -9.026588999335969, 0.0, -9.192173689876942, 4.119429814290285, -10.0, 0.21439172869594, 0.0, 5.428532053049961, 0.0], [0.0, 2.808035320905035, 8.015960586562812, -3.328286437035865, -3.924386646025834, -2.472676630251317, -4.152472740482373, 10.0, 0.0, 10.0, 0.0, -0.3273527568692414, 0.0], [-10.0, 0.0, 0.0, 7.719117737296484, 0.3232652648829641, -0.4929570723447814, 1.048764572159169, 8.906112630996093, -10.0, -1.310239744692648, 10.0, 1.723019520601463, 0.0]]}}, {"Field0": 2328589626, "Field1": "3_34", "Field2": {"Field0": [1.0, 1.0, 0.0, 0.0, 0.1369992096864836, 0.08080866103568807, 0.0], "Field1": [-0.9999677883981829, 1.000061083229919, 1.000042764043138, 1.00006799148553, 0.9999546715554886, 0.999866515460485], "Field2": [[5.816703014558231, 10.0, 0.0, 0.0, 0.0, 0.0, 3.598205876372262, 3.623261748732805, 0.0, 10.0, 5.817924388293918, -5.79357250994943, 5.814305147981065], [-10.0, -10.0, 1.8804528126451, -4.4795307419085, -8.227086705731194, 0.0, 1.784899172124186, -0.1145390141453694, -10.0, -2.130023660291191, -10.0, -10.0, -10.0], [-10.0, 0.0, 0.4547492049405237, 0.0, 0.0, -7.758411910740588, -4.766684871856827, 0.6093301660765609, -10.0, -5.580884467015679, -10.0, 0.3759016828445904, -10.0], [10.0, 10.0, 10.0, 10.0, 3.865424877084993, 0.0, 5.155692346740697, 4.119429814290285, 10.0, 0.21439172869594, 0.0, 5.428532053049961, 0.0], [0.0, -2.373694280033758, 8.759685159673875, -3.411333275546611, -4.879345830269544, -3.632051109771852, -4.525516225747689, 10.0, 0.0, 10.0, 0.0, -0.3273527568692414, 0.0], [-10.0, 0.0, 0.0, 6.064489030293836, 0.3391353091804161, -4.235435440148931, 2.169620065436455, 8.906112630996093, -10.0, -1.310239744692648, -10.0, 1.723019520601463, 0.0]]}}, {"Field0": 3041024315, "Field1": "4_43", "Field2": {"Field0": [1.0, 0.0, 1.0, 0.0, 0.0, 0.0, 0.0], "Field1": [1.000131828549518, 1.000095554293273, -0.9999229507172336, -1.000031062733126, 0.9997381400444584, -0.9999221214174239], "Field2": [[10.0, -1.401652207281421, 0.0, 0.0, 0.0, 0.0, 10.0, 3.623261748732805, 0.0, 10.0, -10.0, -5.79357250994943, -6.998790173207095], [10.0, 10.0, 10.0, 10.0, -0.6617045073258647, 0.0, 10.0, -0.1145390141453694, 10.0, -2.130023660291191, -10.0, -10.0, -6.1106538954825], [-10.0, 0.0, -10.0, 0.0, 0.0, 9.792663422242963, -6.064702523764447, 0.6093301660765609, -10.0, -5.580884467015679, 10.0, 0.3759016828445904, 10.0], [-10.0, 2.528007562135796, -10.0, 10.0, 10.0, 0.0, -6.064374049817752, 4.119429814290285, -10.0, 0.21439172869594, 0.0, 5.428532053049961, 0.0], [0.0, -2.456186887927483, 10.0, -3.71797122562593, 2.224808270613331, 1.218857088431906, 7.446043373547138, 10.0, 0.0, 10.0, 0.0, -0.3273527568692414, 0.0], [-10.0, 0.0, 0.0, 8.867780686580513, -6.064634117372778, 9.794038455166731, -6.064634117372778, 8.906112630996093, -10.0, -1.310239744692648, 10.0, 1.723019520601463, 0.0]]}}, {"Field0": 0, "Field1": "", "Field2": {"Field0": [], "Field1": [], "Field2": []}}, {"Field0": 0, "Field1": "", "Field2": {"Field0": [], "Field1": [], "Field2": []}}, {"Field0": 429642047, "Field1": "2_13", "Field2": {"Field0": [0.9681522687015605, 0.0, 0.0, 0.0, 0.01006780311462675, 0.0, 0.0], "Field1": [-0.9999616085632146, -1.000085405466073, 1.000050160468877, 1.000155935516557, -0.03587384092848796, 1.000042042002991], "Field2": [[-10.0, 3.728111500405174, 0.0, 0.0, 0.0, 0.0, 5.711504721627811, 3.623261748732805, 0.0, 10.0, -10.0, -5.79357250994943, -10.0], [10.0, 1.347082448120392, 3.160902012764187, 6.063733853413527, -10.0, 0.0, -6.417813954348594, -0.1145390141453694, -10.0, -2.130023660291191, 10.0, -10.0, 10.0], [10.0, 0.0, -5.481128717657199, 0.0, 0.0, -4.871882205995741, 0.5212005642980255, 0.6093301660765609, -10.0, -5.580884467015679, 10.0, 0.3759016828445904, 10.0], [9.193194927802873, -0.6884583573812648, -10.0, -5.281364200564084, -7.425357176530561, 0.0, 1.292312574856671, 4.119429814290285, -9.433292046433539, 0.21439172869594, 0.0, 5.428532053049961, 0.0], [0.0, 5.052031783996557, 9.967067131405907, -0.7308283426727562, -3.545235209118161, -1.038359311988886, -3.453244574682629, 10.0, 0.0, 10.0, 0.0, -0.3273527568692414, 0.0], [10.0, 0.0, 0.0, 9.681621295714276, 5.149594895818286, 5.19196786654849, 10.0, 8.906112630996093, -10.0, -1.310239744692648, 10.0, 1.723019520601463, 0.0]]}}, {"Field0": 0, "Field1": "", "Field2": {"Field0": [], "Field1": [], "Field2": []}}, {"Field0": 0, "Field1": "", "Field2": {"Field0": [], "Field1": [], "Field2": []}}, {"Field0": 0, "Field1": "", "Field2": {"Field0": [], "Field1": [], "Field2": []}}, {"Field0": 0, "Field1": "", "Field2": {"Field0": [], "Field1": [], "Field2": []}}, {"Field0": 3810983492, "Field1": "2_20", "Field2": {"Field0": [0.8778991565424167, 0.3314215392296672, 0.08772259368863686, 0.0, 0.09673372613182839, 0.0, 0.0], "Field1": [0.9999554394300473, 0.9999917448357152, -1.000126833293033, -0.9999917973954617, 0.9858671734637576, -0.9998592593812988], "Field2": [[-10.0, -0.877650295143459, 0.0, 0.0, 0.0, 0.0, 3.282188971531708, 3.623261748732805, 0.0, 10.0, 10.0, -5.79357250994943, 10.0], [-10.0, -10.0, -10.0, -10.0, -10.0, 0.0, -10.0, -0.1145390141453694, -10.0, -2.130023660291191, 6.999095750493584, -10.0, 6.996321210147403], [10.0, 0.0, -9.248658300006303, 0.0, 0.0, -10.0, -5.861929726744359, 0.6093301660765609, 10.0, -5.580884467015679, -10.0, 0.3759016828445904, -10.0], [10.0, -2.639034530121322, -9.248798724082073, -7.602529775155183, -6.813828677455171, 0.0, -6.619068237118356, 4.119429814290285, 10.0, 0.21439172869594, 0.0, 5.428532053049961, 0.0], [0.0, 3.376319470879942, 8.610413392925727, -2.618768698002403, -4.201289226797455, -1.471024376918471, -4.96931751545819, 10.0, 0.0, 10.0, 0.0, -0.3273527568692414, 0.0], [10.0, 0.0, 0.0, 4.054499844526559, 2.534484473424941, -4.715190323908025, 3.619774748538408, 8.906112630996093, 10.0, -1.310239744692648, -10.0, 1.723019520601463, 0.0]]}}, {"Field0": 2886241349, "Field1": "2_8", "Field2": {"Field0": [1.0, 0.1498266838878592, 0.1477736825325583, 0.1992245732615986, 0.0, 0.0, 0.05957572006898439], "Field1": [0.9999341246285052, -0.9998390054800722, -0.999983020504508, -0.9999982597537332, 0.8524563750671854, -0.9999820671535113], "Field2": [[-10.0, -2.976832751440518, 0.0, 0.0, 0.0, 0.0, 5.538011513422902, 3.623261748732805, 0.0, 10.0, 7.631580086637005, -5.79357250994943, 7.630666229057315], [10.0, 3.793084883096135, 5.609641444575695, 10.0, -8.615020061027682, 0.0, 2.139840399831294, -0.1145390141453694, -10.0, -2.130023660291191, -10.0, -10.0, -10.0], [10.0, 0.0, -5.133690661544489, 0.0, 0.0, -10.0, -10.0, 0.6093301660765609, -10.0, -5.580884467015679, -10.0, 0.3759016828445904, -10.0], [-10.0, 9.307151867721206, -6.710174526014129, 3.763566889719905, 0.5620122378936094, 0.0, 4.803483542729728, 4.119429814290285, 10.0, 0.21439172869594, 0.0, 5.428532053049961, 0.0], [0.0, 5.291826901641413, 10.0, -0.3280324751180963, -2.514317243407212, -1.074621069344709, -1.527582075174843, 10.0, 0.0, 10.0, 0.0, -0.3273527568692414, 0.0], [10.0, 0.0, 0.0, 10.0, 1.804826210017014, 0.06306624685512396, 1.800097833456954, 8.906112630996093, -10.0, -1.310239744692648, -10.0, 1.723019520601463, 0.0]]}}, {"Field0": 0, "Field1": "", "Field2": {"Field0": [], "Field1": [], "Field2": []}}, {"Field0": 0, "Field1": "", "Field2": {"Field0": [], "Field1": [], "Field2": []}}, {"Field0": 3773329480, "Field1": "2_31", "Field2": {"Field0": [0.9417163855837604, 0.08958960923173234, 0.0, 0.005234061169539547, 0.03017351599921137, 0.007478197746224096, 0.02564091922784647], "Field1": [1.000074915658829, -0.9999207238373544, -0.9999930208242778, -1.000022395727872, 0.07057536506189255, -0.9999624328512745], "Field2": [[10.0, 6.042564503328142, 0.0, 0.0, 0.0, 0.0, 9.367057540136116, 3.623261748732805, 0.0, 10.0, -7.003450052991067, -5.79357250994943, -7.002194489542244], [10.0, -1.282073147324454, -7.931705472929298, -9.236251230123688, -8.999580195539556, 0.0, -4.649005891673428, -0.1145390141453694, -10.0, -2.130023660291191, -10.0, -10.0, -10.0], [-10.0, 0.0, -2.266468672273792, 0.0, 0.0, -2.129116697103949, -6.166018801978299, 0.6093301660765609, 10.0, -5.580884467015679, 10.0, 0.3759016828445904, 10.0], [-10.0, 3.630851082126221, 6.118762015366737, 7.177844120250875, -0.962331731373125, 0.0, -1.878219326277753, 4.119429814290285, 10.0, 0.21439172869594, 0.0, 5.428532053049961, 0.0], [0.0, 3.966889195450367, 8.205650421220335, -3.025883081958531, -3.544401692229892, -2.676982289388153, -4.040255227003097, 10.0, 0.0, 10.0, 0.0, -0.3273527568692414, 0.0], [-10.0, 0.0, 0.0, 9.825742933551062, 6.707576771993999, 1.391676838597617, 0.7687456154831303, 8.906112630996093, 10.0, -1.310239744692648, 10.0, 1.723019520601463, 0.0]]}}, {"Field0": 3989795913, "Field1": "2_29", "Field2": {"Field0": [0.9302904972843976, 0.0, 0.08303948904649765, 0.0, 0.06255827284488769, 0.216837385428295, 0.03551624005096365], "Field1": [-1.000026867731653, -0.9998665075917966, 0.9998660788568587, 1.000063424476867, -0.1598786582385892, 1.000064404497977], "Field2": [[-10.0, 3.847797923949086, 0.0, 0.0, 0.0, 0.0, 8.830662959715616, 3.623261748732805, 0.0, 10.0, -10.0, -5.79357250994943, -10.0], [-10.0, -1.757868621778123, -5.69327911743915, -7.163744252132577, -6.295198577219147, 0.0, -3.223394904399853, -0.1145390141453694, 4.693387270284978, -2.130023660291191, -4.55166040111482, -10.0, -4.551917053094467], [10.0, 0.0, -2.266265675373835, 0.0, 0.0, -1.524930742837537, -5.321497313934622, 0.6093301660765609, -7.000709188594392, -5.580884467015679, 10.0, 0.3759016828445904, 10.0], [10.0, 6.783081317964067, 6.118255828050488, 7.349668784727393, 2.326780602806178, 0.0, -1.034501247167817, 4.119429814290285, -7.000206753138883, 0.21439172869594, 0.0, 5.428532053049961, 0.0], [0.0, 3.694014797989046, 8.250080390036208, -2.999147044295129, -3.765339229873022, -2.683276323782987, -4.082505303530192, 10.0, 0.0, 10.0, 0.0, -0.3273527568692414, 0.0], [10.0, 0.0, 0.0, 10.0, 10.0, 1.997581535238427, 1.614876693480248, 8.906112630996093, -7.00005893467625, -1.310239744692648, 10.0, 1.723019520601463, 0.0]]}}, {"Field0": 0, "Field1": "", "Field2": {"Field0": [], "Field1": [], "Field2": []}}, {"Field0": 3853706571, "Field1": "2_28", "Field2": {"Field0": [0.9397608590104785, 0.008971851319654172, 0.08052240450697136, 0.05121084849400467, 0.1762080387606483, 0.0, 0.0], "Field1": [0.9998966346797793, 0.9999232740992279, -1.000228514323457, -1.000002563955405, 0.2437790532051428, -0.9999909233573681], "Field2": [[-10.0, -0.0881447259121364, 0.0, 0.0, 0.0, 0.0, 6.064305839372381, 3.623261748732805, 0.0, 10.0, 7.006378171701044, -5.79357250994943, 9.998183817381417], [-10.0, -3.326548736175901, -6.171944747068595, -8.732424366530354, -7.042710060571584, 0.0, -4.325872534358182, -0.1145390141453694, -10.0, -2.130023660291191, 7.006951461879243, -10.0, 7.006707674106956], [10.0, 0.0, -7.939827035433913, 0.0, 0.0, -10.0, -10.0, 0.6093301660765609, 10.0, -5.580884467015679, -10.0, 0.3759016828445904, -10.0], [10.0, 2.847116309211111, 0.4435297021915079, 3.413703775974437, -2.919090013808754, 0.0, -5.714139632714315, 4.119429814290285, 10.0, 0.21439172869594, 0.0, 5.428532053049961, 0.0], [0.0, 3.641852344336966, 8.389928564411234, -3.051309497947209, -3.67284938140759, -2.234049823409483, -4.052544232150364, 10.0, 0.0, 10.0, 0.0, -0.3273527568692414, 0.0], [10.0, 0.0, 0.0, 7.628696526031288, 6.840955301974947, -6.478668054480999, -3.064727329367951, 8.906112630996093, 10.0, -1.310239744692648, -10.0, 1.723019520601463, 0.0]]}}, {"Field0": 0, "Field1": "", "Field2": {"Field0": [], "Field1": [], "Field2": []}}, {"Field0": 0, "Field1": "", "Field2": {"Field0": [], "Field1": [], "Field2": []}}, {"Field0": 0, "Field1": "", "Field2": {"Field0": [], "Field1": [], "Field2": []}}, {"Field0": 2031500623, "Field1": "2_6", "Field2": {"Field0": [1.0, 0.0, 0.0, 0.04984383690554406, 0.0, 0.0, 0.02045885871842344], "Field1": [-0.9998173131211903, 0.9999184709124475, 0.9999648962164163, 1.000044835930442, -0.1750732233626135, 0.9998752106129737], "Field2": [[10.0, -0.8223061321122542, 0.0, 0.0, 0.0, 0.0, 6.733834013123906, 3.623261748732805, 0.0, 10.0, 10.0, -5.79357250994943, 10.0], [10.0, 3.812147877981725, 5.696315092385954, 9.749087967033427, -2.961068130811203, 0.0, 6.084676662147835, -0.1145390141453694, 10.0, -2.130023660291191, 10.0, -10.0, 10.0], [-10.0, 0.0, -10.0, 0.0, 0.0, -8.369082924776199, -8.89669292209086, 0.6093301660765609, -10.0, -5.580884467015679, -10.0, 0.3759016828445904, -10.0], [-10.0, 6.064256410973618, -10.0, 1.649868836499894, -1.844694791757092, 0.0, 5.296353776859488, 4.119429814290285, -10.0, 0.21439172869594, 0.0, 5.428532053049961, 0.0], [0.0, 3.655736601614447, 9.723543261046286, -2.263294258356061, -3.48728301560981, -2.147432770488216, -2.949514200631828, 10.0, 0.0, 10.0, 0.0, -0.3273527568692414, 0.0], [-10.0, 0.0, 0.0, 5.021402728247258, 6.06506160708225, 6.06506160708225, 5.636682275194613, 8.906112630996093, -10.0, -1.310239744692648, -10.0, 1.723019520601463, 0.0]]}}, {"Field0": 3902936015, "Field1": "2_16", "Field2": {"Field0": [0.9704912163395284, 0.0, 0.0, 0.1997174606246138, 0.0, 0.06301134761541416, 0.06772661306132909], "Field1": [1.00000318728045, -1.00018923170321, -1.000179430204443, -0.9999190634046712, -0.6034376649428619, -0.9999434992736553], "Field2": [[-10.0, 6.063948481887517, 0.0, 0.0, 0.0, 0.0, 3.307637041285697, 3.623261748732805, 0.0, 10.0, 10.0, -5.79357250994943, 10.0], [-10.0, -2.502763130720947, 0.1318771205617466, 2.085978471532821, -2.127548252300004, 0.0, -8.293947102045529, -0.1145390141453694, 10.0, -2.130023660291191, 10.0, -10.0, 10.0], [10.0, 0.0, -10.0, 0.0, 0.0, -8.603996955126652, -5.862795466476399, 0.6093301660765609, -10.0, -5.580884467015679, -10.0, 0.3759016828445904, -10.0], [10.0, -10.0, -10.0, -4.5105169542321, -10.0, 0.0, -4.882552622876396, 4.119429814290285, -10.0, 0.21439172869594, 0.0, 5.428532053049961, 0.0], [0.0, 4.63306848813564, 9.23005525235741, -2.53548509173388, -3.45390539539133, -1.620902692844502, -4.548484570788365, 10.0, 0.0, 10.0, 0.0, -0.3273527568692414, 0.0], [10.0, 0.0, 0.0, 10.0, 0.6751811840075064, 1.461182467061066, 3.61754043723045, 8.906112630996093, -10.0, -1.310239744692648, -10.0, 1.723019520601463, 0.0]]}}, {"Field0": 0, "Field1": "", "Field2": {"Field0": [], "Field1": [], "Field2": []}}, {"Field0": 0, "Field1": "", "Field2": {"Field0": [], "Field1": [], "Field2": []}}, {"Field0": 0, "Field1": "", "Field2": {"Field0": [], "Field1": [], "Field2": []}}, {"Field0": 0, "Field1": "", "Field2": {"Field0": [], "Field1": [], "Field2": []}}, {"Field0": 0, "Field1": "", "Field2": {"Field0": [], "Field1": [], "Field2": []}}, {"Field0": 0, "Field1": "", "Field2": {"Field0": [], "Field1": [], "Field2": []}}, {"Field0": 0, "Field1": "", "Field2": {"Field0": [], "Field1": [], "Field2": []}}, {"Field0": 2433890008, "Field1": "2_18", "Field2": {"Field0": [1.0, 0.0, 0.0, 0.05588351282397426, 0.09413123277749307, 0.0, 0.0], "Field1": [-0.999906173091305, 0.9999757323697045, 0.9999769483104399, 1.000014733875451, -0.4051327161689497, 1.000003263358], "Field2": [[10.0, 3.919206493889606, 0.0, 0.0, 0.0, 0.0, 3.283651774937067, 3.623261748732805, 0.0, 10.0, 10.0, -5.79357250994943, 10.0], [-10.0, -8.190380877981323, -7.689628649670476, -5.046212008998763, -10.0, 0.0, -10.0, -0.1145390141453694, -10.0, -2.130023660291191, -10.0, -10.0, -10.0], [-10.0, 0.0, -9.999159751023537, 0.0, 0.0, -8.603156706150189, -5.861955217499935, 0.6093301660765609, -10.0, -5.580884467015679, -10.0, 0.3759016828445904, -10.0], [-10.0, -10.0, -10.0, -6.762474537914375, -10.0, 0.0, -6.619710346485368, 4.119429814290285, -10.0, 0.21439172869594, 0.0, 5.428532053049961, 0.0], [0.0, 5.033199020637166, 9.297031312368206, -2.208617636537947, -3.27644491293673, -1.553926632833706, -4.481508510777569, 10.0, 0.0, 10.0, 0.0, -0.3273527568692414, 0.0], [-10.0, 0.0, 0.0, 4.893934796633415, -0.6521564129889761, 1.462114999606635, 3.61847296977602, 8.906112630996093, -10.0, -1.310239744692648, -10.0, 1.723019520601463, 0.0]]}}, {"Field0": 1118477529, "Field1": "1_3", "Field2": {"Field0": [1.0, 0.0, 0.8549227278994846, 0.0, 0.1081196918170255, 0.174520780431918, 0.07585884636044586], "Field1": [0.9999880137450465, 1.000166507754465, -1.000031341305681, -0.9998901807265727, 0.9998889713084921, 1.000050613368479], "Field2": [[10.0, 3.961725231853835, 0.0, 0.0, 0.0, 0.0, 10.0, 3.623261748732805, 0.0, 10.0, -10.0, -5.79357250994943, 10.0], [10.0, 7.572550701930179, 10.0, 10.0, 3.041995857674038, 0.0, 10.0, -0.1145390141453694, 10.0, -2.130023660291191, -10.0, -10.0, 10.0], [-10.0, 0.0, -10.0, 0.0, 0.0, -4.433472645746243, -4.532729369427964, 0.6093301660765609, -10.0, -5.580884467015679, 10.0, 0.3759016828445904, -10.0], [-10.0, 10.0, -10.0, 0.5148143542200558, -0.2423513822527378, 0.0, 10.0, 4.119429814290285, -10.0, 0.21439172869594, 0.0, 5.428532053049961, 0.0], [0.0, 3.371928402772454, 10.0, -2.385593942864194, -2.992388360827903, -2.41112664558661, -3.278387420521825, 10.0, 0.0, 10.0, 0.0, -0.3273527568692414, 0.0], [10.0, 0.0, 0.0, 9.144585000949542, 10.0, 10.0, 10.0, 8.906112630996093, 10.0, -1.310239744692648, -10.0, 1.723019520601463, 0.0]]}}, {"Field0": 0, "Field1": "", "Field2": {"Field0": [], "Field1": [], "Field2": []}}, {"Field0": 3561407707, "Field1": "2_19", "Field2": {"Field0": [1.0, 0.1079021415383862, 0.06492384310757197, 0.0255264507383287, 0.0, 0.1875948843875265, 0.0], "Field1": [0.9998954862193059, -0.9998881068871799, -1.000023442212107, -1.000062963962386, 0.6633952771523993, -1.000005106081527], "Field2": [[10.0, 10.0, 0.0, 0.0, 0.0, 0.0, 7.218550826274217, 3.623261748732805, 0.0, 10.0, -7.00423803302456, -5.79357250994943, -7.00302661520152], [10.0, -8.559740119484317, -9.426864140566884, -8.037353756716243, -10.0, 0.0, -10.0, -0.1145390141453694, -10.0, -2.130023660291191, -10.0, -10.0, -10.0], [-10.0, 0.0, -8.201347896150979, 0.0, 0.0, -10.0, -1.926269376905773, 0.6093301660765609, 10.0, -5.580884467015679, 10.0, 0.3759016828445904, 10.0], [-10.0, -9.617228275696345, -8.201765475055138, -3.66671206568002, -6.063540181157824, 0.0, -2.683250527643192, 4.119429814290285, 10.0, 0.21439172869594, 0.0, 5.428532053049961, 0.0], [0.0, 5.707459318243206, 9.840540715802499, -1.784965101997758, -2.930450321612707, -0.6372207809138267, -4.135513919453546, 10.0, 0.0, 10.0, 0.0, -0.3273527568692414, 0.0], [-10.0, 0.0, 0.0, 7.989656009785712, 3.284301531032565, -0.7800341586488715, 7.554930913797561, 8.906112630996093, 10.0, -1.310239744692648, 10.0, 1.723019520601463, 0.0]]}}, {"Field0": 4187238236, "Field1": "2_32", "Field2": {"Field0": [1.0, 0.0, 0.01674413221626175, 0.05411959816512905, 0.01322350734610944, 0.0, 0.1553805025272467], "Field1": [1.000085211044014, 0.999984254886335, -1.000076121645873, -0.9999353135859822, -0.6049505230900749, -0.9999127428894983], "Field2": [[-10.0, 2.106022274984256, 0.0, 0.0, 0.0, 0.0, 2.176622153333345, 3.623261748732805, 0.0, 10.0, 10.0, -5.79357250994943, 10.0], [10.0, 2.119833117632727, -4.22673598544645, -4.854798243372883, -5.358332846933283, 0.0, 1.565235775642289, -0.1145390141453694, 10.0, -2.130023660291191, -10.0, -10.0, -10.0], [10.0, 0.0, -5.651099393742774, 0.0, 0.0, -6.065137244452185, -4.985307880237762, 0.6093301660765609, 10.0, -5.580884467015679, -10.0, 0.3759016828445904, -10.0], [10.0, -0.3029702355718973, 2.736085910168209, 5.025408487153602, -4.460891748447777, 0.0, -0.6975791133566596, 4.119429814290285, 10.0, 0.21439172869594, 0.0, 5.428532053049961, 0.0], [0.0, 4.020254203460682, 8.247545807451605, -3.00958964706833, -3.500094700836588, -2.623617281377838, -4.093324853693936, 10.0, 0.0, 10.0, 0.0, -0.3273527568692414, 0.0], [10.0, 0.0, 0.0, 7.672668580417774, 3.207933144549583, -2.543371942109447, 1.949848680587832, 8.906112630996093, 10.0, -1.310239744692648, -10.0, 1.723019520601463, 0.0]]}}, {"Field0": 0, "Field1": "", "Field2": {"Field0": [], "Field1": [], "Field2": []}}, {"Field0": 0, "Field1": "", "Field2": {"Field0": [], "Field1": [], "Field2": []}}, {"Field0": 2210265951, "Field1": "2_25", "Field2": {"Field0": [0.8802890539278998, 0.07712051016357731, 0.09851210567269647, 0.05912250949612871, 0.04018695429554065, 0.0, 0.008875123090564631], "Field1": [-1.000056125715189, 0.9999984071571709, 0.9999511677832013, -1.000034381225565, 0.4351585860377029, 0.9999783726806613], "Field2": [[-10.0, 1.174975040808337, 0.0, 0.0, 0.0, 0.0, 9.848230499771443, 3.623261748732805, 0.0, 10.0, 10.0, -5.79357250994943, -10.0], [10.0, 4.18511125718215, 3.907990676656094, 4.08021227670616, 10.0, 0.0, 8.703208096074739, -0.1145390141453694, 10.0, -2.130023660291191, -10.0, -10.0, 10.0], [10.0, 0.0, -3.250275775805942, 0.0, 0.0, -5.778219047098679, -5.878353699402571, 0.6093301660765609, 10.0, -5.580884467015679, -10.0, 0.3759016828445904, 10.0], [-7.226052633520249, 3.452795381979239, -2.395573605099383, -1.864862955431625, -10.0, 0.0, -7.361924406127234, 4.119429814290285, -6.789562551224832, 0.21439172869594, 0.0, 5.428532053049961, 0.0], [0.0, 2.818102935692713, 8.142535771345246, -3.165421762199959, -2.637863575098481, -2.882639547178023, -4.240939860766295, 10.0, 0.0, 10.0, 0.0, -0.3273527568692414, 0.0], [10.0, 0.0, 0.0, 9.877415993600108, 6.585098768330845, -0.4927658927633995, 2.236791939685043, 8.906112630996093, 10.0, -1.310239744692648, -10.0, 1.723019520601463, 0.0]]}}, {"Field0": 0, "Field1": "", "Field2": {"Field0": [], "Field1": [], "Field2": []}}, {"Field0": 0, "Field1": "", "Field2": {"Field0": [], "Field1": [], "Field2": []}}, {"Field0": 0, "Field1": "", "Field2": {"Field0": [], "Field1": [], "Field2": []}}, {"Field0": 3983078243, "Field1": "1_1", "Field2": {"Field0": [0.8963883993998057, 0.1675538908590781, 1.0, 0.0, 0.06495258036673891, 0.0, 0.0], "Field1": [0.9641576526204897, 0.6938571210216755, 0.9997782767675366, -0.6722899254825987, -1.000135971412204, 0.2380366873833827], "Field2": [[2.961699460341039, -3.885455136723636, 0.0, 0.0, 0.0, 0.0, 4.551278715543286, 3.623261748732805, 0.0, 10.0, 1.696704136188455, -5.79357250994943, 1.550258613314079], [0.1430149456630243, -0.156620476217839, 1.404251233678656, 8.03733982240909, -9.999867736866593, 0.0, 0.1183957356729723, -0.1145390141453694, 0.4077198386659877, -2.130023660291191, 0.1766621320398058, -10.0, -0.6487883049973011], [3.015697765875522, 0.0, 2.163187233857823, 0.0, 0.0, 1.312479408063709, 1.228271087863604, 0.6093301660765609, 0.1533667484966224, -5.580884467015679, -4.475023550488301, 0.3759016828445904, -9.874441878861187], [-10.0, 3.792110599953873, 7.501530818622147, 0.4512659297776209, 0.1385970552034387, 0.0, 10.0, 4.119429814290285, -10.0, 0.21439172869594, 0.0, 5.428532053049961, 0.0], [0.0, 3.37269755607157, -9.999179929380313, -10.0, -10.0, -6.673413983139992, -10.0, 10.0, 0.0, 10.0, 0.0, -0.3273527568692414, 0.0], [0.2420509000721705, 0.0, 0.0, -3.238972141767927, 0.4160118155823999, 0.79581654901341, -1.10795353382038, 8.906112630996093, -0.5909220955152462, -1.310239744692648, -3.521902843025322, 1.723019520601463, 0.0]]}}, {"Field0": 0, "Field1": "", "Field2": {"Field0": [], "Field1": [], "Field2": []}}, {"Field0": 0, "Field1": "", "Field2": {"Field0": [], "Field1": [], "Field2": []}}, {"Field0": 0, "Field1": "", "Field2": {"Field0": [], "Field1": [], "Field2": []}}, {"Field0": 0, "Field1": "", "Field2": {"Field0": [], "Field1": [], "Field2": []}}, {"Field0": 0, "Field1": "", "Field2": {"Field0": [], "Field1": [], "Field2": []}}, {"Field0": 2685263081, "Field1": "2_21", "Field2": {"Field0": [1.0, 0.02451538181838951, 0.0, 0.0382192617911477, 0.09312723816523327, 0.07108039657454604, 0.0], "Field1": [-0.9999191807103838, -0.9999847744598503, 0.999794304376976, 0.9998611777931429, -0.4724673851332044, 0.9999105106150107], "Field2": [[-10.0, 2.250863095543577, 0.0, 0.0, 0.0, 0.0, 7.218078847966536, 3.623261748732805, 0.0, 10.0, -10.0, -5.79357250994943, -10.0], [-10.0, -6.871405192004387, -6.064062193124035, -7.322702733909438, -9.130937687649917, 0.0, -6.064062193124035, -0.1145390141453694, 10.0, -2.130023660291191, -10.0, -10.0, -10.0], [10.0, 0.0, -5.313489760680467, 0.0, 0.0, -4.576267325608079, -1.926761187418522, 0.6093301660765609, -7.00649108284529, -5.580884467015679, 10.0, 0.3759016828445904, 10.0], [10.0, 1.809628586125608, -5.313507981629112, -2.866896076768462, -0.9283765352764473, 0.0, -2.683777494665394, 4.119429814290285, -7.005217597384238, 0.21439172869594, 0.0, 5.428532053049961, 0.0], [0.0, 3.730448922206479, 9.193291065274567, -2.392507463785182, -4.487363554332942, -1.551383948290249, -4.386439843109351, 10.0, 0.0, 10.0, 0.0, -0.3273527568692414, 0.0], [10.0, 0.0, 0.0, 8.790326406717455, 8.420115667579338, 0.7087673165092561, 7.555267968660855, 8.906112630996093, -7.004763578515803, -1.310239744692648, 10.0, 1.723019520601463, 0.0]]}}, {"Field0": 0, "Field1": "", "Field2": {"Field0": [], "Field1": [], "Field2": []}}, {"Field0": 0, "Field1": "", "Field2": {"Field0": [], "Field1": [], "Field2": []}}, {"Field0": 0, "Field1": "", "Field2": {"Field0": [], "Field1": [], "Field2": []}}, {"Field0": 0, "Field1": "", "Field2": {"Field0": [], "Field1": [], "Field2": []}}, {"Field0": 0, "Field1": "", "Field2": {"Field0": [], "Field1": [], "Field2": []}}, {"Field0": 2261130223, "Field1": "2_14", "Field2": {"Field0": [1.0, 0.1641305693462686, 0.0, 0.08285465561665876, 0.02572818460982527, 0.05589600544482215, 0.0], "Field1": [-1.00004437662068, 1.000032067612079, 1.000131894673318, 0.9999307396177953, 0.5507643343451448, 1.00001165245449], "Field2": [[10.0, 5.196844370000812, 0.0, 0.0, 0.0, 0.0, 1.776183459532768, 3.623261748732805, 0.0, 10.0, 10.0, -5.79357250994943, 10.0], [-10.0, -5.509337240934062, -0.4993796688972409, 0.7900116349854258, -10.0, 0.0, -10.0, -0.1145390141453694, -10.0, -2.130023660291191, -10.0, -10.0, -10.0], [-10.0, 0.0, -9.417546620713349, 0.0, 0.0, -9.978736310722825, -3.415217338758123, 0.6093301660765609, -10.0, -5.580884467015679, -10.0, 0.3759016828445904, -10.0], [-10.0, -8.055723688134803, -10.0, -10.0, -10.0, 0.0, -2.640443747927835, 4.119429814290285, -10.0, 0.21439172869594, 0.0, 5.428532053049961, 0.0], [0.0, 5.128166161673409, 9.994361127957431, -0.6788792622179518, -3.510285269210006, -0.994432324884889, -3.425950578131105, 10.0, 0.0, 10.0, 0.0, -0.3273527568692414, 0.0], [-10.0, 0.0, 0.0, 4.011180348587566, 0.6752909932395257, 0.08599798814376403, 6.064403182917546, 8.906112630996093, -10.0, -1.310239744692648, -10.0, 1.723019520601463, 0.0]]}}, {"Field0": 985567727, "Field1": "2_15", "Field2": {"Field0": [0.8450487654300151, 0.1477402513737329, 0.2198608438352079, 0.0, 0.0, 0.02124400313451216, 0.1420392725535196], "Field1": [0.9999277176640744, -0.9999556361211441, -1.000108364408877, -0.9999376487779743, 0.9850809767039759, -0.999945980379402], "Field2": [[10.0, 10.0, 0.0, 0.0, 0.0, 0.0, 8.661954927584171, 3.623261748732805, 0.0, 10.0, -6.94415673476508, -5.79357250994943, -6.944330592450051], [-10.0, -6.43898182133225, -3.804341570049556, 4.726244692074118, -6.063766942911307, 0.0, -10.0, -0.1145390141453694, 10.0, -2.130023660291191, 10.0, -10.0, 10.0], [-10.0, 0.0, -10.0, 0.0, 0.0, -6.742357278224683, -4.156453662826784, 0.6093301660765609, 10.0, -5.580884467015679, 10.0, 0.3759016828445904, 10.0], [-10.0, -8.72846967699134, -10.0, -7.151727514418111, -7.151727514418111, 0.0, -3.17732120020273, 4.119429814290285, 10.0, 0.21439172869594, 0.0, 5.428532053049961, 0.0], [0.0, 3.888495492099843, 8.485482256321612, -1.367072384435072, -4.198478391427127, -1.761924017638598, -4.644340914227039, 10.0, 0.0, 10.0, 0.0, -0.3273527568692414, 0.0], [-10.0, 0.0, 0.0, 7.946265974363362, 4.610376619015321, 3.321603262674574, 5.322701687771106, 8.906112630996093, 10.0, -1.310239744692648, 10.0, 1.723019520601463, 0.0]]}}, {"Field0": 447853169, "Field1": "2_10", "Field2": {"Field0": [1.0, 0.08543242307202066, 0.0, 0.06685394371414728, 0.09798979404199593, 0.0, 0.07105256455842211], "Field1": [-0.999775449305237, -1.000105245269862, 0.9998964650938097, 0.9999424813654136, -0.1921580952324468, 0.99992811638991], "Field2": [[10.0, -0.1073732824825995, 0.0, 0.0, 0.0, 0.0, 7.957392838424734, 3.623261748732805, 0.0, 10.0, 10.0, -5.79357250994943, 10.0], [-10.0, 0.9804505010852167, 3.401015816246178, 7.799205613790489, -9.290670506900213, 0.0, -0.1992260220087407, -0.1145390141453694, 10.0, -2.130023660291191, -10.0, -10.0, -10.0], [-10.0, 0.0, -2.922837247997466, 0.0, 0.0, -9.998995825748443, -10.0, 0.6093301660765609, 10.0, -5.580884467015679, -10.0, 0.3759016828445904, -10.0], [10.0, 7.295426310139826, -5.848000336318744, 1.62112175750994, -1.361358715415336, 0.0, 2.690580221785265, 4.119429814290285, 4.285572387478588, 0.21439172869594, 0.0, 5.428532053049961, 0.0], [0.0, 4.040903832323158, 8.709490338327953, -1.448552786487364, -3.85338077758969, -1.72589206960733, -2.677572599209472, 10.0, 0.0, 10.0, 0.0, -0.3273527568692414, 0.0], [-10.0, 0.0, 0.0, 4.664937740898111, -0.2459877203315752, 0.06403034903706306, 0.3133142314907618, 8.906112630996093, 10.0, -1.310239744692648, -10.0, 1.723019520601463, 0.0]]}}, {"Field0": 764190321, "Field1": "4_44", "Field2": {"Field0": [1.0, 0.0, 1.0, 0.0, 0.02655023561403667, 0.01415265494152979, 0.2283651993078077], "Field1": [1.000051775177071, 0.9998405754248479, -1.000158946603518, -1.000062364158587, 0.9999294476766508, -1.000002190919704], "Field2": [[-10.0, -5.337601158186521, 0.0, 0.0, 0.0, 0.0, 1.28226754555789, 3.623261748732805, 0.0, 10.0, 7.004552184717181, -5.79357250994943, 10.0], [-10.0, 6.064128329345014, -10.0, 6.064128329345014, -5.153656886000144, 0.0, 1.281139448790032, -0.1145390141453694, -10.0, -2.130023660291191, 7.009908080947085, -10.0, 10.0], [10.0, 0.0, 10.0, 0.0, 0.0, 6.322633362345926, -2.481060173610754, 0.6093301660765609, 10.0, -5.580884467015679, -10.0, 0.3759016828445904, -10.0], [10.0, -1.40828546132502, 10.0, 6.063706976539184, 6.938085402239561, 0.0, -2.479920125558551, 4.119429814290285, 10.0, 0.21439172869594, 0.0, 5.428532053049961, 0.0], [0.0, -3.692301870273848, 2.186735149226994, -4.954086207972295, 0.8140684095914086, -0.1103420265010291, 4.707936250620202, 10.0, 0.0, 10.0, 0.0, -0.3273527568692414, 0.0], [10.0, 0.0, 0.0, 4.931857992165272, -9.126217617632424, 6.324183975611222, -2.480147304370733, 8.906112630996093, 10.0, -1.310239744692648, -10.0, 1.723019520601463, 0.0]]}}, {"Field0": 0, "Field1": "", "Field2": {"Field0": [], "Field1": [], "Field2": []}}, {"Field0": 0, "Field1": "", "Field2": {"Field0": [], "Field1": [], "Field2": []}}, {"Field0": 0, "Field1": "", "Field2": {"Field0": [], "Field1": [], "Field2": []}}, {"Field0": 0, "Field1": "", "Field2": {"Field0": [], "Field1": [], "Field2": []}}, {"Field0": 0, "Field1": "", "Field2": {"Field0": [], "Field1": [], "Field2": []}}, {"Field0": 0, "Field1": "", "Field2": {"Field0": [], "Field1": [], "Field2": []}}, {"Field0": 0, "Field1": "", "Field2": {"Field0": [], "Field1": [], "Field2": []}}, {"Field0": 0, "Field1": "", "Field2": {"Field0": [], "Field1": [], "Field2": []}}, {"Field0": 0, "Field1": "", "Field2": {"Field0": [], "Field1": [], "Field2": []}}, {"Field0": 0, "Field1": "", "Field2": {"Field0": [], "Field1": [], "Field2": []}}, {"Field0": 0, "Field1": "", "Field2": {"Field0": [], "Field1": [], "Field2": []}}, {"Field0": 2493773438, "Field1": "2_24", "Field2": {"Field0": [0.9333425249296422, 0.0, 0.0, 0.02793829540990398, 0.1645867747858814, 0.0, 0.03042628981802611], "Field1": [1.000024020122109, 1.000192916156549, -1.000133142998301, -1.000066970012458, -0.6989071568402038, -0.9999066717492801], "Field2": [[-9.13546359187599, -0.1951005351947521, 0.0, 0.0, 0.0, 0.0, 6.273102323437023, 3.623261748732805, 0.0, 10.0, 6.856197900285739, -5.79357250994943, 6.850863668924857], [10.0, -1.365340115816402, -2.090377938409657, -1.093380118276914, 5.657949668341328, 0.0, 4.581742492207856, -0.1145390141453694, 10.0, -2.130023660291191, -10.0, -10.0, -10.0], [10.0, 0.0, -9.249016293080597, 0.0, 0.0, -9.714010784705517, -10.0, 0.6093301660765609, 10.0, -5.580884467015679, -10.0, 0.3759016828445904, -10.0], [-10.0, 3.607400332488005, -2.31896773346228, -1.644632817077748, -10.0, 0.0, -6.958479796759648, 4.119429814290285, -10.0, 0.21439172869594, 0.0, 5.428532053049961, 0.0], [0.0, 2.014615352397038, 7.222540618054815, -3.87088471139882, -3.240195576351845, -3.266096598759314, -4.672734542153893, 10.0, 0.0, 10.0, 0.0, -0.3273527568692414, 0.0], [10.0, 0.0, 0.0, 4.703542621934524, 1.807745075417464, -4.428585337618271, -1.884876872641646, 8.906112630996093, 10.0, -1.310239744692648, -10.0, 1.723019520601463, 0.0]]}}, {"Field0": 0, "Field1": "", "Field2": {"Field0": [], "Field1": [], "Field2": []}}], "counter": 46}
	},
"1": {
	"result": 1,
	"status": {"data": [{"Field0": 0, "Field1": "", "Field2": {"Field0": [], "Field1": [], "Field2": []}}, {"Field0": 0, "Field1": "", "Field2": {"Field0": [], "Field1": [], "Field2": []}}, {"Field0": 0, "Field1": "", "Field2": {"Field0": [], "Field1": [], "Field2": []}}, {"Field0": 0, "Field1": "", "Field2": {"Field0": [], "Field1": [], "Field2": []}}, {"Field0": 0, "Field1": "", "Field2": {"Field0": [], "Field1": [], "Field2": []}}, {"Field0": 0, "Field1": "", "Field2": {"Field0": [], "Field1": [], "Field2": []}}, {"Field0": 0, "Field1": "", "Field2": {"Field0": [], "Field1": [], "Field2": []}}, {"Field0": 0, "Field1": "", "Field2": {"Field0": [], "Field1": [], "Field2": []}}, {"Field0": 0, "Field1": "", "Field2": {"Field0": [], "Field1": [], "Field2": []}}, {"Field0": 0, "Field1": "", "Field2": {"Field0": [], "Field1": [], "Field2": []}}, {"Field0": 704762634, "Field1": "2_11", "Field2": {"Field0": [0.904653216746419, 0.05366197021912924, 0.0, 0.04763060006027705, 0.0, 0.0777065065694829, 0.01936828653396484], "Field1": [1.000040146809943, 0.999836870383418, -0.9999637505077422, -1.000135629369069, -0.1282455631384266, -1.000159074722088], "Field2": [[10.0, -4.940095668207784, 0.0, 0.0, 0.0, 0.0, 5.6035667225779, 3.623261748732805, 0.0, 10.0, -10.0, -5.79357250994943, -7.007899201929234], [10.0, 10.0, 10.0, 10.0, 10.0, 0.0, 10.0, -0.1145390141453694, 10.0, -2.130023660291191, -10.0, -10.0, -6.328824113809066], [-10.0, 0.0, -6.064697932902352, 0.0, 0.0, 2.448061508045381, 0.7349786668514682, 0.6093301660765609, -10.0, -5.580884467015679, 10.0, 0.3759016828445904, 10.0], [-10.0, 8.502042351129226, 3.826630336550569, -5.230851374890891, 9.876765824943071, 0.0, 10.0, 4.119429814290285, -10.0, 0.21439172869594, 0.0, 5.428532053049961, 0.0], [0.0, 5.428366536313006, -2.74212226139027, 6.657607004297031, -7.291706676749578, -7.117629841785789, -8.057970034067669, 10.0, 0.0, 10.0, 0.0, -0.3273527568692414, 0.0], [-10.0, 0.0, 0.0, -5.860780004828049, 10.0, -2.326195944026886, -1.904597554278155, 8.906112630996093, -10.0, -1.310239744692648, 10.0, 1.723019520601463, 0.0]]}}, {"Field0": 0, "Field1": "", "Field2": {"Field0": [], "Field1": [], "Field2": []}}, {"Field0": 0, "Field1": "", "Field2": {"Field0": [], "Field1": [], "Field2": []}}, {"Field0": 917503373, "Field1": "2_26", "Field2": {"Field0": [0.8512432142408578, 0.0, 0.0, 0.0, 0.05945399424343212, 0.0, 0.06062760486162738], "Field1": [-1.000096293801946, 0.9997306213713583, 1.000001319124174, 1.00011795192863, -0.7735769538887555, 1.000147609107175], "Field2": [[10.0, -7.63412084577082, 0.0, 0.0, 0.0, 0.0, 4.570760935931458, 3.623261748732805, 0.0, 10.0, 10.0, -5.79357250994943, 10.0], [10.0, 10.0, 10.0, 10.0, 10.0, 0.0, 10.0, -0.1145390141453694, 10.0, -2.130023660291191, 10.0, -10.0, 10.0], [-10.0, 0.0, 0.3815162696201893, 0.0, 0.0, -3.666244606688609, -6.488615128595383, 0.6093301660765609, -10.0, -5.580884467015679, -10.0, 0.3759016828445904, -10.0], [-10.0, 4.177745011438743, 6.063956266892115, -5.088972086282672, -1.657716927889089, 0.0, 0.5628368234361263, 4.119429814290285, -10.0, 0.21439172869594, 0.0, 5.428532053049961, 0.0], [0.0, 1.234351421519912, -5.013464904260156, 6.274475852240005, -8.179033486666892, -10.0, -9.522107812598016, 10.0, 0.0, 10.0, 0.0, -0.3273527568692414, 0.0], [-10.0, 0.0, 0.0, -6.753520904304266, -0.3887094570443788, -8.441501622820352, -9.13006480575822, 8.906112630996093, -10.0, -1.310239744692648, -10.0, 1.723019520601463, 0.0]]}}, {"Field0": 0, "Field1": "", "Field2": {"Field0": [], "Field1": [], "Field2": []}}, {"Field0": 0, "Field1": "", "Field2": {"Field0": [], "Field1": [], "Field2": []}}, {"Field0": 0, "Field1": "", "Field2": {"Field0": [], "Field1": [], "Field2": []}}, {"Field0": 0, "Field1": "", "Field2": {"Field0": [], "Field1": [], "Field2": []}}, {"Field0": 0, "Field1": "", "Field2": {"Field0": [], "Field1": [], "Field2": []}}, {"Field0": 0, "Field1": "", "Field2": {"Field0": [], "Field1": [], "Field2": []}}, {"Field0": 357740564, "Field1": "2_9", "Field2": {"Field0": [1.0, 0.1912541976573829, 0.009689961706401264, 0.0, 0.1848939862108859, 0.07689279641434116, 0.0], "Field1": [-1.000039029434028, 1.000112349222631, 1.000146246294733, 0.9999736963779472, -0.7676025530339159, 1.000072602666062], "Field2": [[-10.0, -8.688737183150332, 0.0, 0.0, 0.0, 0.0, 5.197987720111431, 3.623261748732805, 0.0, 10.0, -10.0, -5.79357250994943, -10.0], [10.0, 10.0, 10.0, 10.0, 8.283283839835249, 0.0, 10.0, -0.1145390141453694, 10.0, -2.130023660291191, 10.0, -10.0, 10.0], [10.0, 0.0, -5.40290733948647, 0.0, 0.0, 5.68480925657282, 1.373518009228073, 0.6093301660765609, 10.0, -5.580884467015679, 10.0, 0.3759016828445904, 10.0], [-0.3357963391000283, 4.07319062529343, -0.3230990110634673, -9.858317699671812, 3.680811365736679, 0.0, 5.106575451435839, 4.119429814290285, -0.3367738357908969, 0.21439172869594, 0.0, 5.428532053049961, 0.0], [0.0, 5.68823062565537, -2.780097593821693, 6.938830308808981, -6.84180656936377, -7.177172038400771, -7.676659880315862, 10.0, 0.0, 10.0, 0.0, -0.3273527568692414, 0.0], [10.0, 0.0, 0.0, -4.292826025243551, 10.0, 0.9092538017304221, -1.267290469989961, 8.906112630996093, 10.0, -1.310239744692648, 10.0, 1.723019520601463, 0.0]]}}, {"Field0": 3483697044, "Field1": "2_12", "Field2": {"Field0": [0.8948875563170778, 0.1195021026023491, 0.0, 0.1248881111479336, 0.1019087594459873, 0.0, 0.0], "Field1": [0.9998057567228978, 1.000140583016146, -0.9999930883104269, -1.000198989367474, 0.6272422687696738, -0.9999929775703582], "Field2": [[-10.0, -10.0, 0.0, 0.0, 0.0, 0.0, 1.669086637169907, 3.623261748732805, 0.0, 10.0, 7.007692560727403, -5.79357250994943, 9.995479882511749], [10.0, 10.0, 10.0, 10.0, 10.0, 0.0, 10.0, -0.1145390141453694, 10.0, -2.130023660291191, -10.0, -10.0, -10.0], [10.0, 0.0, -10.0, 0.0, 0.0, -1.487656703495067, -3.20073954468898, 0.6093301660765609, 10.0, -5.580884467015679, -10.0, 0.3759016828445904, -10.0], [10.0, 8.500873843383058, -0.09737591684458469, -5.05521598412062, 9.298069147373935, 0.0, 6.075993746604846, 4.119429814290285, 10.0, 0.21439172869594, 0.0, 5.428532053049961, 0.0], [0.0, 5.65267433789392, -2.636407013372916, 6.887259820677069, -7.084858312661372, -7.011914593768434, -7.952254786050315, 10.0, 0.0, 10.0, 0.0, -0.3273527568692414, 0.0], [10.0, 0.0, 0.0, -5.683904314722217, 9.420065293502153, -6.262431109043509, -5.840832719294777, 8.906112630996093, 10.0, -1.310239744692648, -10.0, 1.723019520601463, 0.0]]}}, {"Field0": 1415344918, "Field1": "2_7", "Field2": {"Field0": [0.854238777012438, 0.0, 0.07620138720690355, 0.03241359092439865, 0.0, 0.0, 0.01565486093176536], "Field1": [0.999853013433584, 1.000011237170394, -0.9997604613869719, -1.000016566352954, -0.0444978513101183, -1.000022820757933], "Field2": [[10.0, -1.701737129895705, 0.0, 0.0, 0.0, 0.0, 6.189104792982688, 3.623261748732805, 0.0, 10.0, -7.001942379606067, -5.79357250994943, -7.00207332134984], [10.0, 6.708633759737384, 10.0, 5.521335331472283, -5.074393679826205, 0.0, 6.219951999170428, -0.1145390141453694, 10.0, -2.130023660291191, -6.98604951360301, -10.0, -6.986180339109062], [-10.0, 0.0, -5.605632376205339, 0.0, 0.0, 2.020233801105652, 0.1844587509114803, 0.6093301660765609, -10.0, -5.580884467015679, 10.0, 0.3759016828445904, 10.0], [-10.0, 10.0, 5.32676905740499, -4.292757339622387, 8.191414269538495, 0.0, 9.484613119878642, 4.119429814290285, -10.0, 0.21439172869594, 0.0, 5.428532053049961, 0.0], [0.0, 4.956066948511393, -2.04495932461676, 7.75124603957421, -7.543436434663901, -7.008412908418036, -6.881861388281988, 10.0, 0.0, 10.0, 0.0, -0.3273527568692414, 0.0], [-10.0, 0.0, 0.0, -4.293828924277998, 8.192351781852185, -2.756270792145561, -2.457328482052387, 8.906112630996093, -10.0, -1.310239744692648, 10.0, 1.723019520601463, 0.0]]}}, {"Field0": 1033728277, "Field1": "2_17", "Field2": {"Field0": [1.0, 0.0, 0.09833546220161445, 0.02101652340170762, 0.06132945529627977, 0.0, 0.1267726478875811], "Field1": [-1.000045822920826, 1.000068328221234, 1.000004861207061, -1.000167025607714, -0.9397338765863883, 1.000163966791058], "Field2": [[-10.0, -5.362092535663417, 0.0, 0.0, 0.0, 0.0, 2.11679954636467, 3.623261748732805, 0.0, 10.0, 10.0, -5.79357250994943, -10.0], [10.0, 10.0, 10.0, 10.0, 10.0, 0.0, 10.0, -0.1145390141453694, 10.0, -2.130023660291191, -10.0, -10.0, 10.0], [10.0, 0.0, -2.782483824886401, 0.0, 0.0, 4.303690356941251, 3.724482308443665, 0.6093301660765609, 10.0, -5.580884467015679, -10.0, 0.3759016828445904, 10.0], [10.0, 5.299550056134879, 4.216429961716512, -6.058764369482443, 0.2158373826679487, 0.0, 8.467135520322392, 4.119429814290285, 10.0, 0.21439172869594, 0.0, 5.428532053049961, 0.0], [0.0, 3.917277788200826, -4.219726296618979, 5.665065322692391, -6.278192849561493, -9.41319996456436, -8.509548067783308, 10.0, 0.0, 10.0, 0.0, -0.3273527568692414, 0.0], [10.0, 0.0, 0.0, -3.141999752081003, 4.44978279661693, -0.4733271248190234, 1.08222439980921, 8.906112630996093, 10.0, -1.310239744692648, -10.0, 1.723019520601463, 0.0]]}}, {"Field0": 1304899093, "Field1": "4_42", "Field2": {"Field0": [1.0, 0.0, 1.0, 0.0, 0.0, 0.0, 0.0], "Field1": [-1.000085197704534, 0.9998510731518956, 1.000004882742384, -1.000098914700907, -0.976132675752086, 1.00016565934875], "Field2": [[10.0, -4.040781317336569, 0.0, 0.0, 0.0, 0.0, -0.5168812631408253, 3.623261748732805, 0.0, 10.0, -10.0, -5.79357250994943, 10.0], [10.0, 6.096128483510304, 10.0, 9.999386897182422, -3.85701339581858, 0.0, 10.0, -0.1145390141453694, 10.0, -2.130023660291191, -7.005557952140563, -10.0, 10.0], [-10.0, 0.0, -10.0, 0.0, 0.0, -3.949926916500822, -1.439755598031222, 0.6093301660765609, -10.0, -5.580884467015679, 10.0, 0.3759016828445904, -10.0], [-10.0, -3.575023365155718, -10.0, -1.633078879220811, -6.063679436189682, 0.0, -5.731244182670265, 4.119429814290285, -10.0, 0.21439172869594, 0.0, 5.428532053049961, 0.0], [0.0, 7.132179139155956, 6.980354199328032, 4.361270561516373, 4.677538390281921, -10.0, -8.137927161653234, 10.0, 0.0, 10.0, 0.0, -0.3273527568692414, 0.0], [-10.0, 0.0, 0.0, -0.7674869108815012, -8.596365123371537, -3.951316564272179, -1.44086482847661, 8.906112630996093, -10.0, -1.310239744692648, 10.0, 1.723019520601463, 0.0]]}}, {"Field0": 2197416729, "Field1": "4_38", "Field2": {"Field0": [1.0, 0.1594871037975047, 0.0, 0.0, 1.0, 0.0, 0.0], "Field1": [-0.9999243243442735, 1.000147262252724, 1.000117884885215, -1.000031907243799, 0.3180659780323325, 0.9999141358734521], "Field2": [[10.0, 0.3220178417683719, 0.0, 0.0, 0.0, 0.0, 2.046043546231501, 3.623261748732805, 0.0, 10.0, -10.0, -5.79357250994943, 10.0], [10.0, 10.0, 10.0, 10.0, 10.0, 0.0, 10.0, -0.1145390141453694, 10.0, -2.130023660291191, -10.0, -10.0, 10.0], [-10.0, 0.0, 0.9653141978262121, 0.0, 0.0, -4.016197467326932, -1.899675186085465, 0.6093301660765609, -10.0, -5.580884467015679, 7.002274231811402, 0.3759016828445904, -10.0], [-10.0, -7.735975925147942, 2.255050035209613, -1.890920597980389, -10.0, 0.0, -2.48409433254154, 4.119429814290285, -10.0, 0.21439172869594, 0.0, 5.428532053049961, 0.0], [0.0, 10.0, -6.223893488075023, 5.999337296037557, 7.422622548815831, -8.907808419475193, -7.447786066654387, 10.0, 0.0, 10.0, 0.0, -0.3273527568692414, 0.0], [-10.0, 0.0, 0.0, -0.767159869516945, -10.0, -4.015606141744767, -1.8986899188243, 8.906112630996093, -10.0, -1.310239744692648, 7.007787916096881, 1.723019520601463, 0.0]]}}, {"Field0": 1870832410, "Field1": "4_37", "Field2": {"Field0": [1.0, 0.0, 0.03626920384809442, 0.1984082066308591, 0.9154642341563812, 0.0, 0.0], "Field1": [-0.9992344385572844, 0.9999279355400842, 1.000006127868879, -1.000032083122022, -1.000058248378265, 1.000040515010556], "Field2": [[-10.0, -0.9944503315508215, 0.0, 0.0, 0.0, 0.0, 5.981685560863136, 3.623261748732805, 0.0, 10.0, 10.0, -5.79357250994943, -10.0], [10.0, 10.0, 8.335991658917788, 10.0, 10.0, 0.0, 10.0, -0.1145390141453694, 10.0, -2.130023660291191, -10.0, -10.0, 10.0], [10.0, 0.0, 4.901295625153385, 0.0, 0.0, -0.08021603999975868, 2.036306241241708, 0.6093301660765609, 10.0, -5.580884467015679, -10.0, 0.3759016828445904, 10.0], [-10.0, -6.419911381234646, -1.680767013483493, -5.826737646673495, -10.0, 0.0, -6.419911381234646, 4.119429814290285, -10.0, 0.21439172869594, 0.0, 5.428532053049961, 0.0], [0.0, 8.760256950943036, -6.628326560979549, 5.594904223133032, -1.067681417532389, -9.312241492379719, -7.852219139558912, 10.0, 0.0, 10.0, 0.0, -0.3273527568692414, 0.0], [10.0, 0.0, 0.0, 3.168827440162235, 10.0, -0.07961883206558706, 2.03729739085488, 8.906112630996093, 10.0, -1.310239744692648, -10.0, 1.723019520601463, 0.0]]}}, {"Field0": 0, "Field1": "", "Field2": {"Field0": [], "Field1": [], "Field2": []}}, {"Field0": 2242207644, "Field1": "2_22", "Field2": {"Field0": [1.0, 0.1523429282077008, 0.05455942004267682, 0.04909838612279845, 0.0, 0.0, 0.1358867399425731], "Field1": [-0.9999576913028813, 0.99992511417246, 0.9999052559920372, 1.000044150214791, -0.4414529236307621, 0.9999072456014125], "Field2": [[10.0, -7.671635421187478, 0.0, 0.0, 0.0, 0.0, 4.686579237542895, 3.623261748732805, 0.0, 10.0, 10.0, -5.79357250994943, 10.0], [-10.0, 2.874831739314129, 4.922317357564213, 5.03666576479109, 6.064735235320446, 0.0, 3.219407316897228, -0.1145390141453694, -10.0, -2.130023660291191, -10.0, -10.0, -10.0], [-10.0, 0.0, -0.506968880120497, 0.0, 0.0, -0.3699794502423077, -6.557548027300478, 0.6093301660765609, -10.0, -5.580884467015679, -10.0, 0.3759016828445904, -10.0], [-10.0, 1.989640922882784, 5.226946340079812, -4.385780982321712, -2.600978205944948, 0.0, -0.8675015915301936, 4.119429814290285, -10.0, 0.21439172869594, 0.0, 5.428532053049961, 0.0], [0.0, 3.078445577958444, -3.996465880282885, 7.732348300527247, -6.801168427234941, -8.641062656709698, -8.816897300302942, 10.0, 0.0, 10.0, 0.0, -0.3273527568692414, 0.0], [-10.0, 0.0, 0.0, -3.863262276807721, 0.855870925333555, -5.145583238857155, -9.199199615929022, 8.906112630996093, -10.0, -1.310239744692648, -10.0, 1.723019520601463, 0.0]]}}, {"Field0": 3433971868, "Field1": "4_40", "Field2": {"Field0": [0.9100140077532298, 0.1185347953007783, 1.0, 0.0, 0.0, 0.0, 0.0], "Field1": [1.000126680942231, -0.9999389744849646, -0.9997679754359245, -0.9999601414809978, -1.000084620791303, -1.000016404527424], "Field2": [[-10.0, -2.16138312510649, 0.0, 0.0, 0.0, 0.0, 3.086763365194372, 3.623261748732805, 0.0, 10.0, 7.001884127645145, -5.79357250994943, 10.0], [-10.0, 6.096612530511814, -10.0, 9.999870944183931, -6.064553744097442, 0.0, 8.957513562218571, -0.1145390141453694, 10.0, -2.130023660291191, 10.0, -10.0, 10.0], [10.0, 0.0, 10.0, 0.0, 0.0, -4.36558424693305, -3.53819008293608, 0.6093301660765609, -10.0, -5.580884467015679, -10.0, 0.3759016828445904, -10.0], [10.0, -3.933169611689348, 10.0, -1.991225125754441, -10.0, 0.0, -4.18210330467581, 4.119429814290285, -10.0, 0.21439172869594, 0.0, 5.428532053049961, 0.0], [0.0, 9.609401869754976, -10.0, 6.838493292115393, 6.449118036023707, -8.091340618849461, -6.714820786632057, 10.0, 0.0, 10.0, 0.0, -0.3273527568692414, 0.0], [10.0, 0.0, 0.0, -0.7669885397981182, -10.0, -4.365700087331385, -3.537913862854092, 8.906112630996093, -10.0, -1.310239744692648, -10.0, 1.723019520601463, 0.0]]}}, {"Field0": 535959966, "Field1": "2_30", "Field2": {"Field0": [0.9239215293698244, 0.178367382046178, 0.01432656504635614, 0.0, 0.0, 0.1632519039438242, 0.1286670231218486], "Field1": [-1.000229755422898, 0.9999848517665763, 0.9998906364206965, 0.9999389435196774, -0.990127363223777, 1.000039851071517], "Field2": [[10.0, -1.535972898195878, 0.0, 0.0, 0.0, 0.0, 8.74889455097111, 3.623261748732805, 0.0, 10.0, 10.0, -5.79357250994943, 10.0], [7.777059592514439, 9.267624018367762, 9.595585987442165, 9.624228666554648, 9.624228666554648, 0.0, 9.366988480668297, -0.1145390141453694, 7.624988434592769, -2.130023660291191, 7.625080217597298, -10.0, 7.624878476103925], [-10.0, 0.0, 0.0800392684968747, 0.0, 0.0, -6.674153007569254, -9.184485805158744, 0.6093301660765609, -10.0, -5.580884467015679, -10.0, 0.3759016828445904, -10.0], [-10.0, -3.025664230514199, 2.740613568334226, -4.29279674140008, 1.93714654629697, 0.0, -5.154193740278959, 4.119429814290285, -10.0, 0.21439172869594, 0.0, 5.428532053049961, 0.0], [0.0, 1.592552615430919, -5.251056102995789, 5.942047849309457, -8.590802280021876, -9.821136633061924, -9.532665789894725, 10.0, 0.0, 10.0, 0.0, -0.3273527568692414, 0.0], [-10.0, 0.0, 0.0, -2.931292963989123, 6.064177584691524, -10.0, -10.0, 8.906112630996093, -10.0, -1.310239744692648, -10.0, 1.723019520601463, 0.0]]}}, {"Field0": 0, "Field1": "", "Field2": {"Field0": [], "Field1": [], "Field2": []}}, {"Field0": 3089126176, "Field1": "3_35", "Field2": {"Field0": [1.0, 1.0, 0.392146333442876, 0.3155614056338253, 0.3035434277984875, 0.2035292186341906, 0.3793202209300844], "Field1": [1.000055439673015, 0.9998486356128271, -0.9999255637131764, -0.9999656194837292, -0.9998087692900781, -0.9999347090351577], "Field2": [[10.0, 10.0, 0.0, 0.0, 0.0, 0.0, 10.0, 3.623261748732805, 0.0, 10.0, -10.0, -5.79357250994943, -6.999329259834091], [-10.0, -10.0, -2.138209972907031, -0.5356314154877211, -0.2841491182075941, 0.0, -1.869817046569139, -0.1145390141453694, -10.0, -2.130023660291191, 6.992440523359988, -10.0, 10.0], [-10.0, 0.0, -5.57260430615586, 0.0, 0.0, -10.0, -10.0, 0.6093301660765609, -10.0, -5.580884467015679, 10.0, 0.3759016828445904, 10.0], [-10.0, -10.0, 1.079806831175146, 0.336847255903395, 3.978793872386079, 0.0, -10.0, 4.119429814290285, -10.0, 0.21439172869594, 0.0, 5.428532053049961, 0.0], [0.0, 3.281753770998572, -7.59710788533144, 3.451237774701435, -10.0, -9.969956965055717, -9.181068970802329, 10.0, 0.0, 10.0, 0.0, -0.3273527568692414, 0.0], [-10.0, 0.0, 0.0, -9.101899204135844, -5.66534081936981, -10.0, -10.0, 8.906112630996093, -10.0, -1.310239744692648, 10.0, 1.723019520601463, 0.0]]}}, {"Field0": 0, "Field1": "", "Field2": {"Field0": [], "Field1": [], "Field2": []}}, {"Field0": 0, "Field1": "", "Field2": {"Field0": [], "Field1": [], "Field2": []}}, {"Field0": 3237294499, "Field1": "0_0", "Field2": {"Field0": [0.0, 0.0, 0.0, 0.0, 0.0, 0.0, 0.0], "Field1": [0.0, 0.0, 0.0, 0.0, 0.0, 0.0], "Field2": [[2.957336029159521, -3.886862338074819, 0.0, 0.0, 0.0, 0.0, 4.550551130489825, 3.623261748732805, 0.0, 10.0, 1.698703430157675, -5.79357250994943, 1.548565526287658], [0.1422878038406239, -0.1568261489057506, 1.403449959455752, 8.037254031781403, -10.0, 0.0, 0.1183099450452851, -0.1145390141453694, 0.4071376046507852, -2.130023660291191, 0.1770573538250309, -10.0, -0.6490444069698709], [3.016239599220664, 0.0, 2.163780843094463, 0.0, 0.0, 1.312573305963021, 1.228364985762916, 0.6093301660765609, 0.1538073746657948, -5.580884467015679, -4.475265603486724, 0.3759016828445904, -9.87422903133049], [-10.0, 3.792407602406265, 7.504839076380065, 0.4509568298802377, 0.1385229120198767, 0.0, 10.0, 4.119429814290285, -10.0, 0.21439172869594, 0.0, 5.428532053049961, 0.0], [0.0, 3.37265282792777, -10.0, -10.0, -10.0, -6.673302651153103, -10.0, 10.0, 0.0, 10.0, 0.0, -0.3273527568692414, 0.0], [0.2407303648509168, 0.0, 0.0, -3.239024119071809, 0.4158679181798938, 0.7957645717095276, -1.108005511124262, 8.906112630996093, -0.5919560109443719, -1.310239744692648, -3.521003403835739, 1.723019520601463, 0.0]]}}, {"Field0": 609824420, "Field1": "2_4", "Field2": {"Field0": [1.0, 0.1513074636716178, 0.0, 0.1783424978149717, 0.2362605461876617, 0.02153962212566761, 0.0], "Field1": [1.000002811836937, 0.9999897704335512, -1.000044654979124, -1.000005633368129, 0.9178224157401649, -1.000018761317347], "Field2": [[-10.0, -5.636619668162653, 0.0, 0.0, 0.0, 0.0, 6.028851882208677, 3.623261748732805, 0.0, 10.0, 7.000425667426338, -5.79357250994943, 10.0], [-10.0, 2.778136420563684, 6.063903901460554, 2.329118040959001, -7.623868954188075, 0.0, 6.063903901460554, -0.1145390141453694, -10.0, -2.130023660291191, 7.005670141608253, -10.0, 10.0], [10.0, 0.0, -7.128552387456633, 0.0, 0.0, -1.915320495078471, -5.844124474571702, 0.6093301660765609, 10.0, -5.580884467015679, -10.0, 0.3759016828445904, -10.0], [10.0, 9.210448001542062, 3.803042832408221, -8.062723151174962, 6.769541110519349, 0.0, 6.063814441385665, 4.119429814290285, 10.0, 0.21439172869594, 0.0, 5.428532053049961, 0.0], [0.0, 4.610675089743342, -2.73671517335135, 7.645440439864535, -7.420120169296537, -7.353804767186086, -6.133112747290243, 10.0, 0.0, 10.0, 0.0, -0.3273527568692414, 0.0], [10.0, 0.0, 0.0, -8.062969999783247, 4.435299607285556, -6.692182677034362, -8.486044202358094, 8.906112630996093, 10.0, -1.310239744692648, -10.0, 1.723019520601463, 0.0]]}}, {"Field0": 2898646692, "Field1": "3_36", "Field2": {"Field0": [1.0, 1.0, 0.2950084076247776, 0.2464634848053608, 0.1843167667101183, 0.3012461564634694, 0.3655225754100244], "Field1": [0.9999470121043427, -0.9998786075926904, -1.000093147854234, -1.000203309329402, -1.000030562708525, -1.000223050875429], "Field2": [[-3.061562067503409, -3.061562067503409, 0.0, 0.0, 0.0, 0.0, 3.914573824910548, 3.623261748732805, 0.0, 10.0, -1.069148220225163, -5.79357250994943, 1.931739580000681], [10.0, 10.0, 3.641326307964469, 3.64525016286798, 1.850150915493863, 0.0, 6.23185303072864, -0.1145390141453694, -10.0, -2.130023660291191, -10.0, -10.0, -10.0], [10.0, 0.0, 0.2057132913472417, 0.0, 0.0, -4.016283056698607, -1.899760775457141, 0.6093301660765609, -10.0, -5.580884467015679, -10.0, 0.3759016828445904, -10.0], [-10.0, -10.0, -4.174464558057574, -3.463797969784988, 2.039066125909871, 0.0, -10.0, 4.119429814290285, 10.0, 0.21439172869594, 0.0, 5.428532053049961, 0.0], [0.0, 10.0, -5.764780054361461, 4.776689737785803, -9.32344538479995, -8.072498443322756, -6.612476090501947, 10.0, 0.0, 10.0, 0.0, -0.3273527568692414, 0.0], [10.0, 0.0, 0.0, -4.921730484684235, -3.531947540946947, -4.015587542819271, -1.898671319898805, 8.906112630996093, -10.0, -1.310239744692648, -10.0, 1.723019520601463, 0.0]]}}, {"Field0": 909288230, "Field1": "2_27", "Field2": {"Field0": [1.0, 0.04472384271265015, 0.0, 0.003044286228984791, 0.0, 0.0, 0.0], "Field1": [1.000042213432018, 1.000005777623697, -0.9999642841237439, -0.9999272755278347, 0.07413654552953526, -1.000112080813471], "Field2": [[10.0, -2.761413639400571, 0.0, 0.0, 0.0, 0.0, 8.506924326009759, 3.623261748732805, 0.0, 10.0, -7.002907356907535, -5.79357250994943, -7.006777289296675], [10.0, 10.0, 10.0, 10.0, 10.0, 0.0, 10.0, -0.1145390141453694, 10.0, -2.130023660291191, -7.004506605569645, -10.0, -7.00837685996428], [-10.0, 0.0, 4.317067624731902, 0.0, 0.0, 0.2693067484231042, -2.553063773483671, 0.6093301660765609, -10.0, -5.580884467015679, 10.0, 0.3759016828445904, 10.0], [-10.0, 6.640259358262373, 9.999088455174633, -1.254078829706319, 2.27741526039343, 0.0, 4.497969011718645, 4.119429814290285, -10.0, 0.21439172869594, 0.0, 5.428532053049961, 0.0], [0.0, 1.59911589435565, -4.941382523821373, 6.366480672462848, -8.106951106228109, -9.927917619561217, -9.450025432159233, 10.0, 0.0, 10.0, 0.0, -0.3273527568692414, 0.0], [-10.0, 0.0, 0.0, -2.917770474865168, 3.547286759450775, -4.505505406325199, -5.194068589263066, 8.906112630996093, -10.0, -1.310239744692648, 10.0, 1.723019520601463, 0.0]]}}, {"Field0": 0, "Field1": "", "Field2": {"Field0": [], "Field1": [], "Field2": []}}, {"Field0": 0, "Field1": "", "Field2": {"Field0": [], "Field1": [], "Field2": []}}, {"Field0": 0, "Field1": "", "Field2": {"Field0": [], "Field1": [], "Field2": []}}, {"Field0": 0, "Field1": "", "Field2": {"Field0": [], "Field1": [], "Field2": []}}, {"Field0": 0, "Field1": "", "Field2": {"Field0": [], "Field1": [], "Field2": []}}, {"Field0": 0, "Field1": "", "Field2": {"Field0": [], "Field1": [], "Field2": []}}, {"Field0": 0, "Field1": "", "Field2": {"Field0": [], "Field1": [], "Field2": []}}, {"Field0": 0, "Field1": "", "Field2": {"Field0": [], "Field1": [], "Field2": []}}, {"Field0": 0, "Field1": "", "Field2": {"Field0": [], "Field1": [], "Field2": []}}, {"Field0": 0, "Field1": "", "Field2": {"Field0": [], "Field1": [], "Field2": []}}, {"Field0": 204754481, "Field1": "4_39", "Field2": {"Field0": [0.9308194970369494, 0.0, 0.0, 0.0, 0.8497580276860706, 0.01063601050764613, 0.0497811989571912], "Field1": [1.00003667167304, 0.999993531757982, -0.9999110523058109, -0.9997381784378597, 0.9998928044826846, -0.9999774654987341], "Field2": [[10.0, 4.256912276024403, 0.0, 0.0, 0.0, 0.0, 7.023057198809383, 3.623261748732805, 0.0, 10.0, -10.0, -5.79357250994943, -6.998625780497029], [-10.0, 6.064424688281372, 6.064424688281372, 6.064424688281372, -10.0, 0.0, 5.022067306316012, -0.1145390141453694, -10.0, -2.130023660291191, 6.997718625686041, -10.0, 10.0], [-10.0, 0.0, 4.900998989618889, 0.0, 0.0, -0.4307774397053885, 0.3966167242915817, 0.6093301660765609, -10.0, -5.580884467015679, 10.0, 0.3759016828445904, 10.0], [-10.0, -3.900914848725081, 6.090111111632474, 1.944140478442473, -10.0, 0.0, -0.2467377004788953, 4.119429814290285, -10.0, 0.21439172869594, 0.0, 5.428532053049961, 0.0], [0.0, 9.599113106353617, -6.624780381721408, 5.598450402391173, 5.209075146299487, -9.331383508573682, -7.954863676356277, 10.0, 0.0, 10.0, 0.0, -0.3273527568692414, 0.0], [-10.0, 0.0, 0.0, 3.16874447975881, -10.0, -0.4299670677744567, 0.3978191567028366, 8.906112630996093, -10.0, -1.310239744692648, 10.0, 1.723019520601463, 0.0]]}}, {"Field0": 1263906482, "Field1": "4_41", "Field2": {"Field0": [0.8756989208860922, 0.0, 0.8599036136391169, 0.0, 0.06705545057640447, 0.01981300022135267, 0.1001699707686224], "Field1": [-0.9998752912729701, -0.999906972764172, 1.000038880166281, 0.9998611292761017, -0.9998798244121061, 1.000065234356587], "Field2": [[-10.0, -0.1043006661033314, 0.0, 0.0, 0.0, 0.0, 3.419599388092411, 3.623261748732805, 0.0, 10.0, -8.151849943752362, -5.79357250994943, -5.157247374385593], [10.0, 2.161375024145312, 10.0, 6.064633437817429, -7.791766855183573, 0.0, 8.320706492608661, -0.1145390141453694, -10.0, -2.130023660291191, 10.0, -10.0, 10.0], [10.0, 0.0, 10.0, 0.0, 0.0, -0.01440085608480945, 2.49577046238479, 0.6093301660765609, -10.0, -5.580884467015679, 10.0, 0.3759016828445904, 10.0], [-10.0, -7.511343928966035, -9.951175906918824, -5.569399443031128, -10.0, 0.0, -9.667564746480583, 4.119429814290285, 5.460562344472942, 0.21439172869594, 0.0, 5.428532053049961, 0.0], [0.0, 8.351801876704862, -2.208596021079108, 5.580893299065279, 5.897161127830826, -9.140442921163128, -6.918304424104328, 10.0, 0.0, 10.0, 0.0, -0.3273527568692414, 0.0], [10.0, 0.0, 0.0, 3.169157706716777, -4.65972050577326, -0.01467194667390093, 2.495779789121668, 8.906112630996093, -10.0, -1.310239744692648, 10.0, 1.723019520601463, 0.0]]}}, {"Field0": 1096449587, "Field1": "4_45", "Field2": {"Field0": [1.0, 0.0, 0.0, 0.9343196883826542, 0.0, 0.021768299739791, 0.0], "Field1": [-1.000012070321294, -1.000083592998077, 0.999947485844078, 1.000013269591908, 0.9858748645601151, 0.9998974119948335], "Field2": [[-10.0, -0.106409835467923, 0.0, 0.0, 0.0, 0.0, 2.383174014222872, 3.623261748732805, 0.0, 10.0, -10.0, -5.79357250994943, -10.0], [-10.0, 10.0, 10.0, -10.0, 0.08044932120185866, 0.0, 8.967034594609009, -0.1145390141453694, 10.0, -2.130023660291191, -10.0, -10.0, -10.0], [10.0, 0.0, -6.06422660814686, 0.0, 0.0, 5.439934814372541, 4.122424239497239, 0.6093301660765609, -7.007047477231129, -5.580884467015679, 10.0, 0.3759016828445904, 10.0], [10.0, 0.3609862353805324, -6.063841792105499, 10.0, -2.127669835653432, 0.0, -0.1685673804205674, 4.119429814290285, -7.006938047958542, 0.21439172869594, 0.0, 5.428532053049961, 0.0], [0.0, 5.872794834807093, 5.720969894979167, -4.561875935642774, 3.418154085933057, -10.0, -9.723820416561026, 10.0, 0.0, 10.0, 0.0, -0.3273527568692414, 0.0], [10.0, 0.0, 0.0, 10.0, -4.659754356250188, 5.438368378094362, 4.122132206585629, 8.906112630996093, -7.005737120301195, -1.310239744692648, 10.0, 1.723019520601463, 0.0]]}}, {"Field0": 2236125108, "Field1": "2_5", "Field2": {"Field0": [1.0, 0.0, 0.004618291638847167, 0.04301048064615125, 0.1283115661604175, 0.0, 0.1245687597041198], "Field1": [-1.000035111954528, -0.9997721763239409, 1.000057854625013, 0.9999538068402182, -0.8853892229423268, 0.999957852023607], "Field2": [[-10.0, -1.700454771752702, 0.0, 0.0, 0.0, 0.0, 5.862638181260796, 3.623261748732805, 0.0, 10.0, -10.0, -5.79357250994943, -10.0], [-10.0, 6.713002642417894, 9.846695043831151, 4.847698160854401, -7.91415634939369, 0.0, 5.896862856603514, -0.1145390141453694, 10.0, -2.130023660291191, -10.0, -10.0, -10.0], [10.0, 0.0, -3.095590108358573, 0.0, 0.0, 2.020931777402505, 0.7006779972800965, 0.6093301660765609, -6.999622147957407, -5.580884467015679, 10.0, 0.3759016828445904, 10.0], [10.0, 10.0, 7.836230097060653, -3.225428796108774, 10.0, 0.0, 10.0, 4.119429814290285, -7.003318277639355, 0.21439172869594, 0.0, 5.428532053049961, 0.0], [0.0, 5.629441548000771, -1.761482818635773, 8.258770675323833, -7.61087650510831, -6.335038308928658, -6.28858769843696, 10.0, 0.0, 10.0, 0.0, -0.3273527568692414, 0.0], [10.0, 0.0, 0.0, -3.227009742530497, 10.0, -2.756805287858216, -1.942360902582452, 8.906112630996093, 